2405 128
2191 0.084137894 -0.13604264 0.33268574 0.42826715 -0.042809114 -0.3783858 -0.40641177 -0.087397724 -0.047794394 0.093678795 0.13814893 0.66297597 -0.27629364 -0.24908063 -0.0662354 0.009968837 0.15940958 -0.5853696 0.104381725 0.7017764 -0.50458765 -0.0005945798 0.36681995 0.054585114 0.56523156 0.39453784 -0.034613874 -0.056478284 -0.100817494 -0.028621897 -0.4448586 0.23144718 -0.15349075 -0.19433635 0.69634587 -0.27469912 0.10136172 0.1203681 -0.27699867 -0.020566415 0.44218457 0.02144167 0.49931163 -0.17483303 0.15551868 0.024764042 -0.47229066 0.15353423 0.03368329 -0.17305304 -0.0735147 0.017457696 0.08812989 0.23002698 0.2322682 -0.07605445 -0.2091071 -0.34198618 0.026604025 -0.028040243 0.038946997 0.10480296 0.0891399 -0.182562 0.14398533 -0.25622988 -0.34768343 0.3401875 -0.4648328 0.45297915 0.22580542 0.25369567 0.47581366 0.053839535 0.33042312 -0.20501633 -0.10868892 -0.32749328 0.3053526 0.0932428 -0.028644154 0.08695721 -0.18125439 -0.16432655 0.056097675 0.7142552 0.0042033596 -0.04585608 0.081970476 0.1396462 0.2920357 0.34799784 0.07691249 -0.011494544 0.17440405 0.017798489 -0.13588788 0.07367473 0.113509424 0.4992213 0.2058456 0.32157332 -0.047061212 0.25724205 -0.40402442 0.48732856 -0.22939032 -0.12753111 -0.040033348 -0.0051676542 -0.10197409 0.03562774 0.31908634 -0.20180634 0.041320767 0.13586219 0.48365274 -0.05124603 0.24163856 -0.119736485 0.1474194 0.33321384 -0.13965458 0.3120863 -0.04212629 0.16913097 -0.39286876 -0.04294742
458 -0.2246238 0.12666501 -0.2597712 -0.28407097 0.0021826385 -0.0481732 0.22850181 -0.02223005 -0.066325724 -0.05868496 -0.12421714 0.3453991 0.107504345 -0.20002195 0.21385224 -0.29715344 -0.19203065 0.05221777 0.0030194423 0.16028884 0.13357729 0.10561882 -0.02984023 0.103278 -0.06366015 0.016381219 -0.05403148 -0.35196587 0.02284043 -0.09807017 0.10960446 -0.011775785 0.04884465 -0.12691605 0.23494016 0.043444857 -0.17487036 -0.041041657 -0.40837926 -0.012695223 -0.1830146 -0.09719609 0.176498 0.06989984 0.111412466 0.25390425 0.021221293 -0.059759174 0.03733505 -0.25126827 -0.2241538 0.17805853 -0.059011407 0.14828187 0.33100748 0.005614034 -0.14539936 0.13710466 -0.47893137 -0.012562728 0.25790328 0.034448322 -0.043601677 -0.014249243 0.04047005 -0.055726856 0.17265348 0.2840947 -0.018416395 0.11367491 -0.14163667 0.09346329 -0.017726852 -0.14171964 -0.25212222 0.018465774 0.07490429 0.07622131 -0.026619218 -0.051245123 -0.48882028 -0.04818557 0.14793526 -0.05519959 -0.2563118 0.43564007 -0.07077589 -0.118879825 0.13738234 0.30344582 0.2812889 -0.056851733 0.23280692 -0.1389518 -0.3197303 0.08497554 0.18930733 -0.42299366 0.24558084 -0.16892381 0.34333816 0.14236279 -0.047767423 0.24906957 0.19897404 0.027127715 0.09821508 -0.33439884 0.06912783 -0.26615202 0.2979338 0.07432119 0.053094625 0.32558864 0.07314736 -0.06823311 0.3879022 0.03561463 -0.21122767 -0.13341802 0.4876325 0.19454752 0.03632176 -0.16332677 -0.0032582544 -0.16289692 -0.060738586 0.27518657
663 0.24871714 -0.004878206 0.21237963 -0.099346 0.16268365 0.2024227 -0.024786547 0.026351497 -0.254114 -0.35421383 -0.3794538 0.28894162 0.19931987 -0.07574578 0.3409056 -0.023119953 0.40562862 -0.06117036 -0.5366072 0.0012171596 0.051542103 -0.1701216 -0.1894096 0.21938214 -0.07139858 0.27878758 0.4789885 -0.09087701 0.24856888 0.09518423 0.16927657 -0.08962274 0.057099074 -0.18995954 -0.15125446 -0.11467877 -0.07116808 -0.22445615 0.051002398 -0.29707682 0.07850486 0.16106322 0.16964678 0.2682012 -0.53606397 -0.108511806 -0.05406311 0.04262711 -1.0829926 0.09568546 0.23213975 0.5734705 0.02705953 0.12067665 0.04097794 -0.010379841 -0.24995102 0.20089513 0.31173095 -0.14918523 0.39104158 0.24522504 -0.18840033 -0.3189766 0.27687013 -0.09316151 -0.14035192 0.088815734 0.114576414 0.4280298 -0.348285 -0.19686823 -0.5026437 0.21676683 -0.57527286 0.12178072 -0.17167667 0.14448582 0.26006842 -0.08998392 -0.06878271 0.100997865 0.08769202 0.31089446 -0.11560423 0.00069274637 -0.419594 -0.08608323 -0.1180286 0.37731424 0.25457457 0.12486835 0.3092788 0.08321287 0.026547361 0.004024519 -0.34472135 0.15546955 -0.36775416 -0.2498925 -0.052635223 -0.29395023 0.25008506 -0.08847807 -0.5344437 -0.050227243 0.26854968 -0.006831004 0.29709318 -0.069318764 -0.23008211 -0.098462574 0.10220675 -0.22228616 0.17519468 -0.032894116 0.54506105 -0.09416076 -0.35188958 0.047106974 0.116671406 -0.028360132 -0.2525925 0.13092759 0.19376579 0.42772147 0.29173204 -0.08660649
2299 -0.04936329 -0.164142 0.41952777 -0.30746156 -0.2045994 -0.017898774 -0.10819785 -0.22226226 0.012399836 -0.28811997 -0.11130553 -0.016649082 -0.22119302 -0.029838754 -0.0681951 -0.116489 0.056932703 0.115313806 -0.09024508 0.0047147465 0.00668737 -0.15131252 0.23104414 0.32652175 -0.11149565 -0.047602877 0.12649788 0.18073076 0.11479555 0.05287525 -0.06864618 -0.09049637 -0.12915462 -0.3157709 0.25658712 0.079637654 0.014257705 0.088228315 0.018489264 -0.10523082 0.18583068 0.047519207 -0.2311213 -0.055190288 -0.07168481 -0.18067396 -0.033926517 0.14678629 0.18701118 -0.19775859 0.18231258 -0.16413908 0.08204034 0.41190925 0.1819586 -0.16404778 -0.4316779 0.22573045 -0.007579836 -0.10371936 0.13038811 -0.1282526 -0.0052760993 0.25177696 0.06841366 0.082579836 0.020407265 0.17984574 -0.002168132 0.15621193 0.11642514 -0.16492051 0.08425082 -0.087624274 0.13874125 0.27006882 0.14236845 0.09662608 -0.19515872 0.207927 -0.030164806 -0.08837323 0.21693055 -0.045660596 0.116821535 0.2955748 -0.1899293 -0.16486712 -0.12188908 -0.007967611 0.21635133 -0.028930154 -0.25033295 -0.43068478 0.17348875 -0.04160762 0.3108375 0.48858204 0.48471025 0.034064658 0.33219063 0.22976594 -0.32864287 0.26429847 -0.07105637 0.2837925 0.04104691 -0.41426435 -0.1392493 -0.111183286 -0.38914442 -0.15014459 -0.033485517 0.07186506 -0.1442923 0.016506348 -0.07470477 -0.15331815 -0.12463295 0.33274433 -0.08549931 -0.11349609 0.12597826 -0.20121247 -0.027611084 -0.21475889 -0.06996631 -0.08144798
1129 0.42943886 -0.21608509 -0.058552034 0.04319223 -0.5740478 -0.6097145 -0.46171623 0.12585928 0.6539118 -0.3376115 0.0052888687 0.4709448 0.40807185 0.50318146 0.42583972 0.27658567 0.15623541 0.27242082 -0.35898322 0.6982066 0.0575417 0.09057037 -0.3189536 0.23205112 0.269729 0.47740954 0.4072199 0.08393909 -0.03159481 0.05915447 0.22936253 -0.48889714 0.28821093 -0.56962144 0.52392155 -0.42834842 -0.14670245 0.8693851 -0.28546652 -0.8143782 0.20508662 0.34850845 -0.4415927 0.27357715 -0.15751858 -0.5925232 -0.18225943 0.08881396 -0.3920121 -0.34218565 0.42911556 0.2772818 -0.0054703993 0.039864574 -0.13273014 0.5319706 -0.19870386 -5.4848206e-05 -0.24537827 0.09661792 -0.31966862 0.23302111 0.17633739 0.45461693 -0.35348758 0.25352272 0.27081886 0.6213929 0.15173253 -0.24745828 0.06743744 -0.0075593824 -0.54559714 -0.1615953 -0.1695074 0.14415105 -0.15982454 0.4522681 0.17395383 -0.32881606 0.014908991 0.3061656 0.12560959 0.21281794 -0.15345247 0.2474863 -0.17396283 -0.28173178 -0.23889786 0.24142186 0.41466016 -0.15026677 0.016006071 -0.14409599 0.48954412 -0.15440613 -0.41829282 0.2679097 -0.26280844 -0.22848578 -0.012055248 -0.71985704 -0.31036758 0.2046346 0.17377178 -0.22482125 0.337323 -0.0771554 -0.33572286 0.12039085 -0.24955778 0.06794005 0.1199929 -0.3234913 0.10828477 -0.25300822 0.6728408 0.37586698 -0.38070974 -0.14048196 0.1909831 0.26052698 -0.1768399 0.18756938 -1.2003495 0.4977026 0.43341616 0.32419047
1183 0.19882092 -0.042268284 -0.09599928 0.2119482 -0.17840244 0.078725316 -0.22847158 0.61557245 -0.04260304 -0.03810924 0.39827496 -0.5085994 0.009595829 -0.09949938 0.19198547 -0.09377131 -0.67515725 -0.21023972 -0.016327789 -0.23597889 -0.30333537 0.14686976 0.11963629 0.16061005 -0.2532452 -0.57146144 0.7199695 0.4374542 0.010654853 0.2977533 0.039088693 -0.17438538 -0.31947422 0.007886323 0.15360598 -0.17126906 0.22693667 -0.30141765 -0.02484875 -0.199601 0.20636907 -0.12385067 0.14035939 -0.51232874 -0.099935375 0.11987691 -0.1360235 0.04865969 -0.46842653 0.13040192 -0.64223045 0.24096195 -0.21810298 -0.04292618 -0.18900692 0.16604224 -0.58314854 0.20281091 -0.07607767 -0.36909315 0.24430841 -0.25184634 -0.207919 0.26605988 0.50930727 -0.07815553 -0.026279004 0.1426319 -0.01868114 -0.11726525 0.14652199 -0.13141292 0.10296779 0.056563668 0.059306566 0.3997615 0.29415375 -0.15215729 0.06375887 -0.0638596 0.37021732 0.44252133 -0.104568325 0.24619085 -0.018147623 0.24736023 0.18202953 -0.48492432 -0.304604 0.025076043 0.07999153 0.29655284 0.16202363 -0.29102057 -0.060700316 -0.31226924 0.061636157 0.22634228 0.04703218 0.52766037 -0.0072610183 -0.02747483 -0.5967331 -0.43550926 0.5043568 -0.05494289 0.0663055 -0.043941356 0.38907105 0.46007818 -0.23464316 -0.030101923 0.71452266 0.18704893 -0.16135864 0.19100907 0.1697808 0.675292 0.10093591 -0.2668743 0.23115481 -0.079238266 0.308183 -0.35299948 -0.10458755 0.010928941 0.13093966 0.27178845
68 0.22065707 0.37798792 -0.14076947 0.24147479 -0.065514065 -0.016360324 -0.20624259 0.20552288 0.03905729 0.004490938 0.014184668 0.032631278 -0.2380651 -0.2905317 0.11225003 -0.03147902 -0.093929686 -0.16532908 0.10998423 0.06357047 0.25569743 0.10797668 -0.1189536 0.27720267 0.30409473 0.009063276 0.07253638 -0.08449323 -0.13559213 0.13117702 0.06678851 -0.049874403 -0.50783134 -0.5263207 -0.11248542 0.555791 -0.24340385 0.38152722 -0.17095509 0.03341022 0.31648973 -0.591162 -0.025861908 -0.30446628 -0.2825891 0.20470908 -0.008568601 0.34508032 -0.11358607 0.04392068 0.06204189 0.26010332 -0.3857131 -0.05633759 0.13949196 -0.038691144 -0.22211821 -0.05738851 -0.28026032 -0.36906415 -0.09772495 -0.014442436 -0.11703189 -0.2478519 0.03911574 -0.3386219 0.016633626 -0.29983145 0.16600855 0.4024746 0.13773213 -0.0431822 0.15768787 -0.22048779 0.10192224 -0.39324796 -0.11524247 0.21879472 0.07341249 0.1607782 0.19440879 -0.0002565929 0.16190311 -0.08789812 -0.3609456 0.42885467 -0.05669851 -0.09856791 -0.009063756 0.06752216 0.040978327 -0.23938668 -0.037516247 0.41342017 -0.026436783 0.105063535 0.27678838 -0.1303905 0.27402028 0.10050312 0.0024367853 0.23644494 0.07310247 0.006929214 0.16953152 -0.30912498 0.0853773 -0.5901768 -0.02025629 0.081363626 0.10470945 -0.28963533 -0.28011596 -0.024607517 0.036731247 0.028947867 -0.32567874 0.5073344 -0.17770658 -0.072661504 -0.11596865 0.12634595 -0.011291817 0.24553838 -0.018901866 -0.34995112 0.32279408 -0.123027645
1419 0.055469103 -0.008736878 0.34341145 0.07315082 -0.09480301 0.07534596 -0.18637016 -0.3604546 0.1387849 -0.047742914 0.31726128 0.2718262 0.24129136 -0.2627498 0.02542537 0.17392106 0.07715182 -0.28897431 0.048428267 0.07185077 -0.04396068 -0.12745085 -0.2677818 0.073697396 -0.041029204 -0.33598167 -0.08214804 -0.14842579 -0.17755966 0.13570878 0.3040961 0.16382694 -0.045533363 -0.68611455 -0.09627148 0.10043842 0.18607126 0.29917577 -0.3738032 -0.30404332 0.4777339 0.25821978 -0.02581618 -0.3442662 0.060768824 0.0577805 -0.026993541 0.010796879 -0.24752225 -0.0510353 0.0591335 0.33827993 -0.27815345 -0.2238424 -0.13288432 -0.061504375 0.06694 -0.0055867927 0.03580244 -0.3500484 0.38722903 0.061293066 -0.25398892 -0.353886 0.030580008 -0.16398951 -0.18310797 0.2733126 0.08965979 0.53389704 0.24409802 -0.15819216 0.12411473 -0.29865792 -0.26145127 0.048083212 -0.37532565 0.017219698 -0.58498406 0.034536704 0.28148082 0.066550136 -0.18458565 -0.30739257 0.39833945 0.111619346 0.20397006 -0.022636827 0.21735004 0.2519282 0.19907102 -0.08091421 -0.31534457 0.38287848 -0.031386357 -0.29737648 0.21058208 0.012421212 0.08869867 -0.24950536 -0.11807579 0.2267419 0.065106146 -0.09899053 -0.08988565 -0.3367988 -0.2497244 -0.4692829 0.2782517 0.060414366 0.050395597 0.25167623 -0.0003494617 -0.17286585 -0.13427809 0.07773417 -0.037342254 -0.15267111 0.06540316 0.16335273 0.2826845 0.19118428 0.08410082 -0.011631494 0.087319404 -0.2865597 0.13914184 0.20926984
2144 0.343221 0.097098 0.78909713 0.12211631 -0.08682438 -0.022662468 0.6572602 -0.10125691 0.3106102 -0.74769855 0.2368151 0.47208634 -0.24000667 -0.04490701 0.22629839 -0.31339347 -0.026785532 -0.37963173 -0.2105091 0.060239736 -0.07071746 -0.63436127 -0.084223084 0.41453156 -0.12484134 0.2771479 0.69686925 -0.5943 -0.66854227 0.54200816 -0.21576038 0.6250014 0.1516471 -0.15262015 -0.027660847 -0.012709938 0.40178323 -0.29796454 -0.6198945 -0.4249515 -0.21364985 -0.028156562 0.00915913 0.09508036 -0.46600625 0.15872975 0.13976166 0.2510406 -0.4165439 0.2680585 -0.42198104 -0.47090963 -0.41619423 -0.21611594 0.06050095 0.2797836 0.017075483 0.17266597 -0.13837725 -0.072545305 0.02695011 -0.11798507 -0.3586862 0.59195864 -0.03916096 -0.5514264 -0.1736853 0.33524367 0.2721819 0.3411301 0.45672688 -0.32345793 -0.36927566 0.0716534 -0.07660879 -0.6005875 -0.23664029 -0.022960464 -0.041954335 0.25515848 0.10828652 0.4836997 0.35001484 1.0185891 -0.07279869 0.21903816 -0.44261518 0.04832728 -0.46060425 -0.24368717 0.3525363 0.8788536 -0.3006406 -0.084455736 0.46378574 -0.079473734 0.49886575 0.23437473 -1.0310518 -0.8210173 0.14546126 0.2538945 -0.1794771 0.381943 0.41378334 -0.18630484 -0.070760615 0.41703582 -0.2516285 -0.35951364 -0.63940835 0.40559027 0.11008825 -0.56530017 0.018974615 0.003904555 -0.09344929 -0.114476845 -0.27702132 -0.45690233 -0.1321873 0.24327375 0.6264204 -0.11056706 -0.29858768 0.04332613 0.2639322 0.048268378
1271 0.3043477 0.024771905 -0.14637958 0.025905265 0.114309475 0.13075216 0.029659385 0.55796957 -0.26895994 0.69946855 -0.41976038 -0.20493264 -0.43557066 0.22764182 0.20857435 0.45021123 0.25336865 0.37586117 -0.07131841 0.48654065 0.15336794 -0.1381941 -0.06930325 0.40854716 0.16280338 0.1294904 0.062325202 -0.3942845 -0.42747098 -0.31723312 -0.21663539 -0.7417821 0.019552631 -0.25396392 0.23252481 -0.26600632 0.06575721 0.21902993 0.1627584 0.6403546 -0.15362772 0.44500253 0.20672992 -0.26759395 -0.2917769 0.13508849 -0.04972455 0.06956923 -0.6137969 -0.2944661 0.05771896 0.013085692 0.42902473 0.25291127 0.12147397 0.07134832 0.003969939 -0.27881086 0.09825378 0.052652325 -0.5171739 -0.41860774 -0.10067974 0.43663913 -0.12645012 -0.36340484 -0.109059915 -0.1385514 0.29943484 0.2660553 0.09875991 0.65895134 -0.51329625 -0.24206997 -0.09032891 -0.31865197 -0.28017253 0.19659804 0.11702933 -0.61402094 0.3052184 0.2933502 0.09771267 -0.1949334 0.15822506 0.3574511 -0.08617832 -0.11664143 0.11179901 0.04665591 0.07649405 -0.035497464 -0.44092697 -0.28967944 0.46622595 -0.87109876 0.21168533 -0.095458254 0.67126304 -0.17618372 -0.60347223 0.061476085 -0.4550596 0.5378009 0.18747939 -0.34816733 -0.35566837 -0.08646475 0.85226846 -0.07166164 0.046124756 1.0215936 0.37582195 0.02097481 -0.06613864 0.03556983 0.37977806 0.44989717 0.41422138 -0.011344164 0.046900533 0.73809254 -0.20646042 -0.65205264 0.25113383 0.059512194 0.33030996 -0.066292025
1990 0.43972945 -0.4905637 -0.055403113 -0.00015905911 -0.10114436 -0.19057195 0.2266892 -0.43954554 -0.34393424 -0.266457 0.3823341 -0.19325271 0.25615072 -0.9643283 0.27365917 0.48108467 -0.052227773 -0.559919 0.1563743 0.13937604 -0.087055 -0.32048798 -0.07946324 0.3366203 -0.0069834944 0.23999049 0.18234365 -0.46168828 -0.36043102 0.12813477 -0.5510612 -0.30932346 -0.520388 -0.17983675 0.6021651 0.26612976 -0.22253802 0.2836281 -0.2414474 -0.2242059 0.48266014 -0.65956545 -0.43739197 -0.1290163 -0.39847368 0.63329387 0.24515732 -0.42293483 -0.35589123 0.22726734 -0.5913491 0.4548574 -0.31720388 0.07457279 0.03348654 -0.21332686 -0.11291066 0.3174689 -0.05636999 0.19162211 -0.15895247 0.05619283 0.45652434 0.08483105 -0.011315101 -0.45176435 -0.6124093 -0.1099301 0.5291063 0.18710524 0.2708676 -0.24148987 -0.19591346 -0.1594523 0.05911836 -0.39027676 0.2619402 0.6066928 -0.061618384 0.9095507 0.040582847 0.23706359 -0.21225499 -0.0631276 -0.44812348 0.2575055 -0.009080329 -0.24539384 0.8758959 0.1336906 0.70282567 -0.056713488 -0.406358 -0.40005684 0.5826078 0.0070090815 0.003977085 -0.042306256 0.14884873 0.37068108 0.35440916 0.10942587 0.3625241 -0.60433364 -0.13956043 0.60429263 0.39938152 0.09840766 0.43475032 0.20369393 0.16578217 0.22668047 -0.021887776 0.11949286 -0.06453474 0.47051963 -0.062146284 -0.13576543 -0.058830474 -0.39628166 -0.06336677 -0.47260177 0.23306432 0.061924096 -0.1997652 0.40641168 0.14323053 -0.12091051
1596 0.042918723 0.018813469 0.39311457 -0.009018238 -0.8825204 0.25436804 -0.61071295 0.091060825 -0.3056406 -1.0214711 -1.0851619 -0.4428163 0.43234783 -0.07807324 -0.79654217 0.24140249 0.7865692 0.04192192 -0.1872401 0.21463159 0.6439379 -0.5363511 -0.040063206 -0.05897286 0.2976586 -0.16962571 0.07768867 -0.2696199 0.3569747 0.1301415 0.3365515 -0.20138413 0.6793507 -0.3549017 0.57332075 0.069541454 0.6111878 -0.5236096 0.19754352 0.9967127 0.10310465 0.06467606 -0.3490256 -0.27321348 -0.16005966 -0.53451586 -0.5579017 -0.16009365 -0.44734564 -0.57315594 -0.59368473 0.46301875 -0.93366396 0.114861116 0.65820616 -0.22130804 0.33075836 -0.03594715 -0.40940297 -0.023562968 0.32970855 0.6942477 0.26738012 -0.3979064 -1.1895989 -0.5188244 -0.60313845 0.24572764 0.3994549 0.10008829 -0.029272608 0.45792493 -0.3806329 0.10150771 -0.21062437 0.31628954 -0.5349174 -0.37658587 0.48941576 -0.011857291 -0.27184045 0.951823 -0.052570537 -0.34477097 -0.5396511 0.99394256 -0.058057547 -0.015611307 -0.59374875 0.6336408 0.17549036 0.31183124 -0.20875406 -0.107488625 0.28959143 -0.6816617 0.4607226 -0.25465646 0.08984556 -0.004424945 -0.04712243 0.88431066 -0.3706936 -0.15623362 -0.21365392 0.21982333 -0.4313674 0.09086375 0.19600244 0.4765692 0.10955365 0.6488976 0.016940314 0.25835577 0.96038055 -0.27408332 -0.380875 -0.4717563 0.7871053 -0.13796373 0.3152473 -0.067199305 -0.13328335 -0.24306718 -0.6521307 -0.42489088 -0.17423007 -0.15327327
1845 0.16473584 -0.024137007 0.2394863 0.39635763 0.03936032 0.32326955 0.06385766 -0.3124898 -0.40857938 -0.40667784 -0.1902437 0.12548923 -0.39090163 -0.11743328 -0.049101487 -0.14204273 0.13540013 0.4358672 0.39808178 -0.79531634 0.419438 -0.05085775 -0.3401239 0.22650792 0.24629883 0.31675655 0.0054787784 0.004448207 -0.4164594 0.45648113 -0.7860098 -0.025687559 0.4738747 0.26091674 0.38788703 0.25097924 -0.19705781 -0.3164435 -0.11171905 -0.5311966 0.6757551 -0.42855036 0.22617997 0.41935357 -0.48438656 -0.26533172 0.32199854 0.39447013 -0.68061024 0.21866006 0.18129662 -0.047154106 -0.1709089 -0.4731047 0.12963872 0.23123144 -0.39371482 0.5424288 0.11885935 -0.091857485 0.23325126 0.54546326 0.1266624 0.03443131 -0.05996293 0.18992119 -0.20618519 0.53010607 -0.11037112 0.118464954 0.7059733 -0.018667748 0.019972969 -0.22313945 0.32732376 -0.14163835 -0.023084806 0.28791425 0.1883389 -0.1513436 0.44732282 0.40077808 -0.2020579 0.029679846 0.032778088 0.39234823 0.17395899 0.3893047 -0.14840655 -0.39216214 0.47109702 0.87448007 -0.19795525 -0.32052228 0.16265604 -0.48181012 0.7340786 0.8837375 -0.16270085 0.3504452 0.021336026 -0.2896152 -0.3598327 0.26081127 0.42477557 0.06581555 0.005673661 -0.29289842 -0.2395936 0.22183858 -0.08190614 -0.1763077 0.20142183 0.48011744 0.37545845 -0.018541893 0.46637616 0.18817113 0.15199639 -0.51290953 -0.24800913 0.38714445 0.31596035 -0.11302496 -0.0042495686 -0.4648682 0.041149613 0.18348591
2017 -0.5581093 0.10549273 0.28156477 0.72213817 -0.13351777 0.13190153 0.08705254 -1.1920152 0.77501065 0.10125592 -0.866277 0.3423266 0.20186003 -1.2093458 0.57990795 0.4805508 0.31858456 -0.7159802 0.074297674 0.33877906 0.6108184 -0.48222622 0.5784024 -0.16145565 0.13499714 0.32831028 -0.2959777 -0.20605603 0.17516245 0.5024163 -1.2220262 -0.36747104 -0.18299663 -0.91479445 0.08888746 -0.9845806 -0.08498006 0.33924413 0.029271992 0.50273037 0.08678303 -0.25307584 -0.74966073 -0.03501049 -0.51097864 0.5141133 0.03114521 -0.004879032 -0.2024349 -0.65337497 0.2159623 0.49300724 0.07241183 0.16093189 0.13179754 -0.5596048 0.5145868 -0.07227284 -0.604458 -0.56255037 -0.45592487 -0.3927364 -0.17209361 -0.042331915 0.47431678 -0.52698773 0.26245195 0.17854352 0.46872443 0.0064148214 0.06047047 -0.5449908 -0.18612406 -0.090462305 -0.22159918 -0.042492032 0.97018486 -0.28586522 0.081451826 0.11605101 -0.16612892 -0.26704925 -0.91116107 -0.57531893 -0.14293432 0.8740856 0.13814199 -0.14818215 0.88173413 -0.46045145 -0.46429548 0.6267029 0.612678 0.4092409 0.30988893 0.14746486 0.058733992 -0.19388522 0.43032038 0.70875907 0.86527294 0.74104303 -0.4571394 -0.35982233 0.00688102 0.18678412 -0.5699326 0.19199179 0.249747 0.037349623 0.017565709 -0.43031985 0.20331664 -0.21966858 0.1286574 -0.074367635 0.48551467 0.42655042 -0.10813503 0.33152294 -0.0066810446 -0.67017174 -0.09627441 -0.3919293 -0.2855804 -0.6077739 0.28936467 0.5724359
1571 -0.29082754 0.1663063 -0.54829925 -0.0020747567 0.06404231 0.23731229 0.0609591 -0.3420978 0.23354433 -0.14570506 -0.24226426 0.27696115 0.15856381 -0.21176392 -0.29547742 -0.13640371 -0.02010791 -0.3768143 0.17881489 0.06931707 -0.6298435 -0.06626915 -0.33956814 -0.2115531 -0.35111964 0.43459222 -0.16081552 0.102738604 0.25298113 -0.4120419 -0.3219998 -0.32463902 0.24575216 -0.6924379 -0.38719097 0.11089194 0.25560138 -0.40868792 0.45942357 0.2045901 -0.05331734 0.18147713 -0.04771457 0.25914264 0.26636806 -0.36722055 -0.185518 -0.22825031 -0.23629726 0.48875743 -0.32266933 0.6501613 -0.23584045 -0.20158486 -0.18778366 -0.526481 -0.057179052 0.16156594 -0.28079876 0.27148086 0.3265058 -0.15476921 0.2684951 0.28120512 0.57118845 0.43239525 -0.36235738 -0.11168282 0.2601174 0.51921445 0.0902956 0.01771518 -0.40155828 -0.04254516 0.5555214 -0.23819454 -0.24540024 0.23102404 -0.22181857 0.2593555 0.13905655 -0.1309208 -0.45515132 0.23222195 -0.19192117 0.82834333 -0.15250854 -0.08728287 0.02848341 0.39227787 0.5454527 0.11394178 0.15793383 -0.044051684 0.2432364 0.52705187 0.05322124 -0.12002338 -0.16076213 -0.38999748 -0.24888173 0.30085036 -0.030844655 0.2133981 -0.031702902 0.16729102 0.25216445 -0.16568814 0.36745712 -0.08916336 0.2809236 -0.08006842 -0.06349667 -0.063568145 -0.14769483 -0.1580665 0.11880598 0.8758364 -0.10119476 0.10280618 0.13468552 0.19071248 0.35887364 -0.42376515 -0.2009679 -0.5905033 0.17368095 0.22914019
653 0.24291869 -0.28733853 -0.057046283 0.2920241 -0.23524483 0.102335826 -0.1158148 -0.16553628 -0.116439015 -0.14267676 0.28627 0.28819668 0.19757538 -0.41609567 0.01769918 0.18996929 0.4685884 0.4534131 0.0786995 0.3519408 0.024980078 -0.5861925 0.22229737 -0.046601754 0.055690978 -0.18565372 -0.111772075 -0.12183819 -0.20792036 -0.076867804 0.088370845 0.30262148 0.0027677247 -0.11429116 -0.23174292 0.060357008 -0.023896808 -0.17119159 -0.081651784 0.038835067 0.18036526 0.20506151 -0.24539274 -0.26230085 -0.24994265 -0.05936631 -0.13516031 -0.021516917 -0.5763328 -0.05619786 0.22594501 0.061813887 -0.069958575 0.09813896 0.1754251 0.13544318 -0.39023197 0.09278751 0.019817004 -0.35514072 0.54005563 0.16871832 0.074759535 -0.39609095 0.47451836 -0.32419312 -0.3209671 0.3590878 -0.1410218 0.5090031 -0.11423696 0.12651505 -0.21238816 0.34302068 0.08146669 0.25912973 -0.124197274 -0.16736616 0.14104597 0.23465228 0.11262778 -0.13314642 -0.04368284 -0.41602838 0.7509274 0.11809726 0.101323895 -0.35988998 -0.30394033 0.36206248 0.51215214 0.17735451 -0.0736877 0.06833677 -0.38645428 0.64428115 0.19267078 -0.011139131 0.05885788 -0.2277417 0.06432548 0.053354494 0.23157534 -0.18784681 -0.0694734 0.09649111 -0.29729053 -0.31862018 0.22766872 0.21506721 0.10902947 0.09799895 0.2793327 -0.31823006 -0.0672229 0.0070249583 -0.078585126 0.028723197 0.09075366 -0.008529464 -0.14251691 0.14451498 -0.357627 0.04068878 -0.21059617 0.20574515 -0.32030022 0.39807567
2060 0.17885804 -0.46695203 0.4443635 -0.6873138 0.22453338 0.21640848 -0.104424186 -0.5278078 0.34128457 0.004974819 0.15830545 0.17301251 -0.10908796 -0.72962266 0.3502616 0.06537408 -0.16115767 -0.25827107 -0.34781134 0.45346215 0.31893873 0.2633809 -0.17498891 -0.46420607 0.15754463 0.33520788 0.42654297 0.14044324 0.19999795 0.3875938 -0.48592395 -0.48425734 0.10700785 -0.0702401 -0.12172227 0.2909717 -0.6317374 0.34766972 -0.023210807 0.033278827 0.056231305 0.30413935 -0.08729595 -0.38769802 0.09457744 0.037947744 -0.4023792 0.07966848 -0.57800573 -0.4329451 -0.33744404 0.115347855 -0.030290497 -0.58862436 -0.40760174 -0.65891206 -0.1708388 0.2100098 -0.17509235 -0.165237 0.3857304 0.012277127 0.33894482 -0.3575367 0.074810795 0.6162375 -0.56507474 0.28930542 0.31816232 -0.021024339 0.0063573983 -0.24018484 0.32632315 0.11402716 0.07700666 -0.3667137 -0.032698877 0.119058475 -0.40047017 -0.14106953 0.21321967 -0.10874339 -0.0423632 -0.096932456 -0.1943417 0.26716208 0.09239827 -0.59039456 0.21932091 0.5076912 0.12877893 0.008647868 0.30672863 0.27894375 -0.06717168 -0.55212015 0.55841917 -0.0254559 -0.07395538 -0.45333228 0.3418336 0.19719794 -0.00029449235 -0.63712317 0.44465587 0.5108288 -0.09367176 -0.30322596 -0.0039263763 -0.06538773 0.009741379 0.49433854 -0.4565543 -0.14777333 -0.23699829 0.01961308 0.28769562 0.16607268 0.028069025 -0.2297187 -0.60048735 0.060882654 -0.27462983 -0.014383768 -0.012150003 0.53284985 0.01354803 -0.4600329
1341 0.08534008 -0.03184538 -0.25654647 -0.09853214 -0.13429451 0.115521595 0.10699138 -0.1734939 -0.31178358 -0.22543459 0.12852198 0.2183908 -0.12539369 0.10431284 -0.09953605 -0.08329547 -0.19412209 0.1715933 0.34947598 0.29552045 0.30523667 0.12673073 0.20579915 0.10720074 0.033614453 0.23145513 -0.005824888 -0.16610847 -0.21304148 -0.0060195937 0.33238766 -0.111403316 0.00716007 -0.32552922 0.19127807 0.17110297 -0.3177122 0.19946869 -0.26624253 -0.24796776 0.21411046 -0.042079024 0.37726298 0.31747973 -0.049267836 -0.1010193 0.28650934 0.54762274 -0.48862505 0.3696636 -0.103661686 -0.50644094 0.00017235873 -0.08776131 -0.21928315 0.015923694 -0.57881474 -0.22965704 -0.2465285 0.22285312 -0.1297209 -0.0065772072 -0.41163328 0.4009842 0.215053 -0.4822655 -0.175861 0.32152167 -0.17119336 -0.09572333 -0.046611242 -0.08744253 0.3087505 0.020577934 -0.20415065 -0.0045327563 0.24351498 0.04352211 0.4176803 -0.05033026 0.38625762 0.1782533 -0.10467293 -0.20814581 0.18751897 0.2488766 0.13329174 0.31367692 0.04619035 0.22579917 0.45252103 0.4381782 -0.13505958 -0.3493232 0.4430102 -0.2434598 -0.16259615 -0.006072213 -0.012313655 0.24445835 -0.11945376 0.14845069 -0.3371175 0.043393593 0.17532828 -0.12242708 0.33769345 -0.15662752 -0.18744825 -0.3862253 -0.26364362 0.5069826 -0.058839314 -0.010356583 0.075259216 -0.18816349 0.25782222 -0.1233412 0.1817878 0.22220998 0.24864088 -0.15143234 0.15869649 -0.13047136 -0.13335238 -0.3120668 -0.13711391 0.119186744
1462 0.34689182 0.16429998 0.0635484 0.19727013 0.15535718 0.23376557 0.18208775 -0.45188978 0.1607474 0.1891465 0.3759251 -0.034770247 0.08078498 -0.2099328 0.22913258 0.01664423 0.15162842 -0.22331308 0.05409597 0.11245672 -0.22251396 -0.14720125 -0.33961618 0.10972991 0.18277623 -0.0656807 -0.066485055 -0.045582782 0.0398218 0.15509821 0.27769792 -0.2073118 0.08760008 -0.47843385 -0.6659133 0.0053158267 0.075929195 -0.020821646 -0.34137478 -0.11161518 0.3562406 0.07471575 -0.2395641 -0.26260474 -0.119841315 -0.024759345 0.20479201 -0.13737538 -0.08244193 0.046896286 -0.016921839 0.54026335 -0.15434974 -0.34791782 0.071657136 -0.06259204 0.032496724 0.120693885 -0.12160492 -0.123805225 0.35175648 0.23997803 -0.039619714 -0.12997544 0.10488382 -0.14084654 -0.007839773 -0.032850288 0.2556622 0.21527635 0.4232783 -0.3791237 0.035961315 0.025414791 -0.05398072 0.19931081 -0.23336288 -0.1182335 -0.2394155 -0.32798922 0.17499243 -0.09115448 -0.016464313 -0.14460298 0.31203762 0.09245511 0.059816405 0.006718491 0.41519412 0.20109919 0.1193253 -0.08187991 -0.32670507 0.1841644 0.021003352 -0.3841415 0.20178643 -0.10236239 -0.02337684 0.21768947 -0.05360405 0.26511565 -0.2870374 0.13068177 -0.24649432 -0.12735869 0.43743604 -0.46916306 0.096355334 -0.19595878 -0.044113822 0.20851734 0.39217266 -0.19777079 -0.017303582 -0.18826915 0.200917 -0.19053125 0.23461083 0.17828205 0.19400547 0.53723884 0.18200356 0.15519622 0.13136338 -0.45971364 0.31977376 -0.011747647
84 0.48309577 0.28865975 -0.5542687 -0.49650043 0.0234508 0.15357117 0.32288206 0.02891036 -0.16540848 -0.38249624 0.4479184 -0.10208503 -0.1684715 -0.33395818 0.38318974 -0.15535124 0.23339815 0.27003005 -0.22415055 -0.37185717 -0.29153395 -0.08763202 -0.14761864 0.055754356 0.37246 0.6346882 0.41487476 -0.1389304 -0.17638381 0.5411158 0.20659128 0.39446476 -0.28474692 -0.25537333 0.3962183 0.32026687 -0.6893903 0.5869421 -0.11923766 0.6878447 0.45100012 0.14426836 -0.24733801 -0.47324133 -0.7500572 0.15144776 0.23979564 -0.21436624 -0.25636622 -0.53942037 0.1024334 0.34178478 0.028281081 0.3579384 -0.17746082 0.053195685 -0.20085837 -0.33423164 -0.7549783 0.12788226 0.13101053 -0.65375733 -0.06380946 -0.1462129 0.25195423 0.52631617 0.008855971 0.115286924 -0.3516436 -0.09140039 -0.22500567 -0.47659877 0.18314952 0.010382677 0.32092658 0.16754526 -0.17599031 0.09400719 0.25995737 0.30419227 -0.10643192 -0.0938845 0.15696521 -0.5930716 0.042595264 0.5933539 0.42295215 0.15808192 -0.03267991 0.0910872 -0.049059223 0.31001925 -0.24745095 0.26073796 0.13954093 0.010099414 0.38326028 -0.397051 0.1642976 -0.14808802 -0.16838989 -0.25454205 -0.5694517 0.6325828 -0.066678025 -0.05021478 -0.21101035 -0.037348446 0.19778441 -0.024677178 -0.03209132 -0.14448106 0.12549818 0.36027834 0.14122503 0.22148594 0.20656519 0.28492963 -0.03628035 -0.08584638 0.11524791 0.0924065 0.30902776 -0.08694495 -0.3864061 -0.0035367615 0.04376976 0.44621658
957 0.032829627 -0.20551518 0.4804942 -0.11569776 -0.17793533 0.5501752 0.23408085 0.45860475 -0.110844314 -0.07325828 0.04985527 0.33635196 -0.22966506 0.07593471 0.7204677 0.2776229 0.035676844 0.13681307 0.11391197 0.2314188 0.40648708 -0.59235257 -0.23465575 -0.024374364 0.016851727 0.77048457 0.2075547 -0.0015161606 0.12063618 -0.61439455 -0.06262946 -0.050494414 -0.4986435 -0.01605173 0.141942 -0.33525664 -0.52832496 0.31562155 -0.07406543 0.18539298 -0.4752401 -0.25855255 -0.14015871 0.12165802 0.23540448 -0.35031384 0.0054099634 0.3455744 0.040532902 0.14020802 -0.43189877 -0.28873023 -0.052234344 -0.18748114 0.0049779336 0.30308357 -0.277122 -0.10758995 -0.27105907 -0.4610438 0.25451776 0.3581094 0.13265686 0.031948127 0.43471068 -0.042097054 -0.22139046 0.14734608 0.096604064 -0.07122543 0.13376345 0.015359122 0.5275758 -0.58774287 0.26888597 -0.12417457 0.16162635 -0.1271524 0.016973455 0.3362113 0.5974276 0.38889787 0.42690873 -0.20554848 -0.07838389 -0.27962968 -0.19410117 -0.23743911 -0.06017969 0.42852247 0.48062712 0.2367741 -0.053492613 -0.22569194 -0.001261223 -0.3824776 -0.1868801 0.3574272 -0.51226074 0.17628783 0.04012783 0.03387506 0.10397611 -0.22094552 0.2907443 0.08593031 0.035053227 -0.5981297 -0.011170277 -0.10682124 -0.03687875 0.1802576 -0.014694521 0.119409926 -0.260664 -0.21360314 -0.02657907 -0.35468337 0.48893315 -0.58805156 0.46589187 -0.15795386 -0.37965912 0.17894623 0.017109761 0.26139835 -0.009317184 -0.040972296
2056 -0.37991378 -0.16038585 0.14945152 0.00018173236 -0.0130598955 -0.16645947 0.016116517 -0.72251236 0.31378806 0.15863146 -0.51451766 0.01397852 -0.17194137 -0.54450125 0.41871107 0.3437346 0.5795334 -0.4040822 -0.13367109 0.24704446 0.112533554 -0.42686793 -0.010444046 -0.103875384 -0.06884565 0.09183741 0.14599815 -0.0139849 0.12463553 0.2782631 -1.2264619 -0.16364996 -0.14914477 -0.22638093 0.12253538 -0.22152719 -0.45878556 0.33594295 -0.17115968 0.2557049 -0.44544834 -0.19552428 -0.37398183 0.1967895 -0.13673985 0.29321778 -0.19605742 -0.31843463 -0.11955166 -0.66076326 0.22957179 0.3249995 -0.060393486 -0.19745879 -0.34134066 -0.30105335 -0.36573678 -0.09931472 -0.23794034 -0.11084426 0.01869569 -0.22151409 0.052154977 0.14912523 0.10870795 -0.52401847 -0.32092062 0.013199284 0.44028473 -0.36451143 0.24394128 -0.6942918 -0.48162335 -0.022657368 -0.31769142 -0.17953555 0.4115612 0.09350668 0.19722982 0.18747808 -0.1093228 0.086090095 -0.4209178 -0.25976008 -0.046831246 0.2646273 0.13533108 -0.5097257 0.5388537 -0.5146189 0.062354553 0.27627888 -0.11132592 0.12543868 0.2369386 -0.3636032 0.50790113 -0.3453935 0.16037516 0.18397643 -0.028947443 0.58395934 0.08142401 -0.8769629 -0.17132239 -0.25801706 -0.076780565 -0.22496729 0.57514054 -0.002399707 -0.18806322 -0.5318221 0.10052759 0.3440313 -0.016908454 -0.022636632 0.22072047 0.45494056 0.36897165 -0.35774562 -0.23233363 0.13434401 -0.33398575 0.16237456 -0.08025818 -0.32801798 -0.015499779 0.45028254
2172 0.23443288 0.3683806 -0.08319785 0.13069253 -0.053662438 0.08265157 -0.39759657 0.20374304 0.02996303 -0.2629868 -0.14549966 0.18398471 -0.32723382 -0.49977243 -0.09473028 0.027319077 0.29458177 0.08274758 -0.44904608 0.1574126 -0.19213079 -0.084676504 0.4063933 -0.39240804 0.04022297 0.047472008 0.36739895 -0.6307385 0.15895003 0.4740561 -0.21734414 -0.11053459 -0.30492824 -0.0028803647 -0.22098964 -0.14953208 0.14481279 -0.02748276 -0.1788156 -0.31652385 -0.060369972 -0.012543588 0.45905864 0.35829473 0.36155495 0.08802645 -0.078878984 -0.31710204 -0.24101879 0.07692086 -0.036812585 0.18324302 0.15934406 0.21066418 0.10747531 -0.18378209 -0.9954555 -0.08312745 0.021241153 -0.07945577 0.21136118 -0.12470074 -0.5727364 0.18725388 -0.4020029 -0.13002802 -0.3246636 0.42165452 -0.31474912 0.26491052 0.19630238 -0.29843813 0.45985207 -0.5753863 0.24362853 0.19498388 -0.25686103 -0.24954604 -0.2939135 0.058107536 -0.37541735 0.30195448 0.38898316 0.06605012 0.17511313 -0.15401521 0.081075124 -0.26893562 0.29947695 0.025701186 0.4915322 -0.18197407 -0.1579868 0.0463062 0.9651563 -0.1864066 0.3521694 0.30846962 0.053861212 0.21024725 0.4433439 0.22115712 -0.29762784 0.4320407 0.3156959 0.04423626 0.26122025 -0.16435547 -0.0356149 0.49700773 0.19787785 -0.53105193 -0.04742796 0.2301428 -0.14395696 0.085853696 -0.07233714 0.10438214 -0.154772 0.5077048 0.15758643 -0.08406613 0.2266659 -0.28095782 0.19134948 0.14750601 0.13179475 0.61030036
185 0.26806968 0.08062952 -0.049191058 -0.009813553 -0.056593236 -0.15657401 0.12030714 0.013386662 -0.017365145 -0.32994905 -0.043780807 0.22702874 0.054211274 -0.18478316 0.1023633 -0.0025908796 0.47027162 0.33492297 0.14504683 0.051899772 -0.046326913 -0.43157554 0.10291112 0.1568644 0.19408688 -0.27521965 0.18485497 -0.092278734 0.0065041315 0.1970205 -0.111366026 0.15701234 0.17678194 -0.1446895 -0.15541746 0.030811388 -0.17821313 0.082288876 0.08618985 0.06577531 0.2743835 0.3739505 -0.1451965 0.12808156 -0.21877052 0.01831771 -0.04795706 0.24659604 -0.13243812 0.099250406 0.20380673 0.08498408 -0.044496693 -0.024081305 -0.10872805 0.14439835 -0.16166426 0.00082982035 -0.08440517 -0.036588404 0.4078718 0.21202102 0.10780204 -0.25281283 0.45610303 -0.2249582 -0.015173897 -0.047388162 -0.134263 0.38246852 -0.20000821 0.020701813 -0.025837628 0.23008639 -0.27684885 -0.046827808 -0.32385466 0.049175654 0.07301254 0.09436807 -0.15897977 -0.53629375 0.022776311 -0.30967575 0.37187675 0.12331495 0.14416687 -0.44610763 -0.08382681 0.26488274 0.3272429 0.19688915 0.027163437 0.37598115 -0.04488333 0.3243175 -0.20086281 0.06436959 -0.08413744 -0.08832965 -0.016014224 0.10001998 0.11828095 -0.055688858 0.00041523352 -0.22514386 -0.05459449 -0.079958506 0.4296299 -0.22760135 0.3329567 0.2872638 -0.062475365 -0.056918196 -0.29190153 -0.20763323 0.043040395 0.005201298 0.13438068 0.043046113 0.053947866 0.35324967 -0.18242125 -0.02550833 -0.26502755 0.15353286 -0.13996479 0.45437646
1382 0.2615634 0.0318951 0.19381715 -0.22814897 0.006353162 -0.17029549 -0.0756775 0.4461733 0.089924574 0.90314955 -0.11973085 -0.06212065 -0.42250848 0.03866272 0.315785 0.20718634 -0.21852298 -0.09570789 0.18616836 0.3416212 -0.6887993 0.16949524 0.1505129 0.59557205 0.17207755 0.5370167 -0.17131788 -0.7836344 -0.31887004 -0.16764179 -0.43067247 -0.51834565 0.16196272 -0.24125384 0.123805925 -0.3734549 0.1817118 0.026974734 -0.1323187 0.15860356 0.3272529 0.20218498 0.1718346 -0.13746043 -0.5481318 0.28306648 -0.3235471 0.49213365 -0.5006735 -0.64955467 0.3430502 -0.014091948 0.12646781 -0.346055 -0.4117092 -0.53064734 -0.37865612 -0.02148589 0.14323999 0.07176646 -0.26660296 -0.59431404 0.0640211 0.34579796 0.6649549 0.23340997 0.15103354 -0.1643618 0.63609046 0.40494826 -0.26557484 0.008050929 -0.47030568 0.22221874 -0.24491012 -0.335636 -0.27306518 -0.25595248 0.20910667 -0.6500577 0.16073345 0.48092732 0.47703385 -0.17073652 -0.05451886 0.37593487 0.17215328 -0.042501103 0.116940305 0.23096704 0.060849905 -0.079017736 -0.53839844 -0.32843137 0.48579708 -0.83680433 0.39873463 0.5217307 0.4406647 0.019289715 -0.15378396 -0.1275796 -0.840085 -0.04927975 0.80757153 0.19836889 -0.047913797 0.13813114 0.4573873 0.54929316 0.15213399 0.574349 0.27451405 -0.35839242 -0.15774766 0.08645813 -0.07017117 -0.22713383 0.12094286 -0.51700634 0.38488054 0.7236377 -0.014584804 -1.011557 0.014581763 0.5355019 -0.08007401 -0.4316088
588 0.13138448 0.3519727 0.20627376 -0.18217017 -0.046687704 0.034830514 0.36340192 -0.017441852 -0.17619187 -0.4559192 0.14503235 0.27006915 0.20301193 -0.0928681 -0.42941815 0.4769177 0.13766603 0.05979596 0.122665755 0.5837212 -0.43861023 -0.13266549 0.16371274 0.0036684084 0.32754692 0.12576002 0.34432667 0.31609216 0.5072689 -0.27189192 0.6282271 -0.28457472 0.0030847753 -0.2823693 -0.08202218 0.2844974 -0.39968774 0.19886544 0.17155686 -0.1190706 0.06868132 -0.2813759 0.01089399 -0.25735676 -0.30311927 -0.35139862 0.6338314 -0.502878 0.16558303 0.19619597 0.15221053 0.23448296 0.29296032 -0.23406753 -0.06519023 -0.47958672 -0.075730324 0.31911087 0.040101778 0.11162131 0.10681664 0.1794348 0.070278615 0.115663424 0.23304935 -0.05950281 0.013913176 0.43780926 -0.38517264 0.4441422 0.4148109 0.44025627 0.3885573 -0.17596442 -0.1996289 0.103985205 -0.020342475 0.17558777 0.26009202 -0.43896312 0.10334674 0.18527552 0.022359598 0.06985127 -0.28811634 0.4445221 -0.28587142 -0.34125274 0.22083217 -0.15167792 -0.37299418 0.44233257 -0.089375615 -0.41214317 0.33063164 -0.13439079 0.47031656 0.3499282 0.20709018 -0.06452668 0.016160667 0.64131916 0.17425783 -0.0637182 0.41413957 -0.22600165 -0.060116857 -0.4893761 0.3487071 -0.021169705 0.15995634 -0.53095925 0.41519922 -0.04108388 0.21621937 -0.45562112 -0.06301312 0.044509154 0.27386677 0.04784648 -0.026901536 -0.03806422 0.42555422 -0.29325923 -0.09172431 0.1563199 0.11707291 -0.022540903
140 0.7506229 0.3010539 0.14525993 -0.47904098 -0.26864693 0.008393062 -0.04313716 0.16669455 0.57555354 0.01014377 0.3792472 0.20485708 -0.42040005 -0.12311075 -0.20155625 0.013000592 0.16337574 0.31512964 0.2121628 0.036450893 -0.19964164 -0.45887947 -0.49594957 -0.12758471 -0.12792997 -0.29259965 -0.3359641 -0.023018075 -0.2218901 0.1609975 0.08046912 0.20041895 0.12666112 -0.26392666 -0.16271295 -0.37425873 -0.31005907 0.24844274 0.085739836 -0.51733285 -0.22448158 0.20761257 0.40800053 -0.21095103 -0.3449938 0.27232778 0.006526179 0.082080364 -0.430729 0.16788213 -0.07208219 -0.026508652 -0.04312571 -0.088295154 0.23066291 -0.3112853 -0.09855151 0.46698508 0.07323764 -0.14133008 0.24751388 0.35623872 0.5325872 -0.30226833 0.18103707 -0.4158638 -0.3931848 -0.07373403 0.15077001 0.12507412 0.42383468 0.036411185 -0.054295845 0.16277179 0.19761883 0.13007091 -0.48013288 0.06411507 0.2418989 0.012216275 0.05137754 -0.27111626 -0.06385355 -0.8031223 -0.32774627 0.09741088 -0.12819815 -0.18999423 -0.018480878 0.35019848 0.499991 -0.002647667 0.41665894 0.18086 -0.019773638 0.026895728 0.13193697 -0.64431125 0.09019861 -0.3998135 -0.35096636 -0.59682065 -0.013921074 -0.12151028 -0.6031459 -0.11599167 -0.46231672 -0.16544773 0.23604998 -0.2923015 -0.40304014 -0.59316605 -0.039513327 0.46799546 0.2514078 0.16689987 -0.22723246 0.14005776 0.22393896 0.30608216 0.48317134 -0.42331958 -0.02968488 -0.55702066 -0.18328422 -0.16047941 -0.32234415 -0.13756293
2292 0.26708567 0.8063265 -0.14442344 -0.124749936 0.15620892 -0.027855372 -0.32732788 0.45796093 0.016550533 -0.37297684 -0.14960861 0.040583268 -0.07688835 -0.37585276 -0.40674147 -0.047039483 0.31965244 0.08514769 -0.20898858 0.29738024 0.01920677 -0.04841163 -0.027904985 -0.28898746 0.13092756 0.19447711 0.26956695 -0.3796826 -0.05666536 0.19506171 -0.4834091 -0.00438859 -0.27794987 0.13024679 -0.25007743 -0.12993766 -0.06620921 -0.20492743 -0.19065803 -0.34165132 -0.0068063256 -0.013230303 0.30416828 0.62567574 0.39115345 -0.20226784 -0.0858006 -0.2740205 -0.13372992 -0.18093085 -0.06704279 0.16409662 0.35116026 0.07872457 0.08904854 -0.30594504 -0.6200185 0.050595015 0.049200665 -0.06141948 0.080227345 0.20644929 -0.46181414 0.13275674 -0.10489097 -0.2694131 -0.38567218 0.28839883 -0.24184385 0.12939514 0.112400405 -0.28442824 0.39314252 -0.5018141 0.2375171 0.19419795 -0.0010808698 -0.464533 -0.17125699 -8.0688566e-05 -0.21488135 0.09847404 0.4413276 0.078411594 0.1730083 -0.06569803 0.05968602 -0.19724585 0.21479972 0.28493574 0.68958604 0.08561264 -0.19290668 -0.09302643 0.9344736 -0.37367386 0.5353484 0.5299595 0.25640622 0.117268756 0.5635312 0.25087494 -0.095645055 0.6344519 -0.05729643 0.04202381 -0.10597428 -0.18302606 0.06310382 0.25700563 0.09542569 -0.2849065 0.038792796 0.24598189 -0.21193427 -0.053393487 -0.3359211 -0.15218437 0.0749138 0.08703939 -0.090911426 0.119248234 0.29770634 -0.3067233 -0.085967794 0.15584937 0.27105242 0.32502526
2148 0.22605072 0.302995 -0.021885734 0.1024418 -0.090526305 0.16710316 -0.2579345 0.2576037 -0.06612119 -0.30359796 -0.1824684 0.064222455 -0.2049097 -0.44496286 -0.1645017 -0.32956624 0.3225574 -0.05063495 -0.10283827 0.39690265 -0.07332649 -0.14621578 0.2500889 -0.3979335 0.0034967174 -0.025539827 0.40353835 -0.31503102 0.040915657 0.4264904 -0.24364102 -0.1379367 -0.14163108 -0.07459677 -0.018959126 -0.08931911 -0.026755169 -0.017616047 -0.11254071 -0.17765726 -0.2333446 0.03776491 0.107360356 0.35586342 0.13069883 0.019816084 0.0279554 -0.19139886 -0.10722548 0.12818532 0.12420946 -0.13260268 0.009404033 0.26851836 0.06307426 -0.060882676 -0.44184175 0.072467774 -0.07553308 -0.062061157 0.25807106 -0.096050866 -0.39778495 0.06990732 -0.35241616 -0.061915617 -0.17670448 0.3114141 -0.29277217 0.16017906 0.31004417 -0.13730964 0.23189898 -0.44878498 0.33670777 0.09612488 0.035362523 -0.25498456 -0.2432369 0.201213 -0.20491399 0.1728402 0.431727 0.08847034 0.14917712 -0.04793236 -0.09469067 -0.02701846 0.26704648 0.14345995 0.27905792 0.040831473 -0.15171865 0.036745016 0.73963714 -0.14252041 0.1719146 0.26786724 0.093646504 0.08103979 0.35767928 0.27932617 -0.3612751 0.30161938 -0.01922189 0.07196411 0.10458249 -0.19047263 -0.15693484 0.23160699 0.051681753 -0.3265046 -0.13052556 0.31207588 0.044276647 0.17476302 -0.10748319 -0.007950376 -0.121546514 0.39640993 0.06563001 0.0831415 -0.069849916 -0.38749403 -0.045680236 0.019618524 0.24018754 0.2752474
1607 0.13262823 0.055476367 -0.0061674337 -0.05067829 -0.25682908 0.17884718 -0.120621674 -0.25135666 -0.60104275 -0.14057821 -0.17101234 -0.053190093 0.2663411 0.01729933 -0.26312268 -0.029608391 0.16923293 0.06810336 0.050618626 0.104438215 0.106993824 0.010217464 0.42232883 -0.31399813 0.3145936 0.012521129 0.30320394 0.41518214 0.6069543 0.2618944 -0.15493141 0.05351551 -0.12883273 0.065093994 0.38940972 -0.3037673 0.34256262 -0.2232658 -0.17183766 -0.010862031 -0.02360804 0.14628689 0.21926452 -0.15225068 0.35504082 -0.24710816 -0.046965398 -0.13355112 -0.3205288 0.06606479 -0.09507177 0.14555368 0.029629806 0.15980113 -0.030096231 -0.031027738 -0.45957676 -0.12458706 -0.080290586 -0.41403523 0.26174107 -0.120276935 0.1878823 -0.19563349 -0.13129011 -0.21124727 0.06968988 -0.06471116 0.19888908 0.057068314 0.035210066 -0.15212095 -0.14396198 0.1740667 0.12093766 -0.07869333 -0.49599627 -0.16337164 -0.15663265 0.07438634 0.055493373 0.46708003 0.09061689 0.23726507 -0.06603389 0.20656632 0.14605531 0.14211649 0.46872944 0.118810296 -0.11165986 -0.026939206 -0.29530132 0.08251382 0.04719343 -0.027609196 -0.32737413 -0.04097745 0.020170849 -0.35989672 0.5594127 0.29548007 -0.3273757 -0.12262192 0.26558754 0.051477224 -0.03464319 -0.29318398 0.00795545 -0.27153772 -0.2975514 -0.15867005 -0.014084828 0.10134309 0.08568523 0.3008525 0.082001604 -0.16214967 0.08511994 -0.19214012 0.028332941 0.29858285 -0.13088046 -0.51651996 -0.17447473 -0.01802182 -0.21929632 0.027225168
1662 0.33920014 0.34722018 -0.14676495 -0.22709754 -0.6778741 -0.14960113 -0.008588463 0.16300598 -0.31019673 0.24044581 0.21829775 -0.16070831 0.12820601 0.21764895 -0.22219133 -0.12363952 0.2272688 -0.2713353 -0.1501129 -0.09486068 0.021713069 -0.09428099 -0.10516713 0.43984246 -0.087991774 0.022629559 0.34004328 -0.1844783 0.4637814 -0.050271694 0.0055097537 -0.21820363 -0.08033652 -0.36780754 0.35816434 -0.07317595 -0.4370173 -0.11850313 -0.24135846 -0.44979477 -0.13283488 0.052899085 -0.4633771 -0.029412769 -0.41405046 -0.0621624 -0.23820993 0.24333078 -0.50370353 -0.35139832 0.36945003 0.5071472 0.001917137 -0.31085673 0.2912792 -0.33893865 -0.28308395 0.052931607 -0.0477555 0.045614954 0.48595506 -0.29875398 -0.23831236 0.049591985 0.062006243 0.11742291 -0.30719334 -0.13438442 0.16961278 0.29697636 -0.13338256 -0.12452205 -0.08648347 0.25321466 0.16230497 0.12650102 0.011315901 0.037707224 -0.057753537 0.097753055 0.3076631 0.1620375 0.047165837 0.38304335 -0.17249024 0.15388843 -0.27349696 -0.21645883 0.12920532 -0.18652494 0.17723045 -0.2819596 -0.2895436 0.17309627 -0.2508118 0.25397852 -0.18768242 0.055089034 -0.32569453 0.24714074 0.5098651 0.12478729 -0.20104867 -0.033729315 -0.053512905 0.87986153 0.010145559 -0.066273436 -0.021227041 -0.33894327 -0.2764753 0.29782107 0.021983158 0.23275352 0.41375563 -0.018657725 0.22268008 -0.021917963 0.12960826 0.20658866 0.5595218 0.16020295 -0.5101102 0.17864768 0.0016101865 0.09265266 0.69721717 0.19054675
338 0.11451637 -0.09394145 0.1832403 -0.25814572 -0.42874366 0.38591176 -0.042713076 -0.22682762 0.06397781 -0.24033721 -0.22383083 0.0927993 -0.23639525 -0.13346404 0.15374069 0.31533876 -0.15137726 -0.16516441 -0.026681468 0.8045993 -0.24868965 0.23348999 -0.42694458 -0.20130189 0.32226455 -0.09359331 -0.09050355 -0.5045116 0.4545392 0.0151353935 -0.09520473 0.03365857 -0.08599604 0.12983294 0.29932952 -0.32443836 -0.16061728 -0.3863357 0.33766928 -0.12158398 0.6111799 0.17592601 0.3272629 -0.18624908 -0.08211182 0.057026923 0.41936573 0.66588694 -0.11827702 0.03951263 -0.043149006 0.31041086 -0.57705826 0.5121774 0.21154056 0.24176483 -0.009488309 -0.80446565 0.36921072 -0.11681032 -0.14907269 0.14364709 -0.35118252 -0.21811478 -0.041660365 0.1470295 -0.48098263 0.059547246 0.4753534 -0.32406962 -0.45711976 0.0033991314 -0.18577728 0.48108032 -0.029476827 0.21278831 -0.4266729 0.12036781 -0.4060826 -0.11726037 0.19117866 -0.23914206 0.17802145 -0.15347862 -0.40673816 0.43529588 -0.3486514 -0.25547844 0.26797956 0.53010225 0.15299214 0.090451166 -0.51815385 -0.69357616 0.20656417 -0.43997112 0.14520861 -0.30716696 -0.174357 -0.32826304 -0.2578609 0.244326 0.33346584 -0.0539358 -0.090092756 -0.3480787 0.023472393 -0.081336185 0.16837849 -0.011138191 -0.052127253 -0.15774442 0.55726534 0.16175066 0.50915015 -0.18539165 -0.32607773 0.7048407 0.4633211 0.15232012 0.283123 -0.15423536 0.22138982 -0.24259849 -0.2775014 -0.09788376 0.4112359 0.086206906
1136 -0.010689497 0.20196028 -0.7262713 -0.3646899 -0.84827054 0.91399866 -0.55678344 -0.27346495 -0.45021534 -0.20721461 -1.5093188 0.59614575 -0.26334956 0.05482778 -0.47422433 -0.3592244 0.067602105 -0.58998 0.46102363 0.4463211 -0.27780095 -0.69141275 -0.08656416 -0.7351208 0.45008945 -0.4150479 -0.45659453 -0.24650499 0.0034022331 0.5922702 -0.21304996 0.18898019 -0.69322544 -0.36867726 0.09806518 0.08570519 1.1517094 0.33232945 0.0019698392 0.39981228 -0.6600859 0.6078496 -0.35787427 1.0907034 -0.7046331 0.027177129 -0.13584124 0.44982904 0.11553107 0.09752012 -0.24547365 0.09634863 -0.09146427 0.13754413 0.34648433 0.6047851 -0.5481006 0.5258251 0.26893008 -0.3130693 -0.02647312 -0.5225384 0.46800762 -0.46165076 -0.40520567 -0.13392837 0.5162066 0.7595791 -0.22908285 0.4579752 -0.5310952 -0.80096084 -0.4362179 0.5960478 0.38387737 -0.37033734 -0.88887125 0.19060895 0.730594 -0.56565404 0.38132787 0.3960414 0.60115385 -0.31178972 -0.12838267 0.28724033 -0.1287103 0.27943254 1.5133002 0.030285977 -0.24672303 0.13389112 -1.3065704 0.7569654 0.03182876 -0.3814042 0.0557952 0.75845623 -0.4492301 0.2618897 0.4222424 0.5967529 -0.77396417 -0.78977054 0.5637433 -0.24903466 0.708351 0.4671268 -0.273517 -0.97972816 -0.040532745 0.26806918 1.0307354 0.5489289 -0.6040727 -0.31869513 -0.34530878 0.36551955 0.41157123 -0.9562456 0.12807257 0.7094545 0.6059574 -0.3984912 0.07268558 -0.09207328 -0.3449803 0.28133744
2004 -0.34622908 -0.57442504 0.42285347 -0.31306794 0.45270622 0.049702212 -0.7539148 0.40191612 0.37110057 -0.06361328 -0.31661525 0.6050945 0.3802205 -1.0201365 0.059073288 0.6183535 -0.19455898 -0.3002666 -0.32165083 0.36218593 0.2610188 -0.0060551628 -0.33470348 -0.31335413 0.13741197 -0.31807652 0.14091888 0.17036065 -0.6507149 -0.43787962 -0.39863554 -0.8932161 0.48563123 0.41646037 0.3954734 0.31741276 -0.0959476 0.4620298 -0.4653176 -0.0767308 0.019558411 -0.69284767 -0.5150418 0.34310707 -0.48955727 -0.14469996 -0.4317317 -0.57682955 -0.26334625 -0.29602936 0.017966395 0.08939251 -0.4725959 -0.42889145 -0.63476825 -0.401453 -1.0138421 -0.8581689 0.085042804 0.19156455 0.95337397 -0.19524693 0.10723958 -0.25627866 0.3088495 0.088703714 -0.5058137 0.589216 0.053688463 0.06651302 0.36988986 -0.17829649 -0.56958973 0.08272947 0.032525033 -0.7595622 -0.041991808 -0.25123516 0.3100075 -0.105509184 -0.5023286 -0.26812613 0.025128948 -0.008696737 0.056771785 0.35346428 0.48971233 -0.7384202 0.28570062 -0.31635493 0.09565953 -0.18450214 -0.20239826 -0.23548137 0.25661257 -0.7241089 0.40978035 -0.43460733 -0.21507417 -0.040853694 -0.35632592 0.18039264 -0.48608592 -0.3704851 -0.10773982 0.08071908 0.012390468 -0.8893775 0.39195567 -0.7533965 -0.1417058 -0.008170126 -0.06470316 0.46681693 -0.22309312 0.10566512 0.38627753 -0.16674219 0.76502913 -0.2891298 -0.21495996 0.35335475 0.28265002 0.5575739 0.15484278 0.033994164 -0.045867708 0.025944032
695 -0.014876683 -0.050065443 0.35509554 -0.28829777 -0.00034139073 0.24081495 -0.15438 0.09408449 -0.2899702 -0.3858276 -0.36320996 0.29872054 0.30573878 -0.075118765 0.10601319 -0.0017849753 0.432477 -0.19941676 -0.21084881 -0.29177967 0.17676905 0.34945175 -0.21111895 0.06950134 -0.15207261 0.20735975 0.6503303 0.21345258 0.19293562 0.023485433 0.122302935 0.04445318 0.17965168 -0.12391642 -0.4744338 -0.13900971 -0.12925395 -0.06250734 0.15056884 -0.3695232 -0.13063334 0.047063794 -0.066945754 0.33789563 -0.59188455 -0.1872499 -0.20847622 0.07609135 -1.3579438 0.16736063 0.031433214 0.58700067 0.021343986 0.1493325 0.14794518 -0.17132701 -0.17650273 0.17251307 0.10185846 -0.18943311 0.43990678 -0.12873389 -0.37245306 0.056939833 0.19227593 0.041761916 -0.27521932 0.19251873 -0.02672598 0.31404737 -0.42977086 -0.13328858 -0.078346625 0.11374244 -0.68888843 0.19702941 -0.3243178 0.18089016 0.47429204 0.0714215 -0.054081593 -0.06487176 0.27015337 0.36558643 -0.18252839 0.11886377 -0.6047044 0.051966973 0.03261623 0.5450845 0.105258964 -0.095996656 0.34928945 -0.11486539 0.084904976 -0.15179802 -0.2241919 0.24750574 -0.735142 -0.22937709 -0.032242153 0.13762777 0.08829727 -0.3665436 -0.88154954 0.2765183 0.17472415 0.07441809 0.20897576 -0.03425787 -0.24931091 0.17658766 0.29316214 -0.177869 0.5503875 0.0722709 0.81089026 0.06018351 -0.82319534 0.14790088 0.48990327 0.07006318 -0.051108047 0.4614907 0.26875645 0.3154608 0.5163547 -0.337359
747 -0.3215866 0.24484305 0.092947885 -0.15264985 0.30784398 0.19386852 -0.007298648 -0.027206482 0.3322303 -0.5035736 0.14337373 0.0920261 0.37502185 -0.270604 -0.55707437 0.41644004 -0.025913045 -0.16086695 0.14702338 0.06563754 -0.06834394 -0.19900319 0.532565 0.014285546 0.15443256 0.3124157 0.19065809 -0.09339278 -0.3393688 0.93239516 -0.2242015 -0.3396224 0.06747119 0.060977 0.10452907 -0.30655682 0.075821154 -0.22014078 -0.02021399 -0.03469336 -0.19655366 0.2477347 -0.1375228 -0.07804377 -0.042043034 -0.23788647 0.17196022 0.29584786 -0.06354218 -0.3138311 0.8307369 -0.23669492 0.027998118 -0.005592836 0.23028664 -0.088807985 -0.030970031 0.17866741 -0.1061426 0.105948195 0.13578229 0.17626168 -0.4056066 -0.53105813 -0.21337317 0.16837202 -0.5913154 -0.02418054 0.25872836 0.4014237 0.23385458 -0.08994427 0.35259882 -0.36258474 -0.091684654 0.05132166 -0.3319899 -0.32516408 0.10064031 0.18425679 0.33404982 -0.26315686 0.06431227 -0.034725893 -0.09984847 0.047911096 0.5538784 -0.21534286 0.26073915 0.07602584 0.4627072 0.041559998 -0.38107747 -0.06289023 -0.72085136 -0.4840462 -0.0815247 0.34723878 0.10544235 0.07356125 0.48850816 0.34775135 -0.22198361 0.29719195 -0.16042829 -0.69281495 -0.21044806 -0.03427841 0.28024837 -0.2546032 0.013383485 0.29797953 -0.0501344 0.13327818 0.55680656 -0.26931158 0.54327327 0.15012883 -0.44592366 -0.2810517 0.079380445 -0.26502156 0.13856553 -0.37045226 -0.05103876 -0.2815992 0.47911578 -0.18204015
1816 0.22685923 -0.44866323 0.03339906 0.0012788319 -0.24916857 0.2679972 -0.16023552 -0.15889959 -0.30048236 0.10978064 -0.004164157 0.5600065 0.017541047 -0.11550286 0.3965103 -0.14970368 -0.1676666 -0.39518324 -0.008003608 0.90084106 0.3559517 -0.11277516 0.257555 0.2322081 0.5642976 0.2958202 0.36054674 -0.16400747 -0.10177293 0.08872441 -0.41883352 -0.15297817 -0.01130881 -0.058454435 0.1998451 -0.6410884 0.1438734 0.04598361 -0.15864836 0.19989213 0.30486867 0.04249854 0.080991425 0.19657056 0.38154268 0.14959256 0.093529694 -0.62503725 -0.0731241 -0.14639147 0.18821421 0.00145241 -0.035398103 0.0637445 0.36869565 -0.49286976 -0.6632467 -0.021467298 0.09515785 0.029509543 0.17049542 0.13658194 -0.19751638 -0.1698833 0.3733375 -0.14721063 0.06723515 -0.20524278 -0.47729278 0.33462423 -0.1496569 0.074667595 0.13722652 0.37906745 0.3750686 4.2930238e-05 -0.32997766 -0.113332585 0.14513347 0.38980487 0.062035903 0.2913945 -0.24978057 -0.5273847 -0.34545612 -0.14572312 -0.19698793 -0.15622868 -0.10949999 -0.10885381 0.30777326 0.012377237 -0.015222095 0.19567755 0.07713987 0.30709016 -0.0663455 -0.029378649 0.36215436 0.059892356 -0.1410035 0.5492083 -0.17273423 0.45130622 -0.1413776 0.2937028 -0.6365244 -0.14751136 0.19965 0.08485418 -0.5734425 0.1060177 0.3299994 0.1530334 -0.007018011 -0.2710916 0.47062415 0.24667832 -0.22043835 0.057534143 0.3249865 0.035869338 0.1619702 0.3594092 -0.035351448 0.15443963 -0.1599775 0.19276014
2330 0.3434265 -0.10226893 0.16393374 0.16198787 -0.078832306 0.12768492 -0.27381504 0.0995739 -0.35941178 -0.20280506 -0.21757191 0.39601064 -0.0042606927 -0.028246645 -0.2176773 0.075523555 0.39259362 -0.23107119 0.28737715 0.055800587 -0.18155515 0.10745745 0.10026971 -0.19347069 0.18111935 0.0408712 0.19015196 0.3047008 0.5155697 0.08888129 -0.022309106 -0.07758897 -0.0865537 0.26131037 0.4082765 -0.16000408 0.31662098 -0.17493507 -0.41008607 0.24937616 -0.043625943 0.3150177 0.061178498 -0.34506747 0.28124636 0.06708488 0.010395925 0.11088465 -0.09362815 -0.17050013 -0.121980056 0.007920742 0.2527033 0.13357434 -0.16307214 0.15056282 -0.46908173 -0.053698383 -0.065624066 -0.30649284 0.19701837 -0.26634806 0.2827575 -0.08825638 -0.011235416 -0.29012987 -0.01307345 -0.23955041 0.3177858 0.028970202 -0.046027664 -0.36574724 -0.026636373 0.020619981 0.09424028 0.008464656 -0.35920483 -0.19145113 0.11728338 0.12531021 0.181721 0.2970562 0.09204434 0.36295572 -0.29722136 0.35321605 0.20831507 -0.10298345 0.2289754 0.21215305 -0.02296631 0.2774616 0.054327767 -0.072540976 -0.081786826 -0.026651101 0.16651195 0.123658486 0.19301848 -0.21827462 0.124011934 0.07537853 -0.2742819 -0.093957715 -0.040338255 0.22558787 -0.09179907 0.030209143 0.046726562 0.19878747 0.090352304 -0.05842298 0.2773742 0.078514785 0.03892011 0.09319975 0.07752637 -0.24961102 0.2675438 -0.048230946 0.37489083 0.13362177 0.1442428 -0.25638 -0.20589565 -0.07933581 -0.24255745 -0.059529576
713 0.1283387 0.357444 -0.11066897 -0.04623459 -0.49171948 -0.032676123 0.43159378 0.07696411 -0.20086361 0.01728968 -0.0046810447 -0.030686833 0.08347595 0.2787043 -0.0031940644 0.052515335 0.19424567 -0.17733559 -0.10103149 -0.19053744 0.16711548 -0.068046756 -0.13894606 0.0717633 -0.004507231 0.1580463 0.044559177 -0.3252756 0.4933314 0.029108917 -0.15420589 -0.16280639 -0.16786043 -0.21000308 0.18453541 -0.04437367 0.017932788 -0.17903677 -0.2750885 0.0030389766 -0.070881315 0.009831838 -0.05730656 -0.29044992 -0.28877765 -0.032449193 -0.36914188 -0.09215476 -0.8545235 0.011368014 0.4090428 0.10885362 0.0118425535 -0.28214952 0.11199453 -0.28527477 0.15056512 0.02240297 0.056395758 -0.21366595 0.5817759 -0.16889878 -0.098298155 -0.12859796 0.20759326 0.18761635 -0.28641227 -0.022748305 0.15836266 0.3591135 -0.058827028 -0.25311154 -0.12617663 0.37922955 0.22689925 -0.0007666442 -0.023362871 -0.017720552 0.27460837 -0.12456588 -0.08105167 0.29576877 0.40358865 0.38323906 -0.19375433 0.17814355 -0.20681751 -0.28065693 0.17123957 -0.18298355 0.2058961 -0.07281975 0.15595016 0.013022643 -0.18833435 -0.11640563 0.24652801 0.04112102 -0.5693441 -0.16450235 0.37151986 0.1828691 0.017865477 0.12272116 -0.22993241 0.28101918 0.18900369 0.26767245 0.03074211 -0.13593458 -0.02370654 0.21449345 -0.13033505 0.41074076 0.2069223 -0.08905857 0.49364167 -0.018524038 0.3007841 0.055582535 0.41926458 -0.08322829 -0.17006578 0.062744446 0.38424513 0.16530868 0.49361685 0.30252546
42 0.49539676 -0.21110992 0.17712727 -0.0083766235 0.02003322 0.05047574 0.34476548 0.0046433834 -0.18354575 0.030924007 0.0687741 0.17378676 -0.28294462 0.36819372 -0.08314838 0.46611577 0.04905572 0.3728281 -0.25757197 0.23850052 0.13905245 -0.100013934 -0.29926515 0.23233129 -0.23645121 0.03409789 -0.17137632 -0.52691436 0.016379796 -0.046673577 -0.15945163 0.072699755 0.08640391 -0.43680257 -0.14025074 -0.31288576 -0.07476613 0.19651766 0.22398394 -0.5409274 -0.05354882 -0.11530733 0.10787308 0.13025136 0.06047373 0.06695042 0.22094744 -0.20292044 -0.64166725 0.18975045 -0.52496743 0.06756995 -0.50740856 0.30572826 0.14620282 -0.21956939 -0.218247 0.19851354 -0.5442838 -0.44877234 0.050314732 -0.14922859 0.017574787 0.021743843 -0.16792324 -0.29339823 -0.32583266 0.0855716 0.0791627 0.5022506 -0.043263886 0.25813386 -0.0063309516 -0.095805414 -0.22620186 0.10183034 -0.31667084 -0.32682052 -0.070047475 0.5915061 0.4026392 -0.09313531 0.352292 -0.39915854 0.22265509 0.3652498 0.25576428 -0.14435737 -0.10375907 0.036350183 -0.35890427 -0.018100467 -0.048692025 0.04948402 -0.35062954 0.063385054 0.06722264 -0.07541072 -0.061840564 -0.23422535 0.12600249 0.13946219 -0.076825865 -0.3685424 0.031259347 0.043576863 -0.282367 -0.03936289 0.04307862 0.069350734 0.040702723 -0.28878385 0.062344246 -0.59197205 0.5475217 -0.1374246 0.10106399 -0.024824806 0.67663467 0.23221324 -0.15306088 0.17684886 -0.12092349 -0.15481015 0.16868143 -0.3015015 0.20828378 -0.07682976
1563 0.2582452 -0.024229396 0.099185996 -0.08332814 -0.3275941 0.01117939 0.2869517 0.05110624 0.17671575 -0.39805725 0.3234072 7.4664116e-05 -0.1702153 -0.20049205 0.14807916 0.06576125 -0.18367757 0.21046425 0.18719532 -0.56638694 0.34746465 -0.20951745 0.17738944 0.038014043 0.06315343 0.07839665 0.27616552 0.0947537 -0.1944793 0.5280088 -0.10558743 -0.16655691 0.07614855 -0.42236185 0.3167448 -0.19928187 -0.10795357 -0.011106317 -0.34038916 0.039543033 0.22576626 0.032395884 0.2994395 0.17934525 -0.20513533 0.020587925 0.26164612 0.61657447 -0.069910415 -0.13815452 -0.015961416 -0.41183496 -0.3170698 -0.1560758 -0.36750612 -0.04720562 -0.19326124 -0.10694302 -0.27767524 -0.11608363 0.08183821 -0.0011363775 -0.19443491 0.37420467 0.15393019 -0.17286266 -0.49248606 0.20042977 -0.19644362 0.14797829 0.2642977 -0.42331555 -0.16992183 0.0374923 0.27418196 0.12156937 -0.009939832 -0.033414267 -0.095884405 -0.20947081 0.24965546 0.08057676 0.002284596 -0.037163664 0.077608556 0.4752438 0.03772708 0.51138836 0.19979925 -0.07330639 0.19883749 0.016618768 0.17846963 -0.54381716 0.1513787 -0.1343323 0.24191621 0.3795538 0.089968756 0.04543838 -0.12292288 0.44753823 -0.16657414 0.24855243 0.20512977 -0.04707633 0.068759315 -0.44128573 -0.16552831 -0.31851974 -0.044876773 0.34291196 0.49989012 0.061597604 -0.26056522 0.47327816 0.13209806 0.16112828 0.21717422 0.16920161 0.10688684 -0.2566954 0.25479597 -0.21739691 0.09111428 0.36141816 -0.10555333 0.32732263
1309 0.19001392 -0.3579621 0.121018745 -0.040871408 0.24898411 -0.07041743 -0.064798936 -0.0327358 0.21948518 -0.15195309 0.32032198 -0.17630203 0.16998813 0.03197276 0.06443846 0.037613627 -0.15357333 0.097309075 0.26265627 -0.0955163 0.11448819 -0.047523666 0.20604394 0.002550212 -0.023761174 -0.068852656 0.30458307 0.09286169 -0.056656323 0.1648685 0.0653826 -0.071912244 0.051397737 -0.24830082 0.10894395 -0.08143871 -0.010094311 -0.090597175 -0.16946821 -0.14824864 0.017457671 -0.51492 0.1963654 -0.1493054 -0.14411117 -0.17149043 0.07615205 0.23337474 -0.21731898 -0.09494979 -0.21413392 -0.15493712 -0.20069955 -0.14165582 -0.10603652 -0.15510464 -0.13329957 0.32696941 -0.17339866 -0.08162073 0.15528391 0.3769936 -0.43773916 0.19960876 0.4307044 0.0038186854 -0.37840596 0.16761626 0.03413465 0.07456981 -0.12130257 -0.27620643 -0.021514257 0.06195568 0.10311988 0.050411075 -0.073229395 -0.0326283 0.15623242 0.0077753994 0.23633249 0.21774979 -0.20822833 -0.14633211 -0.1271906 0.2363979 0.057734914 0.117074184 0.028917182 0.05884086 0.18550485 0.26856798 -0.074845225 -0.5244865 0.17080522 -0.37075853 0.009062417 0.16394074 0.2338429 0.24226059 -0.029131522 0.3959814 -0.2782541 0.07708097 0.25889343 -0.05112426 -0.2129011 -0.48122156 -0.36443526 -0.20237552 -0.022546148 0.20867002 0.4870792 0.088910885 -0.16544558 0.14662093 -0.08672422 0.23492147 -0.066759035 0.23980133 -0.13192372 -0.43422297 0.08995557 -0.21848032 -0.27325463 0.039162118 0.07578056 0.16674171
859 0.24774414 0.062164433 0.17847474 0.20368494 -0.10226547 0.22132176 -0.18658721 -0.48180893 -0.1830599 -0.47657803 -0.30592597 0.066896915 0.110637814 0.008836021 -0.23447396 -0.24317554 0.15340161 0.062234294 0.03352086 -0.09964368 -0.04100576 0.009249056 0.12684299 -0.13866119 0.21258745 -0.23704465 -0.039470926 0.19007817 0.27715576 0.057372056 -0.2455596 0.056706734 0.1351572 0.16914105 0.16082673 -0.1353397 0.23148258 -0.34585348 -0.43871444 0.17526382 0.08415826 0.22056502 0.030280637 0.16664661 0.14899173 -0.0036417313 -0.030491853 0.083898365 -0.26769584 0.037989397 0.08787528 0.13728502 0.34639207 0.2562366 -0.17477573 -0.06967525 -0.42044926 -0.15938506 -0.10499511 -0.32529745 0.25633985 -0.11781042 0.16483893 -0.20126289 -0.35594493 -0.37116623 -0.03612685 -0.024545157 0.048585664 0.28342512 -0.046322726 -0.2205694 0.024172032 0.07167957 -0.08806467 0.24948092 -0.5465639 -0.048186556 0.3132078 -0.035360437 0.26600474 0.36261296 -0.15328121 0.114393465 -0.24672243 0.51161027 0.053043418 -0.19961894 0.31402203 0.19541134 0.007887429 0.14990185 -0.08744701 -0.22425751 -0.049653083 -0.24289651 -0.2180769 -0.07797009 0.02398653 -0.5022588 0.32559642 0.3972972 -0.1961283 -0.178999 -0.04141221 -0.04259732 -0.00562608 0.117627725 0.08587362 -0.0024146482 -0.0120393075 -0.2272472 0.11848955 -0.012695965 -0.10851621 -0.061928302 0.19414207 -0.17555 0.014201744 -0.12627354 -0.02803446 0.033561382 0.16451855 0.040889785 0.01409795 -0.009645384 -0.10629828 -0.082875505
1957 0.85484624 0.041584924 -0.017570242 -0.85813195 -0.12550779 0.08001758 -0.24538055 0.19334032 0.024913348 0.64899236 0.38348708 0.023072798 0.31398872 -1.0121341 -0.23921983 -0.70150054 0.29434824 0.14732935 0.98630095 0.52679193 -0.07721311 -0.77136624 0.07371487 0.18584721 -0.462325 0.26885813 -0.13238963 0.4408423 -0.16779639 0.2711905 -0.86527795 -0.43754134 0.12943795 -0.27073827 0.524517 0.4187555 0.036558554 -0.105494775 -1.1379756 0.27164656 -0.6668369 -0.11025778 0.78861576 1.0593839 -0.8109548 -0.22121358 0.8549032 0.17772749 0.65688646 0.58109117 -0.101312414 -0.06759669 -1.2891357 -0.079300985 -0.2606693 0.2307117 -0.16297857 1.0566308 -0.17457025 -0.09984861 0.03132266 -1.1900955 0.41401726 -0.04931976 -0.023341049 0.18201296 -0.416523 0.39551133 0.16165222 0.006281965 -0.059459753 -0.52085686 1.0844154 0.12524585 -0.585086 0.9808274 -0.15488334 -0.06859415 -0.050036754 0.36249185 0.9227713 0.4393718 -0.5891292 0.74582833 -1.1488348 -0.07399116 0.81906825 -0.87755096 -0.3860868 0.051615946 0.049589965 -0.07964149 -0.88166887 0.43614835 0.5778387 -1.0580285 -0.6990017 0.83130485 -0.3580404 -0.47190422 -0.12526798 0.0792129 0.37807587 0.3138265 -0.48050344 0.58129805 -0.0726589 -0.6824384 -0.4463789 0.12257675 0.3579695 0.34954548 0.7128224 -0.18588673 -0.2048991 0.35084468 0.105870225 0.58295995 0.016473345 0.42872173 0.33913702 -0.28716633 -0.26554692 -0.38492036 -0.0060880044 -0.21972416 0.14766306 1.1807618
950 0.3899543 0.23293225 0.365525 0.15686744 -0.96906954 0.27089858 0.15603606 -0.30591553 -0.52448905 0.03884823 -0.34713638 0.34500083 -0.34966242 -0.18230326 -0.25248113 0.1991684 0.049579363 -0.6044033 -0.2068504 0.2397228 -0.15117107 0.34253836 -0.124044485 -0.3591965 0.091551326 -0.108224325 -0.11217002 -0.71258295 0.34644243 0.33296683 0.04118389 -0.19916703 -0.0036052687 -0.123173095 0.40943077 0.011533247 -0.07927925 -0.34076953 -0.07230511 -0.46103397 0.4588316 -0.12608872 0.076349676 -0.28342077 -0.11182701 -0.31076777 0.50906485 0.2336711 -0.0031783197 0.07779602 -0.29739505 0.27325585 -0.52097064 -0.032627434 0.30739522 0.056610275 -0.29085743 -0.47192746 0.20092542 -0.20990813 -0.1862211 0.5398877 -0.7009222 -0.36064133 -0.16811097 0.42595702 -0.0996677 0.6676398 0.61942387 -0.25844845 -0.34929925 -0.18460968 -0.10155968 0.5432018 -0.35955197 0.33379826 -0.31926632 0.06821972 -0.44062042 -0.077825375 0.19785498 -0.24294151 -0.11107496 -0.3102049 -0.3899652 0.25858104 -0.28551963 -0.08899817 0.16455507 0.6341552 -0.009915454 0.08427601 -0.298001 -0.7382424 -0.058717724 -0.11517712 0.2482255 -0.4937084 -0.087818064 -0.43924046 -0.4225519 0.16379662 -0.071959205 -0.019971477 -0.09185941 -0.60740936 0.41222683 -0.2826775 -0.053741902 -0.05289321 -0.35794112 -0.31706232 0.17847513 0.26795205 0.2597402 -0.4104788 -0.28439865 0.41242084 0.07010366 -0.06348895 0.14993498 -0.18911438 -0.2877915 -0.33964837 -0.18196148 0.3818358 0.25194487 0.68874764
482 -0.16564201 0.090818994 -0.521566 -0.09900585 0.042229142 0.41306576 0.33063623 -0.16344914 0.09279259 0.2587805 0.27062666 0.22145768 -0.33397168 0.020458266 0.055336878 -0.47499406 0.118092105 -0.12353673 0.11223839 0.24240099 -0.20399232 0.17382334 -0.19192043 -0.03398411 0.17051618 0.12596709 0.117291965 -0.23214342 0.2112584 0.03995652 -0.0042789313 0.029588306 -0.025299419 0.10593721 0.09073176 0.14810812 -0.54726547 0.36687294 -0.46201962 0.1501008 0.10437317 -0.003319951 0.16271518 0.36351454 0.054552015 -0.011921347 0.30183333 0.19715771 0.2229743 0.056677077 -0.3497692 0.019756766 -0.38736537 -0.057238173 -0.14684792 -0.0050574774 -0.45290896 -0.32970226 -0.5056269 -0.22735189 0.16536403 0.028189799 0.001596023 -0.08852289 0.048879247 -0.0709282 0.35814258 0.27683055 0.031165125 0.09050024 -0.2929224 -0.4228236 0.02119228 -0.038299434 -0.23571366 0.0015117803 0.11251132 0.010789296 0.066726096 0.5193395 -0.37160578 -0.44854617 -0.08840385 -0.29141062 -0.70006794 0.36241016 -0.15067881 -0.1087125 -0.118895836 0.31397134 0.08916435 0.040983535 0.34091422 -0.32783976 -0.034685865 -0.13499075 -0.058470186 -0.5544584 0.1784028 0.09608438 -0.025443934 -0.061266836 -0.021894168 0.20327683 -0.035219677 -0.24603575 0.2853955 -0.16968292 -0.05894598 -0.26600215 -0.2519031 -0.004138059 -0.1026651 0.35275754 0.24667107 -0.4442573 0.1935219 0.26488504 -0.15203068 -0.072371796 0.22496668 0.059109554 0.26166412 -0.3632719 -0.111992724 -0.120747685 0.117190525 0.36768052
1639 -0.0028656381 -0.4040344 0.35112643 -0.22496273 -0.20658149 0.060609497 -0.38565847 0.24921936 -0.43254712 -0.6544477 -0.88051623 -0.44977203 0.08613126 0.62344974 -0.88811207 0.14274056 0.2895544 0.1877419 0.081519336 0.76821923 0.4664339 -1.0053483 -0.80687445 -0.24481499 0.19199222 -0.1354541 0.49312803 -0.18943809 0.153847 0.10968716 -0.2734938 -0.41979533 0.5461434 -0.5302002 0.24884309 -0.15082556 0.6315678 -0.2112857 -0.14002016 0.80584997 0.20231938 -0.091583624 0.5099488 -0.36361846 0.088820145 -0.0017367771 -0.94470334 -0.019907838 -0.41100973 -0.34905562 0.28322378 0.45333493 -1.238849 0.3323494 0.4018457 -0.59878254 0.13597184 -0.1834423 -0.20081608 -0.60253215 0.40640986 -0.25739577 0.79610306 -0.26583222 -0.21682124 -0.2791467 0.48226443 0.36488247 0.5846913 -0.1149694 -0.02365954 0.45538178 -0.21309984 0.25918737 -0.3394515 -0.10886498 -0.47395042 0.018488394 0.3357164 0.25757107 -0.38083056 0.010432382 0.3296554 -0.4772327 -0.3386286 0.71803606 0.08757897 -0.33666047 -0.33922985 0.1906452 0.2717482 -0.08194493 -0.5498557 -0.010885443 -0.0926798 -0.5051129 0.18691975 -0.45216903 -0.33994982 -0.38692546 -0.12879126 0.79566264 -0.046583574 0.06195119 0.6511434 0.18562339 0.3020408 -0.046346836 0.030073661 0.75882506 0.50785804 0.15850995 -0.26459697 -0.16846542 0.8119447 -0.11402575 0.23206967 -0.13084756 0.54629606 0.40110168 -0.088145494 -0.05830015 0.529835 -0.32620525 -0.09794809 0.15002787 -0.21169502 0.4319807
2242 0.31431964 0.6282467 0.032984857 0.3193275 0.09528455 -0.08220732 -0.4817086 0.2650771 -0.1442788 -0.19499888 -0.123905525 0.057122726 0.24908066 -0.2886641 -0.5257569 -0.34678546 0.19754948 -0.055228885 -0.086355284 0.27325493 -0.07512751 -0.09467557 0.18284784 -0.26239333 0.19808921 0.20501572 0.46347392 -0.2890738 -0.0066472054 0.31533185 -0.31015044 0.06703708 -0.39935052 0.118635535 -0.18458505 -0.21437985 -0.14577024 -0.39120153 -0.18265991 -0.37423882 0.022354256 0.14164439 0.41814968 0.37031007 0.1424308 -0.089735284 -0.22779885 -0.16300355 -0.076981395 -0.09585978 -0.18968292 0.1806034 0.07235619 -0.18669353 0.19529593 0.013349392 -0.34708592 -0.14935836 -0.049909923 0.14656256 -0.038643192 -0.06454732 -0.47020182 0.099686325 -0.079606295 -0.2412228 -0.4712529 0.31355897 -0.20348091 -0.01565365 0.15109082 -0.22390465 0.14811163 -0.7123195 0.13466388 0.15399964 0.13545182 -0.51704395 -0.14288111 0.24583682 -0.12331047 0.20194323 0.25064245 0.020646738 -0.22718892 -0.23678038 -0.009252522 -0.2223234 0.23396052 0.19936998 0.6031569 0.09606449 0.09798737 -0.23358174 0.78753144 -0.37982282 0.42105114 0.25247484 0.06845398 0.07936967 0.2301735 0.50692195 0.0334155 0.6694602 -0.074045934 0.03145945 -0.2656562 -0.37408155 0.24527273 0.36273924 -0.2204848 -0.3591663 -0.05653069 0.2724137 -0.24702123 -0.27951917 0.08509076 -0.25779736 0.12098537 0.12210683 -0.10816078 0.06810656 0.29128474 -0.31116664 -0.016844869 0.3599938 0.3095088 0.2778493
1417 0.042399414 0.36250263 0.03976061 0.07622285 0.17881736 0.13169754 0.26599315 -0.3247723 0.0033616528 0.0791719 0.14719237 0.16615286 -0.104115434 -0.13818909 0.35747895 0.19112818 -0.036996596 -0.31463915 0.15641434 0.34316608 0.09167494 -0.16678806 -0.3812781 0.33778796 -0.012853222 -0.0018299997 0.032607663 0.13992853 0.04160325 0.23838902 0.18295798 -0.0052179787 -0.18036121 -0.46036053 -0.47965318 -0.028663581 -0.012005073 -0.06667898 -0.20328319 -0.1399468 0.32983008 0.015723225 -0.16773216 -0.27588227 0.104114905 0.08442633 0.10801179 0.24022603 -0.18129966 -0.04407179 -0.049594093 0.4724369 -0.2859501 -0.29777896 -0.08781061 -0.17981304 0.028020501 -0.011741075 0.01159936 -0.16092312 0.14198422 0.19425963 0.0011387505 -0.14305902 0.11191885 0.032473918 -0.034720402 0.07765006 0.22130743 0.41474745 0.27263632 -0.2659547 0.048840392 -0.38148674 -0.20952658 0.021365672 -0.27759954 0.13683078 -0.16695032 0.13303596 -0.022345413 -0.23436083 -0.031361688 -0.15787332 0.3238467 0.20838691 0.0037471196 -0.2521055 0.19474122 0.28986785 -0.3272458 -0.30592632 -0.24356897 0.27000874 0.25728688 -0.26722077 0.29094556 -0.064568095 -0.18111993 -0.30324903 0.052564107 0.054825958 -0.25849175 0.05988047 -0.07520342 -0.026172277 0.09868764 -0.40720898 0.18876071 0.24753635 0.041079145 0.10877582 -0.010427801 0.30731526 -0.06330196 -0.44274864 0.09619957 -0.13981122 0.17785087 0.2835729 0.2383304 0.42012462 0.07044927 -0.008170249 -0.27287814 -0.37351692 0.15777607 -0.036693133
705 0.45327508 0.30389968 -0.22127593 -0.12233724 0.56871086 0.31852296 -0.4037324 -0.51777655 0.12443491 -0.042031158 0.30743948 0.22068858 -0.65824854 0.514488 -0.001303876 0.57772624 0.72553235 0.096904054 0.24934927 -0.0906984 -0.004737509 -0.687911 0.15718506 0.19510378 -0.07768694 -0.15811136 0.4034105 0.11873163 -0.0620902 -0.05039582 -0.11098238 0.04870384 -0.40251976 0.05650474 0.13554332 0.17655441 0.17634283 0.13786678 -0.13171694 0.26865542 0.25276443 0.1302558 -0.16481347 -0.19705065 0.073303044 0.29464924 -0.519067 -0.7713974 -0.23572506 0.14424582 -0.1236114 0.44860393 0.1826877 0.04950735 -0.2607743 -0.1390117 -0.002591934 -0.24692981 -0.51806605 0.009266238 0.43429503 -0.119556874 -0.1713913 -0.08959009 0.0845094 -0.10935586 -0.20025948 0.14510207 -0.22819579 -0.084362574 -0.3148859 -0.27338016 -0.152863 -0.11622246 -0.29344946 0.12537386 0.04095202 -0.09569568 -0.33644792 0.06318315 -0.04829659 -0.0240245 0.5726314 0.1172313 -0.7003946 0.66312546 -0.11015705 -0.05814192 0.06064769 0.46861094 -0.12272404 0.28509086 -0.5020777 -0.02892835 0.13799159 -0.19124256 -0.10427156 -0.074204765 0.35410297 -0.36287504 0.06796248 0.096222006 -0.5395604 0.21497452 0.047685865 -0.45789677 0.37584788 0.032917358 -0.24852353 0.41653532 -0.38616592 -0.18091919 -0.2897283 0.4148422 0.17373447 -0.08251401 -0.060340207 0.42923093 -0.14876087 0.106257215 0.1255473 -0.0031455262 -0.08193453 0.16291882 -0.23541668 -0.13811581 -0.3928189 0.17018616
108 0.4824681 0.023702988 -0.010763593 -0.23639235 -0.16333182 -0.24939187 0.11858563 -0.103899986 0.1335711 0.04158669 0.09866789 0.1986235 0.1942934 -0.09492021 -0.17145878 0.07029654 0.25827318 0.26075894 0.042625077 0.26073423 0.056161106 -0.4837634 0.21248718 0.1796275 0.23058985 -0.2716005 0.3568188 -0.05376441 -0.07990956 0.27897447 -0.06738577 0.040891007 -0.104557015 -0.23460895 -0.32491815 0.23006792 -0.1917761 0.29906887 0.17940438 0.15833403 0.11907334 0.2978516 -0.14920162 0.13157879 -0.33468172 0.19849116 -0.14008296 0.4842702 -0.21086538 0.20802702 0.2010629 0.029044127 -0.2840515 -0.04672456 -0.15464118 0.075754635 -0.19991207 -0.022019053 0.026501596 0.01948386 0.42822817 0.22288878 0.2329131 -0.25707 0.36096182 -0.2151888 -0.027785042 0.13145067 -0.2018621 0.2816008 -0.021630814 -0.005921807 -0.34196585 0.30844662 -0.26111358 0.21613239 -0.15163827 0.13255502 0.13909237 0.15083519 -0.2762781 -0.6500097 0.09337584 -0.21175607 0.49937275 0.30293462 0.20612125 -0.5752511 -0.09184894 0.3611782 0.30953112 0.19371013 0.09391922 0.38896438 0.034374353 0.53817254 -0.18893865 0.035495162 -0.23292354 -0.23024096 0.045057278 0.05105587 0.06979797 0.27606875 0.2110058 -0.17303465 -0.14438468 -0.1296233 0.6101781 -0.11851064 0.44375458 0.22568706 0.04058677 0.27918223 -0.18234314 -0.32465413 0.024460103 0.04909879 -0.025198407 -0.05976704 -0.10935558 0.5932996 -0.22612014 0.025810033 -0.5278929 0.1984845 -0.19648024 0.31655762
1265 0.18612748 -0.72719324 -0.105794065 -0.17120528 0.19678544 0.091794334 0.24408995 0.04345967 0.13261664 -0.1394365 0.0023285025 -0.16253394 -0.45540193 -0.008714611 0.12252109 0.35960245 0.31532758 0.11429867 0.07641778 -0.03602032 0.026621658 -0.11510467 -0.035490416 0.38813046 0.6360482 -0.03217126 -0.11574768 -0.09040208 0.094295956 -0.077010274 -0.0002346602 -0.112487935 0.115734704 -0.122752026 -0.04718015 -0.07027784 0.18491404 -0.24333504 -0.24122334 -0.7363688 -0.16149445 0.11282768 -0.043191455 -0.016283825 -0.12824608 0.3319197 -0.2698961 0.3653402 0.25796098 0.0009905403 0.6477489 0.20563261 0.10865131 0.25098413 -0.20365492 -0.30974162 -0.72283286 0.3527604 0.07744347 -0.17336129 -0.054496437 -0.14460193 0.07155207 0.3048688 0.25984755 -0.038236663 0.041343667 -0.08327537 0.15510218 -0.05953488 0.50671214 -0.14815529 0.09011017 -0.5957012 0.33144534 0.43078044 0.24096757 0.5085498 0.37030753 0.1787364 0.033065144 -0.14605224 0.26524162 0.33501336 -0.12666814 -0.12339758 -0.033995736 0.028310826 -0.41922787 0.17054611 0.58685815 0.025437016 -0.29963064 -0.3990667 0.029358782 -0.23932797 0.4213099 -0.32655883 0.20729107 0.4899467 0.19273584 0.5111672 -0.3838438 0.012513927 -0.07135297 -0.00943037 -0.4004379 -0.4630144 0.70771825 -0.0725834 -0.21035397 0.29316646 -0.55047315 0.52912307 0.26241836 -0.14443864 -0.018762702 0.3890878 0.0198262 -0.024086 0.06796198 0.53121495 0.25581846 -0.2815067 0.09756238 0.51396805 0.074250795 0.15045123
2269 -0.005904827 -0.24535744 0.0788722 0.19215412 0.02068223 -0.13136566 -0.4296507 -0.20171586 -0.16122021 0.063915804 -0.072203785 0.33655375 0.06373824 -0.18879615 0.08949697 0.016511314 0.29015452 -0.18403134 0.20977168 0.39732715 -0.31829235 0.02917707 0.070134334 -0.3230772 0.018553492 -0.088040605 0.27715188 0.34306696 -0.01848846 0.32282606 -0.11100292 0.008011598 -0.075358756 0.0034631318 0.41301173 -0.27425867 0.38716 0.049325194 -0.3837059 0.15085615 -0.12129922 0.3325601 0.27787605 -0.2510224 -0.01458948 -0.28247467 0.023611948 0.15912375 -0.048558112 -0.023468051 -0.085793346 0.090059586 0.040152557 0.379442 -0.18865712 -0.08802926 -0.30525258 0.1210048 0.044070248 -0.22744247 0.2207722 -0.61002564 0.12210513 -0.17107527 -0.058272306 -0.21444751 -0.12943825 -0.3722753 -0.04185724 0.10084176 -0.13497885 -0.10375662 0.4458149 -0.033287883 0.051633395 0.11944129 -0.3144436 -0.35805938 0.008748924 0.47355926 0.081366956 0.16461872 0.008645302 0.118324935 -0.33690333 0.5448937 0.25278208 -0.06646133 -0.019579807 0.15589651 -0.007901517 0.39681306 -0.044176217 -0.29424307 -0.043119304 -0.10992071 0.21684244 0.02647188 0.19107364 -0.34218606 0.21822469 0.15541366 0.08424272 0.04902586 -0.051511016 0.24395141 -0.023998732 -0.06349579 0.022750296 0.13333327 0.017220773 -0.23509096 -0.085644156 0.13776264 -0.015620007 0.14271763 0.06935123 -0.1704106 0.014567535 -0.10918539 0.20154159 0.19310687 -0.03538817 0.1904024 -0.1081122 0.13231674 -0.12164188 -0.25369638
951 0.083832614 -0.44286743 0.12497529 -0.61332774 -0.29466394 0.11520651 0.4669125 0.42290443 0.13955055 -0.22955224 0.330257 -0.06816061 0.6394617 -0.5137191 0.41990367 -0.10456003 -0.0034058203 0.1638629 -0.17050633 -0.1747361 0.066481926 -0.29686174 0.11148683 0.39392632 -0.16583194 0.17579141 0.7991486 0.12091174 -0.27035913 0.28359234 -0.42598894 0.3334131 -0.35839677 -0.6124875 0.04043863 -0.30294222 0.35504276 -0.20557994 -0.4929531 0.06090728 0.02600902 -0.43820775 0.5486919 -0.23237677 -0.083685234 -0.39088723 0.15548278 0.5544883 -0.06398716 0.5770263 0.4967444 0.43968958 0.21556439 0.023591066 0.1691285 -0.13883224 -0.4441339 -0.24370779 0.30543828 0.054804888 -0.48697162 -0.04811372 -0.10622281 -0.2633418 0.51133025 -0.14784619 -0.18151082 0.47845876 0.29786384 -0.13010204 -0.05986088 0.02052995 -0.33965418 0.61150867 0.3451255 0.5883052 0.1905409 0.29664212 0.56644344 -0.1117587 0.6901325 -0.2575104 -0.05037985 -0.4171978 -0.5387404 0.2688109 0.21096353 -0.5177257 -0.032379817 0.34743592 0.085243694 0.45513755 0.361699 0.29388186 -0.23348352 -0.39132634 -0.15774517 -0.45396996 0.29501575 -0.8260732 -0.27528793 -0.26798183 -0.20624752 0.026984012 0.5539412 -0.87527734 -0.20939559 -0.1169278 -0.22195888 -0.014828007 -0.34099314 -0.2167197 0.4948826 0.1991358 0.39696354 -0.0217695 -0.25344527 -0.034040827 -0.5184172 0.71652955 -0.5854054 0.10497905 -0.6463017 -0.2987598 -0.3602811 0.20424026 0.3704528 0.63368034
691 0.42752203 0.69912356 0.8112853 -0.17771414 0.17096773 0.115360014 0.16342905 0.30554047 -0.5553569 0.3696276 -0.6446397 -0.58238184 0.3485513 -0.28210017 0.11194776 0.30951634 0.3191677 0.12904339 -0.5604009 0.34801635 -0.008088258 -0.27638873 -0.08281082 0.050819825 0.11431244 0.04179476 0.45780984 0.697328 0.47269002 0.1894668 -0.1500913 -0.10511307 0.09035314 0.5131123 -0.101172134 0.0841712 -0.17231113 0.013608658 -0.8811247 -0.25251105 -0.9284388 -0.021584613 0.5225427 0.08332889 -0.119246066 0.44161665 0.03534357 -0.2697772 -0.90697134 0.2593918 -0.21614641 0.3755772 -0.13665898 1.1657853 -0.14284888 0.415793 -0.25805432 -0.31539586 0.041956805 0.37738687 0.16714787 -0.27928022 -0.22366096 0.43674 0.16014242 0.5352304 0.06100172 0.6561673 0.5409407 0.33871233 -0.04418564 0.0658814 -0.09177727 -0.15221438 0.269778 -0.22874418 -0.27969947 0.8027179 0.22272928 0.04406236 0.27491862 -0.32338 0.6718112 -0.7243906 -0.4929315 0.13768494 -0.2200947 0.11889003 0.45135024 -0.0020328558 0.48111117 -0.5205552 -0.28284657 -0.68453074 -0.46196398 -0.093428 0.32586887 0.64470613 -0.45439 -0.02702638 -0.5259359 0.4692484 0.01638403 0.022437917 0.37494904 0.02773661 -0.49098665 -0.15736526 0.5574948 0.10597984 -0.6826472 0.36686015 0.53492254 -0.4840024 -0.23919936 0.13563119 0.40414765 0.13567996 -0.15857854 0.4994045 -0.44612145 -0.014676931 -0.31891027 0.30962533 0.18189344 -0.67925483 -0.7455062 -0.24573676
1973 0.5725003 -0.43456098 0.079209924 -0.019071538 -0.2935015 -0.14825128 0.020782549 -0.101597324 -0.36067298 -0.048623003 0.3170886 -0.3250705 0.55250204 -0.9253794 0.14663346 0.37208763 0.11372634 -0.58322376 0.3903846 0.010610588 -0.10969542 -0.35570073 -0.09322469 0.5243762 -0.046473723 0.33612138 0.18754682 -0.46550775 -0.18792965 -0.1406439 -0.37597165 -0.10359109 -0.48185423 -0.25196737 0.6103102 0.20341851 -0.20572375 0.038436394 -0.070255645 -0.12217523 0.4487222 -0.5128522 -0.5554179 -0.18948257 -0.2705949 0.46713382 0.2744559 -0.50654197 -0.23937216 0.324911 -0.4922214 0.39863333 -0.31672886 0.29976183 0.06991614 -0.14495713 -0.12256619 0.3700039 -0.2876861 0.13315192 -0.23114097 0.20586279 0.42383167 0.25409925 -0.10209341 -0.24571523 -0.6368199 0.01820833 0.36019164 0.20140508 0.15758139 -0.2124054 -0.10981478 -0.25251564 0.06335355 -0.43916062 0.079439454 0.41632035 -0.08185815 0.915811 -0.12484055 0.19609809 -0.060246885 -0.1913645 -0.23267518 0.15050514 -0.07924164 -0.28504467 0.64634705 0.18002586 0.46725217 -0.06914141 -0.48573846 -0.47960037 0.11617727 -0.002359148 -0.19791785 0.4174723 0.07013629 0.16993332 0.5409154 0.11331983 0.4119932 -0.5010699 -0.061902076 0.40382496 0.36915025 0.030827405 0.39072147 0.0130763985 0.014784588 0.3185211 -0.057916578 -0.09207238 -0.031772837 0.63816696 -0.07692301 -0.22982313 -0.044510033 -0.51537275 -0.123515874 -0.52535266 0.3487087 -0.31253043 -0.18822306 0.21278675 0.29024076 -0.3144854
1171 0.13162392 -0.26053607 -0.06576648 -0.20108707 -0.164247 0.110389456 0.1605781 -0.850613 -0.16908607 0.11867884 -0.24494848 -0.2826347 -0.4162767 -0.0046360716 0.19778134 -0.059640337 -0.14664286 0.04236604 -0.5239296 0.21728629 -0.4576165 0.42421484 -0.29681212 -0.030639878 0.13799071 -0.15841143 0.6065184 0.23119994 0.08228339 0.3821851 -0.11638115 -0.44906545 -0.69790584 0.1125248 0.43043217 0.11928668 0.0248466 0.2948466 -0.2836168 -0.06527047 0.013248367 -0.063269004 -0.34512535 0.644226 0.015036363 -0.08247683 -0.4131131 0.061032712 0.16599853 -0.015266118 0.101925366 0.30889758 -0.28078386 -0.12548445 0.48783806 -0.70454097 0.44839492 -0.016550526 0.3466248 0.023658087 0.0011625724 -0.098760046 0.2692913 -0.14872035 0.22760005 -0.06144821 -0.48338956 -0.05416552 0.5818851 0.3404582 0.09894506 -0.19933245 -0.027529366 -0.34285662 0.15616594 -0.5351925 0.3003419 -0.2680898 0.083733134 0.6342461 0.06609671 0.0013067023 0.03847539 -0.19993193 -0.057775423 0.042671084 0.5630221 -0.123063326 0.46067435 0.45313865 0.53482026 0.22895202 0.31232777 0.035980504 0.17654549 0.02901246 0.22363427 0.6006279 -0.1826646 0.040161036 0.13216828 0.5542596 0.44736722 -0.40157422 0.24573353 -0.044871405 0.44971424 0.19705935 -0.047141496 -0.11694434 0.37699938 0.011745521 0.39832243 0.25419903 0.48400363 0.18090004 0.26188198 -0.36348942 -0.0038560184 0.075295545 0.38074046 0.62509555 -0.42397022 0.016069494 -0.04286223 0.085165724 0.25827333 0.22039805
334 -0.4050432 0.19599302 0.39920768 0.17622904 -0.14090541 0.37068868 -0.26943243 0.08774619 0.24279274 0.12432189 0.046972703 0.31579214 -0.005937396 -0.07160725 -0.3952375 0.24373463 -0.30159447 0.52773976 -0.1833765 0.15221736 -0.07116783 -0.2223121 -0.13311009 0.19688909 0.4891231 0.24246219 0.18485051 0.08087361 0.27604634 0.16955693 0.0037264843 0.4942222 -0.22535199 -0.22029495 0.14108154 -0.58720154 -0.20709766 0.17609277 -0.06331446 -0.13787724 -0.13116013 -0.20184402 0.28907987 -0.043167315 -0.5979292 -0.2794985 0.49296078 -0.16072035 -0.48818827 0.23828946 0.096245185 0.3117965 0.21910813 -0.3177637 0.0021243826 -0.23261176 0.24234283 0.16041979 -0.1818013 -0.32024652 0.25280336 0.092665456 0.25040215 -0.054660935 0.3642113 -0.087370075 0.10248863 0.30236977 0.35288826 0.061433848 -0.044288546 -0.15640235 -0.22851184 -0.28489235 -0.039927654 0.24151614 -0.06286953 -0.11797849 0.21418989 0.19178909 -0.17147584 -0.5222402 0.36173996 -0.085444815 -0.4037624 -0.048841238 0.19038795 0.1408029 -0.019005584 0.53727454 0.095438465 0.16044626 0.4341812 0.0890385 0.22600025 -0.3870335 -0.025178414 -0.27470812 -0.03684511 0.027602803 -0.12179383 0.17117266 -0.10843232 -0.26528355 -0.25625178 -0.08097577 0.18565898 0.15356721 0.10647644 0.21434677 -0.071928464 -0.16627571 -0.16514812 0.31593513 -0.17467415 0.20433407 0.2252864 0.22773963 -0.23098962 -0.10856958 0.22814186 -0.09709152 0.44274127 0.38939893 0.14928517 0.11481927 0.32332903 0.22643065
332 -0.29678822 -0.24790937 0.04802157 0.2507582 -0.28386053 -0.14703159 -0.42083132 -0.40686837 0.22736707 -0.40657282 -0.060018342 -0.08880192 -0.083165504 -0.14976625 -0.30952737 -0.2888386 0.24820341 -0.16422692 0.4174965 0.12624769 -0.2791217 -0.14865942 -0.3527065 -0.37842986 -0.54966253 0.13371526 0.48867202 -0.06590452 -0.036692508 -0.11199427 -0.81361604 -0.2977324 0.02019558 0.06070558 0.07755842 0.06411425 -0.34905186 -0.045709107 -0.22981054 0.048608262 -0.29633713 0.17365456 -0.42293796 0.027205484 -0.09885329 -0.5358997 0.1273649 -0.3881725 -0.009559573 -0.059030917 -0.017262133 0.35144103 -0.48713785 -0.15858787 -0.037576795 0.16093539 -0.64444983 0.09626807 -0.22518687 -0.22960792 0.23625611 -0.21028683 0.35340923 0.5320478 0.09012164 0.25384176 -0.56112283 -0.15067959 0.14985056 0.33275586 0.2133625 -0.3700082 0.22681949 0.23052183 -0.008329039 -0.6196283 0.024986789 0.19086313 0.24856856 0.35680893 -0.2231144 -0.026867805 -0.310402 -0.22494332 -0.08544225 0.5629778 0.026990654 -0.50111264 -0.24095531 0.019760258 -0.2363702 0.33740583 0.38502848 0.08347197 0.056111645 -0.44283974 -0.18296142 -0.5906078 -0.09928745 0.12761405 -0.020280128 0.3847873 0.13975266 -0.42213884 0.0754796 -0.15979448 -0.41334492 -0.16004266 0.3385585 -0.053366926 -0.31680888 -0.11025913 0.20177436 0.42658386 -0.3565672 -0.10051002 -0.15351847 0.5641026 0.10480912 -0.28304836 0.037947055 0.071545675 -0.17122066 -0.32441247 0.21718165 -0.32326645 -0.10377598 0.22543098
1383 -0.06467072 0.06217475 0.24447756 -0.019842416 0.03671766 -0.20332476 0.21491483 -0.44858152 0.15983762 -0.23187537 0.05492572 -0.06027715 0.29779577 -0.31083876 0.38216832 -0.13587838 0.49982625 -0.04900837 0.5537373 -0.22549526 0.5689574 0.0005681263 0.21746762 -0.23910236 -0.23653068 -0.13723068 0.67677134 0.24353908 0.055803966 0.07738026 -0.5129512 0.21959364 0.014944557 -0.15281066 -0.039969627 -0.19204456 -0.03269327 0.39479673 -0.5720831 -0.078261025 0.010483466 -0.2378247 0.18008769 -0.02383366 -0.5682797 -0.16226162 -0.034544993 0.04072757 -0.18378735 -0.17295958 0.0038754398 0.45921063 0.008393674 -0.25062063 -0.2038742 -0.066247 -0.080327556 0.2859329 -0.32556042 0.24904194 -0.37324983 0.079135984 -0.35012192 0.026960632 0.2852348 -0.30430028 -0.5200309 -0.18063721 0.05814986 -0.050795805 0.41448617 -0.39035183 0.1450716 0.20446756 -0.1285029 -0.2802541 -0.06409231 -0.42759946 0.42209703 0.021891965 -0.13593337 0.64483935 -0.45918682 -0.691958 0.37416112 0.25057992 0.18056817 0.52105105 0.29215574 -0.37808257 0.17073563 0.5849667 0.49889994 -0.36429748 0.2858084 -0.1473489 0.3516923 0.31146955 0.37007564 -0.22674116 -0.14494821 0.73450685 0.08582092 -0.2647695 0.20231421 -0.07875269 0.37411132 -0.091747604 0.03925898 -0.04036102 -0.40711215 0.0991134 -0.13993052 0.52326006 0.115651876 -0.44545877 -0.019260183 0.61062187 -0.20020223 0.19353285 -0.23386446 -0.71459615 -0.08613539 -0.44568703 -0.3911851 0.121973 -0.2561516 -0.11712844
1570 0.0128302965 0.23626973 0.37797487 0.043152153 -0.6667748 0.32011524 -0.6364847 -0.22995107 -0.12712696 -1.0387853 -0.8252936 -0.4524761 0.49403414 -0.045933627 -0.3617876 -0.026895417 0.6732939 0.17479622 -0.46134815 -0.1919752 0.41555598 -0.23314665 0.22064069 -0.36859396 0.31197318 -0.18196584 -0.16933788 -0.032672938 0.33530402 0.13488793 0.28244334 -0.1442048 0.47226387 -0.5492096 0.55236435 -0.12904896 0.4141472 -0.29012322 0.054021906 0.7238985 -0.066493645 -0.24433409 -0.42062017 -0.14935598 -0.052748654 -0.46333626 -0.27679485 0.0212288 -0.63694996 -0.34573808 -0.8806131 0.26597145 -0.69484663 0.11168628 0.6174406 -0.18701203 0.062342457 -0.10161665 -0.41248325 0.07090903 0.57548696 0.64536196 0.05091315 -0.39466074 -0.9385014 -0.25972766 -0.71760744 -0.118575394 0.17595996 0.14854906 -0.10146113 0.649589 0.056734227 -0.019471914 -0.27157998 0.30288643 -0.2704463 -0.37390295 0.3552612 0.14701821 -0.113012075 0.9027229 0.41157717 -0.08154627 -0.5437567 0.7803163 0.27531922 -0.11060552 -0.59714544 0.29908535 0.26488963 0.25448382 -0.30352384 -0.18899745 0.17379701 -0.40154517 0.3408716 -0.1365367 -0.16898088 -0.065627955 -0.3804279 0.6493036 -0.414683 -0.008797673 -0.5537008 0.0024607982 -0.5714199 0.18960068 0.20881967 0.2877095 -0.07247537 0.6609444 -0.21276441 0.18215767 0.5185551 0.05275896 -0.23437637 -0.529152 0.6306547 -0.495503 0.49833843 -0.07522243 0.039310433 -0.65837264 -0.5779029 -0.3929978 -0.11775602 -0.061361622
2395 -0.21628416 0.24257915 -0.075010665 0.26445627 -0.25512156 -0.34226662 -0.18132252 0.460064 -0.30850482 0.06580879 0.37665838 0.13618578 -0.036080204 -0.24450655 0.003982818 0.5319598 0.17312624 -0.4170376 0.31899232 0.440717 -0.5815157 -0.22796729 -0.1560192 0.2342454 0.14326964 -0.012883915 0.2905635 -0.17361729 -0.06731685 0.1744604 -0.0880853 -0.06775124 0.16575551 -0.110285185 -0.281317 -0.27595454 -0.23485391 -0.21228616 -0.4721752 0.09953468 0.23906244 0.28331903 -0.130615 -0.29511037 0.13943632 -0.451827 -0.7440424 -0.32148635 -0.28114712 -0.1395587 0.63012755 -0.22614634 -0.018106177 0.52955717 0.09571392 0.2193874 -0.39364263 -0.14485314 -0.49794364 0.013740914 0.13271135 0.6275447 -0.024470042 -0.21487439 -0.13666518 0.00075838575 -0.8543273 -0.07911818 0.1383323 -0.7574528 -0.17511852 0.08536386 0.36776823 -0.48406237 -0.1322522 0.37952232 -0.091606475 0.25241315 0.71555024 -0.06868227 0.14443123 0.051306844 0.18369155 -0.022854164 -0.45277286 0.20504504 -0.16492762 -0.095534235 0.6866672 -0.03241721 0.34397826 -0.102841265 -0.37948745 -0.24326591 -0.45088556 0.34857246 -0.002164305 0.38204685 -0.39279422 -0.06003458 -0.23192284 0.194592 -0.3785316 -0.5158781 0.26738623 -0.10040837 -0.22693935 -0.25243315 0.11128408 -0.12215857 -0.067513295 0.017598754 0.30059955 0.24290992 -0.037576474 -0.53509235 0.5290543 -0.0005444403 -0.25778913 0.22279027 0.11826015 -0.24312732 0.18785301 -0.36664948 0.5469465 -0.66884184 -0.025539257 -0.28033385
191 0.2686573 2.9773755 0.47953162 0.012113951 -1.5706034 2.456673 0.23389168 -0.990224 0.31369212 0.37000364 -0.40924945 -0.10394536 -0.32228354 1.1244752 -0.09873051 1.2703494 0.50847095 1.2032443 0.36071143 1.2324364 -1.517845 0.93895674 0.870409 1.0584446 0.41431198 0.44122577 -0.09467693 0.15778102 -0.32359552 0.032273844 0.046519328 -0.8889189 0.95513785 -2.7022946 -1.7206963 -1.3553042 0.5032795 0.8159883 -0.34351543 0.8581168 -0.08674384 0.6106251 0.67414576 1.8850454 -0.7461214 -0.76487505 -0.34619534 -1.1994089 0.50032234 0.7762141 -1.0373095 1.309172 -1.1709323 0.8599027 0.24037416 0.70615983 -1.424037 0.91951346 -0.5794895 -1.1533086 0.33714965 1.0586674 1.2693106 -0.6329226 0.9242423 -0.591931 -0.15901932 -2.2228818 0.12212351 0.12212551 0.053559937 1.2852223 0.28558737 -1.083681 -0.3015556 -0.94385225 -0.5308056 0.48403984 -0.27321425 0.21887404 -0.7389394 0.877347 -0.6921826 1.6027626 -0.9166924 2.276825 1.0976206 0.01631371 1.467284 0.58090156 0.5376146 0.63339037 -0.42195413 -0.24169405 -0.89179236 -0.3588356 -0.75010103 1.0073893 -0.36638415 -1.3123474 -0.02572845 1.208198 -0.019046057 0.19986862 -0.780934 -1.0161321 -0.15135482 -1.8865724 1.1968776 1.6285447 -2.4944656 1.5503339 0.92916584 0.13537608 0.35976878 -1.1500406 -1.0436543 0.17886338 -0.60533315 0.1066708 -1.0515715 0.0055646426 -0.40167534 0.16174336 -0.18052487 0.78176445 -1.0394726 1.381271
715 -0.38046995 0.009537905 -0.3151691 0.10232389 0.013068454 0.21245098 0.17805956 -0.012502017 -0.10334221 -0.36556342 -0.22977628 0.16271521 0.119891524 -0.19722477 -0.30376762 -0.20387723 0.14718573 -0.31920353 0.0856412 0.077732064 -0.71356153 0.053635173 -0.41009375 -0.2982783 -0.3372329 0.61061597 -0.3272984 -0.043679964 0.20801905 -0.51976424 -0.36304268 -0.54871553 0.3188193 -0.70866334 -0.35663474 -0.041984048 0.2917012 -0.33345857 0.29215297 0.2987462 -0.048591547 0.15817285 -0.12979363 0.28601378 0.12041054 -0.42227566 -0.5444985 -0.26286277 -0.29097584 0.51570946 -0.6307218 0.35172486 0.024218274 -0.23038216 -0.13064703 -0.40970403 -0.5054508 0.058498126 -0.36047882 0.0043459795 0.4422103 -0.08241876 0.0687306 0.24569671 0.928244 0.7317933 -0.60819024 0.028003393 0.057505794 0.7407724 0.23271982 -0.06754889 -0.43803212 0.10675979 0.9398235 0.09880815 -0.2546053 0.6028535 -0.20361 0.16354612 -0.01598981 0.12263396 -0.5045416 0.49420115 -0.4851638 0.45971337 -0.26835945 0.0853524 -0.047732543 0.38003334 0.8247296 0.18370238 0.1862224 0.096262544 0.19146608 0.1506766 0.27624094 -0.24409285 -0.5067456 -0.18491358 -0.24376154 0.47460252 0.03219604 0.08932223 0.08351007 -0.002327405 0.14560117 -0.15072705 0.3997823 0.21065281 0.28458476 -0.5477346 -0.21281856 0.048377022 -0.10186522 -0.11969384 0.44436398 0.7265744 -0.11364764 0.16212234 0.28214407 0.057665173 0.24079354 -0.59617937 -0.48070997 -0.5255317 0.048526045 0.2063896
875 0.7609075 1.9666296 -0.06722894 -1.447205 -1.4105134 0.78718185 -0.44532868 -0.749882 -0.5231885 -1.5401866 -1.046088 -0.9110698 -1.0643485 0.69493675 -0.08453575 1.6201098 0.41777894 -0.07787844 0.19117896 1.7103429 -0.64107925 1.6941863 0.45870414 -0.44244733 -0.32357123 0.2669539 0.21552074 -0.94625837 -0.0636908 0.10561121 0.19201832 -1.3340652 1.1945153 -1.8570238 -1.9266489 -1.3913643 0.3803915 0.8450484 -0.14640403 0.36770472 0.6223631 0.48810306 0.4425943 1.9173261 -0.7373756 -0.38605562 0.43227395 -0.9314119 -0.3295068 -0.35202235 0.23284051 0.96175426 -2.1589031 -0.70624083 0.029769586 1.0976007 0.8235567 1.6618445 0.3839801 -1.1207453 0.1579714 1.0830307 1.4094441 -0.018117907 1.3929045 -0.64424264 -1.5488257 -1.2817458 0.2249615 0.5811883 -0.6378268 0.70545864 0.75071603 -0.9419907 -1.1806936 -0.8070045 -1.1015015 0.061846606 0.020052295 -0.22860624 -0.68534464 0.61267906 0.18467547 0.7273477 -2.2026165 0.04544487 0.31489986 -0.76552844 1.3359748 0.07099227 0.9800654 1.0393794 0.71662056 -0.75078875 0.08454538 -0.96203494 -0.31787404 0.7964267 -0.96309495 -1.6167669 0.4865008 0.8828456 -0.05686879 1.5455846 -1.1074219 0.59285104 -0.15168583 -2.0315018 2.6113431 0.69229627 -1.4231129 0.73450565 1.2958035 1.6773283 0.62934643 0.20565653 -0.3884087 1.1305654 -0.63608587 0.26849678 -0.27460343 0.25118935 -0.8345181 0.7992869 0.22786982 0.07385455 -0.95215964 1.1251287
320 -0.05488641 -0.012857004 -0.42579818 -0.2795228 -0.47404957 -0.23502263 0.4428239 0.2053241 0.56651384 -0.011916969 0.1790501 0.34137627 -0.038183097 0.0644733 -0.1944764 0.10768063 0.38213664 -0.37339556 0.4543086 -0.19820417 -0.55227727 -0.20501895 0.26498595 -0.09923999 0.49556264 0.29294837 0.53146654 -0.68964285 -0.52179945 0.13292775 -0.1114235 -0.24646601 -0.3379301 -0.06842288 -0.5370258 -0.119706295 0.89944744 -0.09565478 0.45861852 -0.0020304115 0.102140255 0.099766865 0.101801306 0.4156075 -0.050379958 -0.44225603 0.24492574 -0.1413144 -0.32743 0.007888095 -0.10776479 -0.39878055 -0.15811232 0.075537376 -0.114906065 -0.4885206 -0.32912356 0.08382864 0.1936622 -0.25723767 0.5336252 0.38728493 0.024313176 -0.089128375 0.10554251 0.07379611 -0.081321016 0.5635698 0.96356744 -0.12277238 0.49723694 0.0883863 -0.55652744 -0.13776843 -0.6505252 0.1864307 0.38782284 0.050251517 -0.49876484 -0.66026706 0.4464154 0.46188876 -0.13989724 -0.4519993 -0.33382508 0.62179947 0.30652413 0.082741 -0.1888563 0.09085038 0.23448054 -0.4531872 -0.0823474 -0.034949753 0.07124632 -0.2196379 0.78133655 0.17164199 0.27967468 -0.18232945 -0.14259908 0.20131643 0.22185358 0.52175236 0.7083776 0.5159812 0.17227116 -0.19604842 -0.014324559 -0.2722765 -0.7320054 -0.13626194 -0.32030278 -0.38218963 0.20364963 -0.29638487 0.061180815 -0.021667851 0.42842498 -0.37079456 0.45743302 0.8942617 0.05903752 0.8528827 0.39392287 0.20188789 0.007435644 0.11014603
1290 0.46959963 -0.4467285 -0.30491278 -0.12780358 1.0235047 0.12508558 0.10848236 -0.6655403 -0.025917785 -0.25285232 -0.520878 -0.15808356 0.9701426 -0.09350073 0.33933493 0.17336847 -0.30649084 0.59263194 -0.20487085 -0.0015612999 -1.0151553 0.5102743 0.45439795 0.5808761 -0.51195854 -0.15129858 1.2769141 -0.31571943 0.451099 0.08573033 0.24040201 -0.111887135 0.67062056 -0.9308329 0.47500873 -1.3347954 0.23353538 0.570066 0.80968934 0.11359656 -0.8080412 -0.49510378 -0.17414962 -0.76424104 -0.965639 -0.6536254 0.5386156 0.14098202 -0.50793844 -0.2673058 0.45271274 0.24030557 -0.58561164 -0.24758968 0.45381695 0.20365685 0.15957093 0.2106323 0.15720433 -0.36488286 -0.69280183 0.22918877 -0.71524924 1.0972973 0.5178254 -0.5672434 -0.074109875 -0.036537822 0.39255735 0.1257343 0.49288303 -0.26430237 0.18879388 -0.04834013 -0.6183729 -0.22533295 -0.2840968 -0.1447633 -0.45365724 -0.25432518 0.11515059 0.6395231 0.4108954 0.18160747 -0.78682226 -0.35835195 0.97953224 0.20925048 -0.11389932 -0.0606376 0.6307598 0.46139595 -0.3059409 -0.042549998 0.53035873 -0.18804118 -0.2860942 0.05865291 -0.75131977 0.0015924013 0.5532391 0.7584858 -1.0481997 0.53461343 -0.45424876 0.10575851 -0.7604626 -0.358995 0.06458889 -0.6910008 0.38444656 -0.029490734 1.1325997 0.62104183 -0.52163595 0.5113128 -0.040675096 0.8347167 -0.035994627 -0.19798678 0.20777988 -0.4598683 0.6687535 -0.52951556 -0.53503793 -0.19105044 -0.13610683 0.3992951
1590 -0.14537749 -0.15873845 0.19885942 -0.1441981 0.03358312 -0.19134654 -0.10721859 0.19768062 -0.0066049737 -0.64537334 -0.025170693 0.26958156 -0.08713489 0.06228582 0.068090014 0.21346104 -0.12677199 0.20965388 0.474379 0.005869035 -0.00829963 -0.0699426 -0.046835437 -0.13310768 -0.13704987 -0.028890686 0.55695385 0.49762115 0.054807305 0.044994146 0.11017215 -0.20836224 -0.076815665 -0.26460758 -0.24411213 0.2661721 -0.18901932 0.16989622 -0.17014296 0.038041364 0.05154163 -0.31715557 0.021865526 -0.08219078 -0.6737257 -0.12797712 0.359235 -0.04034553 0.09337339 -0.44670212 -0.12837079 0.31513 -0.061633866 -0.1744208 0.18082231 -0.35902324 -0.24595389 0.28235656 -0.29645684 -0.17092742 0.171128 0.11469042 0.13905092 -0.11985109 0.10250659 -0.0005959671 -0.2987297 0.26139256 -0.04838845 0.34089634 0.35863656 -0.08341794 0.26502964 0.16819657 -0.35803375 -0.039514445 0.22357064 -0.018973583 -0.015912531 -0.15526277 0.17888477 -0.07692932 -0.3275221 0.17498462 -0.19075802 0.109663434 -0.34163424 -0.2038019 -0.0812808 -0.23781326 0.26566824 -0.09537941 0.18536362 -0.58832514 0.29222572 -0.41946408 0.13193649 0.33883962 0.039610654 -0.08250134 0.28565094 0.4838071 0.05625614 0.36011884 0.46208835 0.0071090376 0.13780019 -0.07943218 -0.1925168 -0.47391605 -0.09850887 -0.010636187 0.5555448 -0.07307215 -0.015266259 -0.27338612 -0.16075496 0.3254338 -0.48192957 0.039287142 -0.3857024 -0.25144514 0.23802836 -0.29701117 -0.58084065 -0.028724015 -0.1935447 -0.25184035
