2405 16
0 -0.55756015 0.0942949 -0.14124337 -0.4525129 0.14069219 0.13364924 0.30093512 0.0997687 -0.5228549 0.19631279 0.022836328 0.0037156641 0.04694444 -0.53513575 -0.18258682 -0.3365452 
1 -0.30817094 -0.44378725 0.1338776 0.10804863 -0.17527723 0.031702034 0.0891031 -0.30659306 0.19206473 0.0665899 -0.3228126 -0.44954407 -0.113229886 0.37015074 -0.22201273 0.11035828 
2 -0.30533573 0.46441838 -0.16251202 -0.5013082 1.1781006 0.69468457 -0.29517025 -0.4321942 0.5488167 0.4190597 -0.410448 -1.1705984 0.98805577 0.05372261 0.24375346 -0.04364468 
3 -0.3955559 0.048415344 0.11435502 -0.26838475 0.18489411 0.784552 0.41002178 -0.08714131 -0.5256233 0.3197776 -0.36515945 -0.20291558 -0.059453342 -0.4790855 0.55715734 -0.2696182 
4 -0.5132856 -0.20915447 0.17560364 -0.7065116 0.61911887 0.9081175 1.0032114 -0.36930954 -0.4986133 0.93647206 0.03414637 -0.186425 -0.58399403 -0.86170536 0.4335323 -0.48065412 
5 -0.08767341 0.16977143 0.40367073 -0.0948607 -0.1399495 0.014782593 -0.07264336 0.2158135 -0.46110937 -0.19379961 0.12998362 0.16917111 0.04459955 0.04749376 -0.35429782 -0.14116433 
6 -0.37151203 0.15276031 0.18299758 -0.3269727 0.24395606 0.78500205 0.31024036 -0.1309808 -0.38246796 0.3718954 -0.42473343 -0.23853312 0.025162399 -0.45255986 0.61781764 -0.33305556 
7 -0.3490693 -0.34725976 -0.5440239 -0.5391891 0.23686929 -0.6419759 0.57603174 -0.3264231 -0.37365717 0.046085853 0.14366874 0.4461273 -0.35238448 -1.2514077 -0.16267866 0.3730915 
8 -0.39445287 -0.24130747 -0.4698752 -0.14235651 0.5807449 0.1746212 -0.32075918 -0.515993 -0.2813052 -0.16860932 -0.07544961 -0.03646703 0.32137975 -0.37253845 -0.08042783 0.21328336 
9 0.14622137 -0.09007397 0.26159286 -0.32752207 -0.19406891 0.15462996 0.23669973 0.04895731 -0.26584214 -0.23509723 0.21568173 0.31673193 -0.64366424 -0.31398484 -0.6414209 0.55076057 
10 0.24602723 -0.25006247 0.32921147 0.47807857 -0.10551855 0.24084544 -0.104087576 0.37132394 -0.7539274 -0.37608486 0.5878904 -0.15932995 0.072957225 0.84957653 -1.1765898 0.3558845 
11 0.40359393 -0.1631057 0.045218587 0.10692768 -0.00025884435 -0.3067118 0.13308688 -0.15130639 0.1679888 0.1118364 0.40018034 -0.11124932 -0.28722602 0.41056454 -0.14443609 -0.11709416 
12 -0.36977565 -0.57452524 0.2404564 0.09644587 -0.07881239 0.23522478 0.06045887 -0.43982366 0.25389326 0.10885055 -0.52235377 -0.6592581 -0.14807363 0.42991677 -0.15780798 0.15471944 
13 -0.35940868 -0.45918304 -0.010639407 -0.30708066 -0.27828753 -0.35713702 0.20303544 -0.46593934 0.37929624 -0.2082918 -0.2130511 -0.17690077 -0.12048217 -0.14098309 -0.292576 0.15097846 
14 0.1063997 0.31023973 0.3120368 0.0033908784 -0.7383314 -0.27400938 0.09835662 0.28049707 0.39368248 -0.33992702 -0.16391887 0.18489325 -0.099676624 -0.10146224 0.17346653 0.4139194 
15 -0.2420274 0.84244686 0.26982632 -0.6997668 0.42099845 0.03736903 0.015385542 0.17974749 0.8183414 0.3303696 -0.5698849 -1.0485277 -0.07080282 0.22513606 0.5897201 -0.7995364 
16 -0.3646115 -0.43103695 0.071225345 0.09819687 0.42212337 0.75387174 0.18244345 -0.13535243 -0.5613462 0.23978208 0.0068128817 -0.18028885 -0.19169319 0.04274418 -0.07726037 -0.1603011 
17 0.13966635 0.2003283 -0.023495786 0.56399196 -0.015360234 -0.5833709 -0.54554445 0.42517376 0.41882408 -0.1469872 -0.22778684 0.18880165 0.15420304 0.9141631 0.5200734 -0.84757555 
18 0.71378195 1.0019202 0.24369098 -0.23100615 0.37644386 0.21854913 -0.9992268 -0.24939117 0.27944207 0.12547915 -0.026010673 -0.30005863 0.20432115 -0.15026388 0.2775658 0.073787935 
19 -0.2557334 1.1621288 0.5582432 0.031045333 -0.23585606 -0.20470078 -0.9327115 0.99883157 -0.06434989 -0.23900932 -0.6652983 0.38583347 0.4320924 0.45118505 0.48133987 -1.3197944 
20 -0.2827084 0.4799621 0.29622796 0.09024514 -0.21878593 -0.17478465 -0.66307193 0.44408944 -0.025949866 -0.31594792 -0.52917606 0.44904327 0.12921622 0.18547873 0.2660479 -0.72548884 
21 -0.18535319 0.37427384 0.18815808 0.0551382 -0.16770074 -0.21086581 -0.51894015 0.31197113 0.10466303 -0.25849542 -0.3850973 0.25995392 0.1342712 0.20525579 0.15533382 -0.50609773 
22 -0.23063962 0.39001963 0.19797696 0.07754819 -0.29584533 -0.20710126 -0.5294517 0.37191486 0.029320471 -0.40432918 -0.53168774 0.3136135 0.08596855 0.13591836 0.2525367 -0.4247214 
23 0.018802002 -0.21317245 0.071869746 -0.11862497 0.34813225 0.4914988 0.13141228 -0.39566866 0.4015289 0.54236406 -0.32944718 -0.22308594 -0.14711633 -0.3887474 0.49086407 0.20671144 
24 -0.5321585 -0.33810088 0.104714505 0.2322448 -0.22891486 0.038356617 -0.6061332 -0.3337517 0.28335416 -0.48127744 -0.6391115 0.7095746 -0.097406 -0.11350869 0.071443975 0.06385513 
25 0.18038605 -0.08049028 -0.19066432 -0.15913334 -0.018614141 -0.58435225 -0.28799757 -0.56577 -0.28285843 -0.4758095 0.20928921 0.19946869 -0.2369394 -0.32779798 -0.09666805 0.14404911 
26 -0.36648062 -0.04150878 -0.012104017 -0.4746369 0.16195892 -0.050636455 0.049602002 -0.08965775 -0.05338532 -0.10028262 -0.062296648 0.5594226 -0.43055987 -0.6509836 -0.22224663 0.038429067 
27 -0.44469818 0.2803504 0.43065906 -0.5462246 -0.18299133 0.4308442 0.35310763 0.26212132 0.12373485 0.38825828 -0.39030716 0.11305882 -0.19347113 -0.5840145 0.20696457 -0.2429812 
28 0.32044235 0.8474365 0.707203 -0.35877317 -0.3102237 -0.28086337 -0.2836234 0.17674267 0.24077563 -0.25284332 0.03528435 -0.1855374 0.11903262 0.08344847 -0.24593787 0.13728102 
29 -0.25331804 0.5200934 0.4992052 -0.70473206 -0.2506273 -0.007090319 0.25439125 0.3452016 -0.2436208 0.02188428 -0.147756 0.33289424 -0.40462473 -0.66505176 -0.14864759 -0.09809346 
30 -0.36994094 0.19105388 0.021714319 -0.093986645 -0.2411576 -0.24092144 -0.3240716 0.07650374 0.36925197 -0.47729963 -0.5814818 0.0907104 -0.055801965 0.023984468 0.16698855 -0.08592059 
31 -0.07136638 0.26786876 0.106401026 -0.045786608 -0.38058326 0.4072424 0.232121 0.33494604 0.99787605 0.58087236 -0.20778695 0.55576855 1.108413 -0.8685034 0.547901 0.87815654 
32 0.6781161 -0.4123033 0.45037514 0.20085457 -0.004048147 0.5030466 -0.37417513 -0.76214576 0.24724893 0.2048823 -0.4239156 -0.565883 -0.4750083 0.10544357 0.46530336 0.4102934 
33 -0.38097274 -0.49498048 0.19152066 0.0797658 -0.12870261 0.055854574 0.092764124 -0.40476042 0.35956344 0.12628442 -0.44488078 -0.5868989 -0.1334286 0.43025547 -0.16072279 0.084294975 
34 -0.13645323 -0.093346745 0.552392 -0.010310515 0.3025183 0.35957497 -0.2251784 -0.2515713 0.43343616 0.7360719 0.093696654 0.6330062 0.72648346 0.5994235 0.362024 -0.87556165 
35 -0.13099596 -0.11620537 0.5296106 -0.007345645 0.3232923 0.37013495 -0.21964625 -0.24873646 0.4079516 0.7358541 0.12710263 0.6567941 0.6910862 0.5485088 0.30949646 -0.82626545 
36 -0.13423225 -0.12952521 0.6287506 -0.019085426 0.3368001 0.4516916 -0.21435693 -0.27087006 0.51715064 0.8157138 -0.054319024 0.6352648 0.5973259 0.54677117 0.5312255 -0.93783534 
37 -0.04547176 -0.069144376 0.033219792 0.06714202 -0.08397855 0.08419454 -0.060090665 -0.0048309457 -0.14761892 -0.095694155 0.033975925 -0.22198032 0.004542193 0.16860993 -0.32325408 0.14701769 
38 0.05635891 0.16969919 -0.056273915 0.2581082 0.01494398 -0.17126577 -0.53276694 -0.1563065 0.07429272 -0.4312932 0.06527302 -0.31932935 0.43166518 0.49998575 -0.4014621 0.25215155 
39 -0.4726692 0.23653296 0.1155982 -0.16132493 -0.2110156 -0.21689342 -0.39977312 0.14187202 0.39745006 -0.41708592 -0.6371436 0.26047885 -0.07668413 -0.05547924 0.14429078 -0.2051819 
40 0.0027779564 0.1543466 -0.24370788 -0.08690377 0.084846206 0.070322715 0.34845978 -0.23407969 0.07563943 0.25297058 -0.04614359 -0.91056085 0.39894488 0.0519576 0.36046073 0.040134784 
41 -0.6034915 0.46389037 0.692589 -0.63160884 0.22063115 0.8686511 0.38895455 0.18817341 0.12873581 0.9283587 -0.8924455 -0.2007541 -0.026800549 -0.6980067 1.260961 -1.0078694 
42 0.6997135 -0.45562384 0.4260778 0.21938863 0.02425649 0.56824315 -0.2493214 -0.7691913 0.22541162 0.2535625 -0.45549908 -0.7371421 -0.56561553 0.15944739 0.5496322 0.4025893 
43 0.37440732 0.27107957 -0.41885895 -0.13644636 -0.21346281 -0.4389942 0.8742218 -0.01563595 0.11703891 0.40380946 0.31125677 -0.6134958 0.16760188 -0.2579771 0.78320444 0.0058414564 
44 0.009455735 0.2489337 -0.10487905 -0.6129736 0.16227897 -0.2511562 -0.09527204 -0.37805492 -0.4559686 -0.3902238 0.03522707 0.042254288 -0.472853 -0.63898873 -0.24064803 0.29093963 
45 -0.17409696 0.48116076 0.20170501 0.05806678 -0.13521767 -0.19315596 -0.67572176 0.2819016 0.12657763 -0.3225436 -0.47037804 0.20040682 0.24384943 0.22807407 0.21333878 -0.5130091 
46 -0.12941095 -0.31790996 0.0467766 0.25000238 -0.18090358 0.1425476 -0.31565973 -0.24933875 -0.04206428 -0.3779258 -0.3904093 0.32206196 -0.22664568 -0.08762916 0.101593755 0.28450024 
47 0.25384867 0.4265352 0.09526256 -0.06628217 0.61175525 0.6229359 -0.88845474 -0.2084147 0.2381131 0.086629495 -0.19272584 -0.03809598 0.31378272 -0.11984983 0.061314456 0.14268987 
48 -0.24735194 0.4764077 0.2667779 -0.1469689 -0.13785505 -0.28985178 -0.52886045 0.21468657 0.09927483 -0.18506953 -0.24658054 0.2292043 0.25170845 0.05450305 -0.13092749 -0.3749963 
49 -0.4297932 0.20802489 0.1307579 -0.0018024798 -0.097988054 -0.12629183 -0.6157057 0.23285632 0.20613837 -0.37901983 -0.5729824 0.5215492 0.021285214 -0.014071125 0.042908743 -0.2915302 
50 0.39044416 0.7601659 0.2088099 -0.16861752 0.6686736 0.59398204 -1.2516676 -0.27186972 0.3478769 0.021658042 -0.32106087 -0.07756707 0.31909057 -0.17336483 0.17449851 0.08364487 
51 0.17152295 0.8672763 0.44328102 -0.036114592 -0.23749156 -0.15529135 -0.40475744 0.51013887 -0.46208033 -0.17654818 0.060245864 -0.050836496 0.46892715 0.4391344 0.05985643 -0.79188126 
52 0.2393004 0.4940749 0.17403531 -0.11472961 0.71887034 0.6773331 -1.1177857 -0.34016556 0.43793064 0.0844587 -0.3857822 -0.101029985 0.29011494 -0.09872633 0.12657093 0.13894612 
53 0.41098246 0.72985274 0.23837091 -0.15842673 0.68979365 0.70160234 -1.1788399 -0.21162358 0.23936701 0.08952311 -0.24432337 -0.01869284 0.3013032 -0.19544475 0.1577729 0.049826093 
54 0.10015643 -0.00010121241 0.14195128 -0.37186205 -0.28444642 -0.24575919 0.29890594 -0.6052844 -0.61621296 -0.07709412 0.66652906 -0.10033911 -0.46073171 -0.14808226 -0.2722947 -0.3299845 
55 0.24543235 0.20752911 -0.026791204 0.62283313 -0.008818747 -0.5615393 -0.50640815 0.43623918 0.39369327 -0.10567797 -0.21196364 0.10071025 0.14509523 0.97876275 0.6304611 -0.8755784 
56 0.11153476 -0.07497278 0.21279141 -0.33123308 -0.7809514 0.28070107 0.7495719 0.19222948 -0.08044229 -0.31175178 -0.24672957 -0.5441503 -0.9488424 0.012767301 -0.22288612 0.5854092 
57 0.30766952 0.2581544 0.14141662 -0.10869966 -0.40607777 0.25935236 0.40079716 0.2662543 0.5164253 0.46055815 -0.33063853 0.26481104 0.03071972 -0.826784 0.85107166 0.5239256 
58 0.166422 0.22090735 0.16572443 -0.014103532 -0.4293656 0.2221872 0.50975263 0.76692426 0.19149518 0.15697274 -0.034061864 0.20946334 -0.0927192 -0.0447914 0.205996 0.057363823 
59 -0.007852027 0.080002084 0.28081235 -0.04212571 -0.4482119 -0.056771882 0.2977659 0.64777994 0.2514122 0.09904717 -0.23649661 0.59528255 -0.4452972 -0.19306487 0.2462587 -0.14156713 
60 -0.21658432 -0.06736375 0.586851 -0.62876827 -0.84708744 0.37395003 0.809549 0.26626188 -0.33685213 -0.30702227 -0.08357575 0.0030699465 -1.3679495 -0.3011605 -0.7620184 0.52745837 
61 -0.13973644 -0.19392574 0.53243715 -0.46901378 -0.70365596 0.4249919 0.748869 0.25563708 -0.4082894 -0.24264106 0.07045829 0.25312415 -1.2538797 -0.37868676 -0.7405024 0.5739656 
62 0.29531264 -0.18112382 0.28654677 0.2963346 -0.099197045 0.53392804 0.30753213 0.7889188 0.11707541 0.27535957 0.14644429 0.8706838 -0.33296612 0.12559702 0.1916556 -0.10214857 
63 -0.097919345 0.076444596 0.4830821 -0.710197 -1.0662745 0.33473602 1.0045081 0.3719487 -0.35902384 -0.26280218 -0.21014345 -0.32106113 -1.3508557 -0.34682456 -0.39738393 0.38654396 
64 0.26338157 0.2733655 -0.34113073 0.029784186 -0.66974574 -0.35120106 1.1238502 1.0341591 0.3036499 0.27738267 0.23935051 -0.060389914 -0.011736758 0.03916627 0.25945297 0.12972529 
65 0.16434631 -0.06207364 -0.016735839 0.14743818 0.005716257 -0.0839611 -0.21740872 -0.13062404 -0.1213781 -0.059470627 0.22172323 -0.098524876 0.067477316 0.2376651 -0.27587366 -0.01823207 
66 0.48087382 -0.49864948 0.23081487 0.794694 0.12339428 0.8373688 -0.2782268 0.51276803 -1.2610867 -0.3268519 0.32884437 0.59809643 -0.13812707 0.22228245 -0.27194127 0.27557507 
67 0.07439351 -0.2334144 -0.31114307 0.086521074 0.1919007 -0.065755665 0.08982033 -0.10306725 -0.9353077 -0.095935024 0.63577914 0.2749452 0.038579833 -0.26897413 -0.32692447 -0.041745592 
68 0.4889569 -0.4615862 0.19835538 0.5612623 0.048689883 0.37750193 -0.2971272 0.12894768 -0.79571915 -0.20294544 0.335913 0.46609196 -0.22451407 0.17387173 -0.27770543 0.21664424 
69 0.4345873 -0.19108051 0.31571323 0.4131531 -0.1354937 0.19568251 -0.4090972 0.15217577 -0.861145 -0.23414536 0.22194596 0.30457675 -0.13071835 0.1746875 -0.12670961 -0.12098867 
70 0.7468409 -0.33784634 -0.34395522 0.34440517 0.17630495 -0.48964873 -0.564094 -0.7285778 -0.4714718 -0.35381097 0.349486 -0.0022112937 -0.0058629955 0.006256264 0.017501557 0.16322981 
71 0.7468409 -0.33784634 -0.34395522 0.34440517 0.17630495 -0.48964873 -0.564094 -0.7285778 -0.4714718 -0.35381097 0.349486 -0.0022112937 -0.0058629955 0.006256264 0.017501557 0.16322981 
72 0.8044569 -0.5022913 -0.39342716 0.46255314 0.41768426 -0.24539044 -0.62778735 -0.7335639 -0.66587394 -0.37137854 0.29674783 0.10686525 -0.07012785 -0.09361598 0.16281852 0.20140988 
73 0.7468409 -0.33784634 -0.34395522 0.34440517 0.17630495 -0.48964873 -0.564094 -0.7285778 -0.4714718 -0.35381097 0.349486 -0.0022112937 -0.0058629955 0.006256264 0.017501557 0.16322981 
74 0.4910412 -0.32857382 -0.20846523 0.27213782 0.2790969 -0.066596 -0.11425511 0.035916224 -0.033178914 -0.15796323 0.45275843 0.3898245 0.035973877 0.03931843 -0.35162264 0.5791641 
75 0.82880896 -0.79959816 0.06416446 0.8335909 0.62403256 0.9189621 -0.03189999 0.51185924 -1.076841 -0.42370513 0.4879631 0.7652097 -0.43626338 0.12299891 -0.17559044 0.80580044 
76 0.08346446 -0.43332344 -0.57064676 0.25209138 0.7713024 0.14023064 -0.06458159 -0.34566694 -0.62512827 0.12061612 0.3659911 0.30668002 0.20060512 -0.32914522 0.2506017 -0.15425384 
77 0.21717826 -0.33010817 -0.18682149 0.21993425 0.46539566 0.31736374 -0.22389221 -0.16183649 -0.3521078 -0.11818517 -0.090676256 0.27494088 -0.12068492 -0.2597738 0.30325693 0.18900901 
78 -0.11008237 0.17444947 0.26978746 -0.09536761 -0.0014847592 0.70432466 0.2582311 0.3782464 -0.39919466 0.29400986 0.014872356 0.18221945 0.13781661 -0.39713344 0.03239058 0.10406742 
79 -0.33316174 0.31101638 -0.060054794 -0.4830941 0.13503648 -0.019594207 -0.055538412 -0.04868115 -0.5586622 -0.13884002 0.039788265 -0.4027949 0.06865477 -0.24539846 -0.5456481 0.020145662 
80 -0.2035536 -0.09170092 0.53006786 -0.24281713 -0.18662617 0.8538716 0.6498966 0.5683335 -0.13475521 0.5266041 -0.2675319 0.5611764 -0.5498088 -0.53076506 0.3700202 -0.20297338 
81 0.40781978 -0.21859738 -0.122938916 0.3244202 -0.040273968 0.33342248 0.36159518 0.42133155 0.4033439 0.19217977 0.034653053 0.29546925 -0.109563515 0.08366401 0.33928537 0.41236883 
82 0.2084882 0.34263957 0.24160388 -0.19829388 -0.39919764 0.2974946 0.35502523 0.33132726 0.47145247 0.47282565 -0.32758307 0.30243292 0.022468299 -0.84320354 0.72766346 0.42966348 
83 -0.02731635 -0.070828 0.7734101 -0.39746046 -1.0666406 0.7484651 0.951904 0.7845906 -0.73921466 -0.22870629 -0.10115605 0.3284459 -1.3843844 -0.42049602 -0.46860927 0.4554452 
84 0.37687203 0.16524042 0.0024955273 0.14614019 -0.72682846 -0.1776679 0.7101129 0.80363834 0.5711091 0.10300608 -0.13723801 0.048104987 -0.33864906 -6.0407445e-05 0.38004604 0.38754636 
85 0.35979506 -0.16138388 -0.20431124 0.4619154 0.112208754 0.9040274 0.40664455 1.0528557 0.3251089 0.2583071 0.32961485 0.74633116 0.29814848 0.12418414 -0.022311417 0.5642103 
86 -0.44050062 0.4695648 0.5374378 -0.56630844 -0.36383373 0.35276386 0.20535745 0.6811748 -0.17280512 0.0100719705 -0.27766362 0.2999649 -0.229461 -0.4290929 -0.24360658 -0.19116773 
87 0.3339614 0.046371445 0.09007603 0.15598409 -0.4797405 0.17126565 0.5412717 0.5000961 -0.054118823 0.0053128917 -0.037237547 0.086445406 -0.302607 -0.016518218 0.4001838 0.20291156 
88 0.13786177 -0.1537657 0.059667498 0.2630673 -0.41460934 -0.12681589 0.5093645 0.30752772 0.45112562 0.21402812 -0.29601923 -0.09900236 -0.23589863 0.24892066 0.5381961 -0.012575485 
89 0.119702294 0.11939814 0.40960893 -0.22140095 -0.5452822 0.10457659 0.41050234 0.32715297 -0.4407639 -0.12079443 0.2580148 -0.03261488 -0.6309851 0.06386993 -0.3756187 -0.052479338 
90 -0.55569327 0.05582658 -0.057664372 -0.4033594 0.32896474 -0.5054052 -0.518034 -0.022188285 0.5664894 -0.04976379 -0.23885694 0.48893878 -0.039052 -0.17274374 -0.29687914 -0.49501663 
91 -0.39340097 -0.03159022 -0.255102 -0.29132336 0.4989265 -0.8488032 -0.82294405 -0.26709387 0.5511164 -0.19107462 -0.11053503 0.5358484 -0.043518186 -0.09031686 -0.38450617 -0.48745677 
92 -1.0416324 -0.31085917 -0.30271184 -0.6130816 0.6209919 -1.0174134 -1.0068159 -0.40738624 1.5899754 -0.26477006 -0.6565727 0.92956936 -0.21662624 -0.31119242 -0.63754183 -0.27356726 
93 -0.4242649 -0.084758535 0.017157782 -0.2782035 0.015082378 -0.36799064 -0.2003068 -0.10367153 0.552257 -0.10881464 -0.27354914 0.26763391 -0.13313834 -0.13251805 -0.18746457 -0.13261576 
94 -0.7748255 0.11585376 0.069528714 -0.51584744 -0.02642368 -0.7356968 -0.5765897 -0.076633476 0.7332633 -0.2923578 -0.43042764 0.5888737 -0.13434856 -0.20518242 -0.32733998 -0.54495317 
95 -0.26105502 -0.40605688 -0.5646801 0.19393416 -0.4087355 -1.060061 -0.40877923 -0.77358305 0.35693535 -0.8458083 0.31586394 0.38599986 -0.022703446 0.094149835 -0.51647055 0.31107852 
96 -0.21857625 -0.35626298 -0.48410925 0.17292953 -0.36350393 -0.93831503 -0.36077827 -0.6885198 0.3135934 -0.7451811 0.28766972 0.30892584 -0.012833611 0.109511495 -0.46799964 0.27176595 
97 -0.0060908934 0.514945 -0.08825034 -0.9251136 -0.041180898 -0.31242737 -0.08771724 -0.2836263 -1.1381859 -0.7295861 0.062085018 0.13717042 -0.72853494 -1.0053239 -0.4084564 0.3966042 
98 -0.052718863 -0.4407297 0.0016196311 0.77227825 0.27855447 0.69509953 -0.14616466 0.875774 -0.01760937 0.2975058 0.23846821 1.1714125 0.16769244 0.3052556 -0.49569353 0.15360963 
99 -0.100444295 -0.4276373 -0.081569046 0.7160694 0.3086686 0.6279521 -0.14401527 0.7301155 0.069352575 0.27810064 0.18226321 1.0125895 0.21774472 0.28245288 -0.45857805 0.20133191 
100 -0.7651454 0.13879152 0.13831073 -0.5281555 -0.095900476 -0.7472255 -0.618504 -0.21400613 0.7538455 -0.30020905 -0.46602672 0.44796565 -0.101797566 -0.13133226 -0.36008418 -0.55676484 
101 -0.9477706 0.32249513 0.18728834 -0.4644407 -0.11130181 -0.66937923 -0.84828633 0.17819104 0.6962998 -0.5130654 -0.79866636 0.7134148 0.0153814 -0.17716037 -0.19479373 -0.61056995 
102 -0.6666471 -1.0066617 0.4295393 0.23901097 -0.25873026 0.31914762 0.11583062 -0.68834144 0.36143595 0.12125624 -0.8429287 -1.094695 -0.27932054 0.81741273 -0.39009172 0.26367247 
103 -0.55759406 -0.8667509 0.16360638 0.31332102 -0.45872495 0.017503563 0.07168441 -0.6498547 0.30162072 -0.013182453 -0.52926934 -0.98751724 -0.2062813 0.90875006 -0.6532476 0.35538456 
104 -0.7409818 -1.2291484 0.53196895 0.25849184 -0.22887851 0.5605448 0.17292728 -0.76708317 0.26602674 0.1790003 -0.981012 -1.2360235 -0.3769706 0.8652443 -0.41642812 0.3066287 
105 -0.48041838 -0.78431743 0.13833962 0.29685652 -0.40465158 0.038800728 0.0515178 -0.5830394 0.23991011 -0.027539697 -0.46772894 -0.88772357 -0.1916961 0.81802696 -0.5953132 0.34210825 
106 -0.5341615 -0.74601907 0.29372442 0.17016253 -0.24769685 0.11297928 0.08916257 -0.5647711 0.38871637 0.09653085 -0.6110923 -0.8733802 -0.20077604 0.67850107 -0.3744344 0.21045373 
107 -0.44272533 -0.7803167 0.30813435 0.18286924 -0.10963273 0.40888777 0.12756196 -0.4668272 0.10436781 0.101426154 -0.6192789 -0.8006955 -0.22495626 0.53872126 -0.21539213 0.19742414 
108 -0.32173926 -0.44686416 0.13696077 0.09937236 -0.1720655 0.04785228 0.10467769 -0.31200162 0.17766458 0.07276161 -0.31195343 -0.45786852 -0.118340895 0.36677057 -0.23840407 0.110247836 
109 0.11095335 -0.28617853 0.2255202 0.26069942 -0.27733842 -0.0779982 0.21015388 -0.01422788 0.54302907 0.21378231 -0.4295124 0.0006627111 -0.46826386 0.23247787 0.6247504 -0.1611464 
110 -0.72819805 -0.9784787 0.4114096 0.26285225 -0.3625699 0.1631494 0.09368247 -0.65729904 0.36731142 0.05854769 -0.76111645 -1.070279 -0.26304784 0.90940034 -0.5788647 0.2590905 
111 -0.6036322 -0.87656015 0.33942908 0.1895319 -0.24876504 0.2849129 0.07940644 -0.6236443 0.21581307 0.06597551 -0.6820363 -0.93434274 -0.15449359 0.6784041 -0.46933734 0.28632122 
112 -0.009965738 -0.03345841 -0.09301348 0.050560594 0.16413249 0.07391616 -0.062674 0.061618038 0.11753741 0.07679525 0.13890886 0.10580573 0.15434688 0.067236796 -0.17432356 0.07477862 
113 -0.063367456 -0.21021035 -0.014950692 -0.044543855 -0.1392146 -0.34183866 -0.3553928 -0.153351 -0.10384495 -0.60564464 -0.13917746 0.5315789 -0.23370273 -0.3357691 -0.44516 0.64553 
114 0.34278464 -0.36943668 -0.8568547 0.49850994 0.72803026 0.29688233 0.045282926 0.22865452 -0.094044976 -0.058737785 0.55675083 0.04325517 0.7954759 0.11154015 -0.18987936 0.75755244 
115 0.08901943 -0.464977 -0.07088818 0.5313286 0.45596895 0.78353167 0.46344984 0.5650059 -0.82523376 0.26424024 0.73606896 0.014637988 0.049715184 0.5593696 -0.5546697 -0.060428426 
116 0.42131478 -0.13791984 -0.0835558 0.36343914 -0.20147613 -0.18542445 -0.10520861 0.02263157 -0.27403632 -0.36360386 0.44856188 -0.33723754 0.07626533 0.5993048 -0.58614737 0.3197965 
117 -0.0051868483 -0.39512107 -0.1709972 0.4156148 0.72141933 0.61939836 0.13606861 0.37350613 -0.6814958 0.23777418 0.61407274 0.033605028 0.19739297 0.36163074 -0.4251792 -0.15405527 
118 -0.24099371 0.14455807 -0.06435834 0.112777084 0.31853986 0.35360694 -0.05799502 0.5183381 -0.72505146 0.10983522 0.32958615 0.16055886 0.4044314 0.11582654 -0.34751853 -0.4942804 
119 -0.14233391 -0.26448607 -0.3500776 0.250037 -0.265102 0.039700385 0.23653094 -0.047624443 -0.13165897 -0.2859171 -0.16376984 -0.7157339 0.3166466 0.396456 -0.15443066 0.3485742 
120 -0.6176698 0.4427485 0.16533324 -0.15078783 0.27979845 0.7892643 -0.031965766 0.6739458 -0.008386601 0.31317696 -0.0992914 -0.2558329 1.0437369 0.28035444 -0.43526694 -0.23789907 
121 0.07422096 -0.026921108 -0.30723318 0.40455914 0.1849317 0.71617055 0.2191344 0.3927049 -0.39038914 -0.041691337 -0.18648264 -0.047575098 0.3301377 -0.05504277 0.61039835 0.11086908 
122 -0.12289753 -0.12905894 0.007574275 0.4547015 -0.3316538 0.19756317 -0.16664265 0.21985026 -0.090631664 -0.3446464 -0.5832237 0.40625718 -0.16128474 -0.04908243 0.5761858 0.009235844 
123 -0.010024406 0.06917934 -0.44064888 0.29099977 0.1822256 0.6208066 -0.13206294 0.2619405 -0.529361 -0.6179488 -0.2169845 -0.33864415 0.47773206 0.06537876 0.22095738 0.50309867 
124 0.21224748 -0.1427957 -0.022245679 0.568517 -0.47380403 -0.4211648 -0.13668141 -0.07466562 0.030722765 -0.45238277 -0.08811635 0.21385916 -0.10744653 0.56261545 0.5363967 -0.26935917 
125 0.12581557 -0.10315134 0.017643025 0.44481984 -0.4496978 -0.35510865 -0.089834884 -0.015458672 0.04250429 -0.40461466 -0.08916545 0.24725363 -0.108117685 0.43530357 0.42949617 -0.22165406 
126 -0.25184983 0.048148368 -0.93826723 0.08432114 -0.46926618 -0.7865944 0.2557081 -0.5062846 -0.4357221 -0.58149064 0.29686213 -0.51214236 0.14641263 -0.036101077 0.13860297 0.20887911 
127 0.114424154 -0.20879193 -0.07550134 0.64430374 -0.36084437 -0.040997546 -0.15010504 0.11174786 -0.077406116 -0.4383253 -0.42748678 0.3173731 -0.1202226 0.25012955 0.69486934 -0.029791398 
128 -0.09620144 -0.13075565 0.13656998 0.39363527 -0.40715072 0.5386016 -0.02340348 0.22392415 0.13442948 -0.06134597 -0.7512904 0.58233494 0.09030497 -0.43263274 1.0016629 0.20919664 
129 0.042256273 -0.22903204 -0.27140427 0.655007 -0.40893823 0.3285849 -0.11097679 0.07389201 0.038422164 -0.55323476 -0.7272466 0.18607354 0.08476212 -0.095658004 0.85574436 0.55724424 
130 0.0025027394 0.005451761 0.18906325 0.24043688 -0.09111004 -0.012685323 -0.22437745 0.09013911 -0.27425498 -0.026643809 -0.1563491 0.31752938 -0.110017166 0.105701156 0.34256676 -0.5238779 
131 0.39254403 -0.2365033 -0.4067247 0.3920349 -0.11689033 -0.007816637 -0.1505955 -0.2500565 0.44237864 0.08903471 0.13935736 0.4248892 0.6769661 -0.5336871 0.37840784 0.8366606 
132 0.11405794 -0.4125855 -0.027889613 0.5688799 0.62043 1.0406651 -0.13729511 0.72695655 -1.0237213 0.020332472 0.5897355 0.4689672 0.2490647 0.1894222 -0.8205532 0.3377244 
133 0.063349396 -0.38290852 0.0639476 0.5964869 0.5098973 1.0459323 0.016016878 0.9203184 -0.95141447 0.009686301 0.70408297 0.41868725 0.2512584 0.42950353 -1.0947446 0.3952629 
134 -0.035495404 -0.7422734 -0.3872567 0.45497066 0.7143135 0.77931774 0.23223183 0.14783038 -0.46293578 0.11721349 0.40814182 0.080059834 -0.012567721 0.28060457 -0.5688768 0.4333973 
135 0.25642255 -0.73925793 -0.40118676 0.61569375 0.6468214 0.7280671 0.20841059 0.038073644 -0.7367237 -0.034924302 0.55093706 -0.16834086 -0.067775786 0.43199977 -0.49626034 0.4667784 
136 0.15040599 -0.61073506 -0.27554414 0.4320857 0.6918319 0.7995594 0.30731618 0.027412118 -0.4650817 0.16011064 0.42565483 -0.26572672 -0.05993282 0.36306012 -0.39005816 0.41762686 
137 0.019693967 -0.53657085 -0.3273599 0.37813124 0.67795193 0.8553997 0.43273515 0.098104924 -0.39915293 0.2786611 0.3383647 -0.25627518 0.045202885 0.29782173 -0.1754646 0.2221297 
138 -0.08330904 -0.13880421 0.16503656 0.31755793 0.14095666 0.5639271 -0.07549506 0.6330567 -0.24011993 0.094233125 0.13059837 0.6070865 0.08925769 0.09313893 -0.36711663 0.09029593 
139 -0.531101 0.3929203 0.2108733 -0.2514046 0.2459366 0.6713136 0.016326204 0.7839039 -0.117216684 0.19852357 0.012553876 -0.14237985 0.80086726 0.14147338 -0.8494907 0.10281038 
140 -0.29402718 0.30732065 0.1445964 -0.22469045 0.1728248 0.5706065 0.39946175 0.22715864 -0.37882936 0.51110107 -0.073695965 -0.212974 0.26438588 -0.30017126 0.5391976 -0.6020168 
141 0.22693247 -0.6123083 -0.27936196 0.51083755 0.63678575 0.8174396 -0.35513425 0.1513225 -0.6160731 -0.23028496 0.1794756 0.39248565 0.105024725 -0.021002978 -0.43605474 0.69999653 
142 0.07287569 0.35802737 0.3702693 -0.19064136 -0.18628027 0.5525976 0.43226677 0.25311258 -1.3484023 0.31536126 0.6597829 0.12633918 -0.13166407 -0.32758915 -0.144793 -0.48121554 
143 -0.116293035 0.5555872 -0.25464007 -0.30346748 0.42136902 0.6263135 0.8768444 -0.17378992 -0.55128014 0.8968946 -0.07546344 -1.1819081 0.68854433 -0.41603884 1.5638413 -0.8714481 
144 -0.08324502 0.69320655 0.00060624536 -0.2756747 -0.3232762 -0.9960205 -0.49728525 0.16713561 0.5781924 -0.80592006 -0.32722178 -0.34301466 -0.044305924 0.42979908 -0.30899924 -0.16559015 
145 -0.23622824 -0.2547574 0.39043114 -0.111735284 -0.29548112 0.0603343 0.3015238 -0.006391026 0.4239001 0.26933447 -0.37181592 -0.33144602 -0.30301702 0.15256338 0.0018681139 -0.037825424 
146 0.1045154 -0.11916927 -0.28419134 -0.06649663 0.15152691 -0.36376867 0.008872844 -0.18693492 -0.079052396 -0.044941247 0.2223295 -0.008717757 0.14541005 -0.21151102 -0.11607789 0.1686942 
147 -0.2177508 0.037595928 -0.21358788 -0.04513508 -0.27024117 -0.7082533 0.40080383 -0.05249554 -0.75981784 0.16853327 0.5905814 0.47781682 0.07223818 -0.3259023 0.12460689 -0.8009494 
148 0.18046728 -0.28844962 -0.4189062 0.445533 0.0576515 -0.037654597 0.1410508 -0.10586833 -1.1069955 -0.13989386 0.44744194 -0.1506044 0.25582406 0.13530809 0.10682781 -0.18300438 
149 -0.062241305 0.09897798 -0.2127544 0.05866857 -0.24658053 -0.15289062 0.3893987 -0.057582468 -0.63049495 0.024413869 0.20485082 -0.6440804 0.16832057 0.3628572 0.045589395 -0.4449053 
150 -0.38382468 -0.4235382 -0.43801978 0.28098372 -0.27095255 -0.4460437 0.011112783 -0.5853559 -0.9622712 -0.37833294 -0.03736984 0.40646997 0.012586672 -0.41672257 0.520802 -0.4440655 
151 -0.34835297 -0.10299123 -0.11446246 -0.025490552 0.049446784 0.018368658 -0.103472695 -0.098407395 -0.2911858 -0.19597499 -0.22474216 0.5629589 -0.31119648 -0.4540202 0.28467607 -0.1758225 
152 -0.16692777 -0.3278044 -0.47425234 0.16188104 0.38380912 0.11065951 0.34094906 -0.48189068 -0.36156425 0.23620413 -0.15420201 -0.43520463 0.34398943 -0.10886097 0.8512802 -0.34822118 
153 0.014740601 0.09347701 -0.28461295 0.29815292 -0.0017590914 0.1390545 0.12778275 0.20927449 -0.721602 -0.30200976 0.17184828 -0.5078582 0.30926257 0.288494 0.08410631 -0.1610664 
154 0.33173862 0.26760173 0.69382024 0.08425848 -0.001989835 0.29574323 -0.6679776 0.08446078 -0.2712096 -0.41986635 -0.05899361 -0.053203993 0.1375459 0.6056987 -0.9445775 0.61675143 
155 -0.38495055 0.14919463 0.39713693 -0.28922415 -0.08383269 0.27433473 -0.013158703 0.09355602 0.3809234 0.2338605 -0.60900134 -0.1164625 -0.10693288 -0.13466771 0.24424736 -0.238949 
156 -0.2715392 -0.15284272 -0.45492572 0.06510404 0.4108851 0.17184618 0.069892526 0.027542476 -0.42100096 0.1292953 0.3147611 -0.14694783 0.6120141 -0.024288155 -0.36246622 -0.012714207 
157 -0.16435316 -0.07328573 -0.51127875 0.07941974 -0.27950037 -0.6766039 0.27206326 -0.33302927 -0.3674602 -0.14411151 0.18545732 -0.1262364 0.19999772 -0.13224642 0.23056887 -0.22918132 
158 -0.87681556 -0.34278566 -0.89617115 -0.24437569 0.7439964 -0.0838896 0.09168734 0.12869151 0.06799662 0.45178717 0.36547428 0.66384697 1.0018668 -0.7834523 -0.82321733 0.26910275 
159 -0.08638332 0.11487846 0.07655872 -0.08057581 -0.32062083 -0.60403997 -0.34128454 -0.18647338 0.26916987 -0.3719089 0.019397195 0.11886616 -0.14977752 0.22436228 -0.20858568 -0.28075677 
160 -0.115612686 -0.031652093 0.13138126 -0.09945241 -0.50577426 -0.4978912 -0.29972374 -0.83228916 0.31052846 -0.37129843 -0.0027684383 -0.38177162 0.10818945 0.27794218 -0.5045853 0.12465127 
161 0.09954085 0.18400651 0.3357668 0.085955456 -0.40115547 -0.35022533 -0.28637177 0.17050794 -0.27439108 -0.28831095 -0.07203145 0.49861845 -0.25122547 0.08150901 0.16852532 -0.47595423 
162 0.20079902 0.34572726 -0.4662933 -0.13660756 -0.11289476 -0.43397993 0.17627862 -0.15629068 -0.25793168 -0.09355135 0.4313534 -0.2943225 0.16163626 -0.28793156 0.12605505 0.25578883 
163 -0.8128876 -0.76097465 0.0545166 -0.48301798 0.95766085 0.45093673 0.5747049 0.21356806 0.79476017 1.0553395 0.40750965 1.2331599 -0.72686684 -0.5403186 -0.7500358 -0.5034619 
164 -0.34428945 -0.21068868 -0.42701864 -0.16943942 0.6488046 -0.06878741 -0.34103435 0.02913348 0.32363036 0.06493282 0.115468115 0.40485203 0.19696604 -0.22950451 -0.6247035 0.17783105 
165 0.316312 0.22433564 -0.070118055 0.054702826 -0.48277965 -0.32650113 0.312411 0.24380319 0.6725394 0.09449585 0.37832162 0.28556266 0.8014666 -0.33835605 0.06636779 0.9048408 
166 -0.22199976 -0.25124705 -0.6296247 0.25635555 0.14925134 0.39844185 0.021318506 -0.20733659 0.25874355 -0.21144259 -0.24974543 -0.7564384 0.8313791 0.29940322 -0.06185665 0.56620353 
167 -0.30991268 -0.021098651 -0.31162286 -0.30696392 -0.54443294 -0.5868155 0.312222 -0.060009476 -0.024329185 -0.58065444 -0.089325085 -0.11144675 -0.32791287 -0.2153898 -0.344176 0.32804048 
168 0.07187037 -0.10294434 0.07225492 -0.18954322 -0.7699703 -0.28806317 0.18168435 -0.0672186 -1.0958493 -0.8086543 0.33275974 0.35396892 -0.7495973 -0.3373883 -0.5328774 0.33593842 
169 -0.24124318 -0.34855682 -0.45722818 0.090525866 -0.36107332 -0.97287315 -0.30097324 -0.7008985 0.26450202 -0.6692406 0.27954885 0.29703254 -0.06061595 0.03461518 -0.42303476 0.18299066 
170 -0.4675669 -0.32158053 -0.41167745 -0.35733274 0.2688514 -0.24895349 0.04603118 -0.33404335 -0.35970145 -0.27362138 0.09893692 0.9290031 -0.5223399 -1.0593743 -0.12138249 0.19336079 
171 -0.11422987 -0.2200632 -0.58085054 0.48777425 -0.10525908 -0.66439235 0.4835792 -0.19804242 -0.83614117 0.071728654 0.0982634 -0.013217859 0.18853989 0.06389755 1.1185135 -0.96702147 
172 -0.1287269 0.2659611 0.34919873 -0.13738547 0.02569329 -0.7267929 -0.7825298 -0.21354736 0.12812781 -0.22711192 -0.15749903 0.44307283 -0.06614244 0.18622395 0.09051893 -0.9169766 
173 0.055423543 0.0033904589 -0.34360638 0.079806864 -0.21511199 -0.48513997 0.15101413 -0.24265605 -0.46615022 -0.07841523 0.2137537 -0.25340384 0.31237727 -0.00087350234 0.15924092 -0.18124393 
174 -0.21014807 -0.31936097 0.120372534 0.0439144 0.029998796 0.016616452 0.0132232215 -0.42286432 0.4344787 0.094925396 -0.38353956 -0.404948 -0.11776855 0.2682592 0.061737526 0.08189927 
175 0.4527027 -0.24381408 0.11052354 0.14962341 0.16187525 0.05155512 0.29388374 0.22281049 0.48287696 0.40098205 0.6168644 0.3095283 -0.30135405 0.3628999 -0.23040849 -0.017066311 
176 -0.40352207 -0.5893484 0.22863834 0.10317002 -0.17634858 0.027129017 0.14193456 -0.492944 0.47715628 0.18684754 -0.50311685 -0.6976317 -0.19467865 0.50758433 -0.16252735 0.11232786 
177 -0.4550161 -0.7677516 0.30131972 0.17389107 -0.1636594 0.25634295 0.11515443 -0.5290516 0.30196536 0.12170869 -0.651334 -0.780956 -0.25690198 0.5574604 -0.18450123 0.18884353 
178 -0.4366052 -0.8061446 0.31047824 0.1838589 -0.094101965 0.44265443 0.14635693 -0.47917357 0.09393482 0.12207008 -0.62889105 -0.79551506 -0.2478504 0.52288836 -0.18827179 0.1997005 
179 0.09500214 -0.04458955 -0.18554272 0.21935707 -0.058675922 -0.045468632 0.030343743 -0.05698009 -0.4226309 -0.14121698 0.10196751 -0.6526437 0.11451469 0.51563954 -0.066676885 -0.22682956 
180 -0.22706011 -0.08195277 0.30627692 0.042741247 -0.45366552 -0.016709104 0.14307581 0.19183904 0.26299065 -0.07970236 -0.39161712 0.4926624 -0.4287123 -0.045578137 0.41520795 -0.30248624 
181 -0.30230224 0.80742484 0.5249583 -0.25386712 -0.09253951 0.31110016 -0.28444818 0.6229453 -0.49293062 -0.004651785 -0.28399765 0.18189278 0.27703416 -0.0402818 0.22593687 -0.82864535 
182 -0.049236916 -0.24671666 -0.6361136 0.296432 -0.16948232 -0.5968062 0.5270216 -0.4676648 -0.8343726 0.082258746 0.2472685 -0.40157196 0.38541454 0.06182562 0.76036435 -0.60596985 
183 -0.000509087 -0.06978619 -0.639219 0.090667166 -0.21579012 -0.75257105 0.236909 -0.5448577 -0.37097648 -0.14260197 0.2866445 -0.28848886 0.31173706 -0.15955386 0.35069793 -0.12391582 
184 -0.58994734 -0.0943232 -0.4404217 -0.02393348 0.042957194 -0.09772034 0.4888396 -0.14482196 -0.9350029 0.22905779 0.14536676 -0.34979647 0.54781127 -0.13693438 0.22507595 -0.78648144 
185 -0.15866193 -0.010896936 -0.2604461 0.17311877 -0.19463502 -0.38202506 0.33008853 -0.13326572 -0.8194299 0.08231644 0.104073524 0.09453952 0.015552762 -0.097477466 0.67444533 -0.8660006 
186 -0.64987373 0.38488254 0.342142 -0.59914327 0.19516209 0.38800496 -0.17205271 0.11946741 -0.5480656 -0.16593249 -0.5897876 0.73182744 -0.48432887 -0.9079135 0.55358696 -0.6644804 
187 -0.40223357 -0.3703577 -0.66242135 0.111136936 0.038884398 -0.3795058 0.2514271 -0.5431352 -0.7191537 0.053570006 0.13340245 -0.08260357 0.56201607 -0.32483336 0.36583418 -0.3421478 
188 -0.34401003 0.22729899 0.009029552 -0.12900558 -0.2593912 0.31126273 0.459329 0.4847068 -0.8265667 0.14125928 0.18678142 -0.50011384 0.24156842 0.26516384 -0.559794 -0.32819238 
189 -0.34130865 -0.16626307 -0.55671406 -0.11054033 0.31469485 -0.18664253 0.27314943 0.062762134 -0.35714823 0.27226132 0.5013398 0.31224924 0.47084087 -0.38278952 -0.49419802 0.006875485 
190 0.116965786 0.36947268 0.25533748 -0.27444088 -0.3553605 -0.16734317 0.2543405 0.3255329 0.30758083 0.005788818 -0.06346605 -0.0796362 -0.1184233 -0.053812295 0.053994726 0.056092393 
191 0.8631893 -0.2605143 0.23756911 0.03811855 0.06177968 0.25066 0.4737527 -0.21127073 0.50578105 0.806364 0.14184436 0.3100536 -0.59419423 -0.6016011 0.79583126 0.45557573 
192 -0.21111429 -0.04101589 0.63749903 -0.051699106 0.2652407 0.29571134 -0.36463958 -0.21566696 0.5274528 0.68111366 0.055621583 0.77102923 0.7717139 0.64677584 0.23979189 -0.91304606 
193 -0.029762842 0.098294824 0.026885124 0.3835696 -0.50999904 -0.10648714 -0.13487267 0.33571255 -0.1699414 -0.5830059 -0.2918221 -0.09579789 0.15015173 0.37380362 0.04743021 0.20030993 
194 -0.3526231 0.19047293 0.2227816 -0.1103604 -0.0887862 0.587671 0.058922373 0.24854249 0.2863897 0.36437374 -0.5177474 0.37064588 0.53270596 -0.6659565 0.6365999 0.09046981 
195 1.1871805 1.8113539 0.54380065 -0.41187704 0.59506804 0.54764175 -1.6810688 -0.3821901 0.60485995 0.22771488 -0.3972696 -0.59556293 0.35867503 -0.32306564 0.88123983 0.09366214 
196 -0.4008881 0.058168992 -0.15753895 -0.09060673 0.37227905 0.40002453 0.1499191 0.42442924 -0.7058747 0.3276323 0.39097333 0.28488192 0.44724008 -0.29222897 -0.42776257 -0.30444697 
197 -0.4676434 0.3966286 0.26338017 -0.33824134 -0.06925726 0.33721617 0.17115197 0.9431449 -0.3138393 0.28834802 0.17618486 0.4869771 0.25138137 -0.26335746 -0.6282525 -0.2996676 
198 -0.16751707 -0.45408845 -0.50086 0.25193998 0.26504436 -0.7151917 0.03358154 -0.5846302 -0.19922549 0.06711571 0.595097 0.40737453 0.027979767 -0.11918485 -0.042028442 -0.2617721 
199 -0.411025 -0.16355465 -0.3799699 -0.015699789 0.61240876 0.49866003 -0.10877635 -0.021056019 -0.07776884 0.1273515 0.049320836 -0.19168693 0.63804746 -0.03076582 -0.3481661 0.15546434 
200 -0.3571323 -0.043278225 0.33603525 -0.2943047 -0.31064278 0.028237969 0.07419651 0.2996279 0.08105877 -0.117685035 -0.195559 0.7258148 -0.6708024 -0.39658555 -0.1647369 -0.197257 
201 0.30322665 -0.083897084 0.10245194 0.382322 -0.2799647 -0.081294656 0.035480328 0.2002976 -0.17289329 -0.11822375 -0.06716817 0.22560689 -0.20641357 0.22288266 0.3701294 -0.19042474 
202 0.29066104 0.43256912 0.046976678 -0.3374042 0.0629859 0.14601734 0.7165723 -0.07695884 0.2032483 0.5036363 0.40077502 -0.8757119 -0.23055871 -0.09063865 0.40687528 -0.16581745 
203 0.1450551 0.7657719 0.5361768 -0.98264426 -0.20454387 -0.4986689 0.40945816 0.08663765 -0.028533434 0.18917295 0.30340004 -0.12504098 -0.37432256 -0.6121741 -0.58830714 0.26350152 
204 -0.06269122 0.2731058 -0.0396235 -0.28334534 0.8390475 0.26467323 -0.17155552 -0.024755314 0.80883765 0.57406694 0.19901063 -0.7408194 0.5704195 0.47442278 -0.3269309 -0.26006287 
205 0.40152368 0.9181982 0.11181066 -0.55337346 0.06515162 0.17153433 0.61135095 -0.016250094 0.2836509 0.7524699 0.5363073 -1.0846549 -0.10498841 -0.17341864 0.3512494 -0.26649714 
206 -0.41341877 0.32552475 0.27286547 -0.16847412 -0.07286226 0.1912797 -0.21092938 0.54600286 -0.18047446 -0.060051188 -0.40406582 0.65804625 -0.016692631 -0.33426815 0.10895106 -0.36702666 
207 -0.08693898 -0.09232591 0.46341312 0.025831081 -0.5995045 -0.16573727 0.35908353 0.22474205 0.48684183 0.10243492 -0.43374348 0.15458384 -0.4312699 0.028758328 0.39779913 -0.045526944 
208 -0.06077248 -0.2537169 -0.0711863 0.2046565 0.37755376 0.6890812 0.1261886 0.30862713 0.013804041 0.27807534 0.005153086 0.30268693 0.13451403 -0.033099823 0.08873083 0.07261258 
209 -0.33704662 0.31333715 0.39232224 -0.43287253 -0.33585948 0.4360894 0.31586114 -0.06356484 -0.9242498 0.133269 0.14018278 -0.6727108 -0.052531987 0.043532543 -0.42604238 -0.35272992 
210 0.61548513 0.61725986 1.1030879 1.0916913 -1.6521871 0.5648648 0.22623897 2.120293 -0.7554983 -0.37372783 -1.514725 1.595661 -1.1141491 -0.0325942 2.7654564 -1.3075862 
211 -0.39084622 -0.6896438 0.18853232 0.47087038 -0.35074604 0.01521302 -0.8712687 -0.64792585 -0.035575137 -0.7807999 -0.6715808 0.9194336 -0.40951303 -0.1270438 0.050751142 0.13044728 
212 -0.09692106 0.7249877 -0.09450094 -0.44258383 -0.94328374 -0.4498299 1.3842334 2.0106835 0.91993 0.55479014 0.06286753 0.37576285 -0.40967414 -0.19898105 -0.22680716 -0.0061670914 
213 -0.42934507 0.032514192 0.15117608 -0.3738825 0.37568015 0.66619855 0.4136468 -0.012745298 -0.35703838 0.60025907 -0.14512387 -0.14053902 -0.047432188 -0.52598834 0.34198624 -0.4534565 
214 -0.65931517 0.031729437 0.76193684 -0.30447528 -0.49089605 0.7165183 0.2780037 0.25567734 0.8208563 0.6256158 -1.0934439 0.5323921 -0.050330427 -0.73228073 0.95225686 -0.2025455 
215 -0.021301415 0.43181637 0.25592175 -0.06545227 -0.50678444 0.55987954 0.37793687 0.6177127 0.66661257 0.56800556 -0.23702209 0.68050903 1.2020805 -1.1029547 0.8080613 0.8077614 
216 0.5349218 0.39003128 0.1429604 -0.25652805 -0.047934357 -0.04674943 0.1645172 -0.24683018 0.149316 0.5320197 -0.00023144297 -0.08727681 -0.15470982 -0.70985234 0.87176526 0.0043979883 
217 0.6196812 0.32907072 -0.2136096 -0.058257498 -0.22715688 -0.27368128 0.12405449 -0.4089039 0.39733833 0.2032929 0.07595149 -0.31385094 0.1857346 -0.5710831 0.6663621 0.7198124 
218 0.15151261 1.6547416 1.3866456 -0.5047083 -0.4350808 0.5263662 -0.49072933 1.0410348 -0.58696765 0.3655668 0.002128525 0.15498905 0.5026394 0.013923056 -0.018126162 -1.0583625 
219 -0.25272784 -0.5419122 -0.14264424 0.10725444 -0.12963133 -0.39545718 -0.441841 -0.30805755 0.5681896 -0.52289975 -0.50492746 1.0251253 -0.5767784 -0.45332727 0.096461065 0.37700054 
220 0.4516353 0.31437552 -0.12741692 0.022561256 0.19286194 -0.6023272 -0.76085985 9.091152e-05 -0.34289774 0.1536676 0.068558104 0.15892954 -0.48114294 -0.005237966 -0.32212657 -0.46551532 
221 0.089840695 0.6447729 0.08094802 -0.11412205 -0.02197954 -0.6328484 -0.63687485 0.16391623 -0.14124402 -0.40686625 0.116288155 -0.036719814 0.5999898 0.30075386 -0.3584421 -0.29996204 
222 -0.45159626 -0.2801251 0.079711825 -0.01206786 0.40258622 0.4430803 -0.03487502 -0.31519312 0.42269847 0.36975557 -0.38036722 -0.34605312 0.2112472 0.118422605 0.069356345 -0.04534393 
223 -0.45159626 -0.2801251 0.079711825 -0.01206786 0.40258622 0.4430803 -0.03487502 -0.31519312 0.42269847 0.36975557 -0.38036722 -0.34605312 0.2112472 0.118422605 0.069356345 -0.04534393 
224 0.53356177 0.88256377 0.12336864 -0.26436132 0.47520468 0.48865446 -0.6662802 -0.21315134 0.4841956 0.3376963 -0.21312952 -0.4015901 0.1990703 -0.31309026 0.61132467 0.18597223 
225 0.026433252 0.13468976 -0.39116302 0.14422798 0.37088287 0.2907279 0.07841367 -0.09021774 0.12532568 0.26927114 0.19751067 -0.4867997 0.8363269 0.15048575 0.1715023 0.14962438 
226 0.3678906 0.7197437 0.07759872 -0.20568451 0.17036302 -0.4345194 -0.4103297 0.025514547 -0.47823566 -0.0013960334 0.19614068 -0.30982468 -0.39280525 0.28122228 0.16955504 -1.1202883 
227 0.95587164 0.90041596 0.5024758 -0.11807847 0.051324815 -0.025052682 -0.9416495 -0.20517984 -0.04064488 0.08024623 0.36037827 -0.09666979 0.13104367 0.06628452 -0.081497684 -0.053239 
228 0.17775632 0.37672418 -0.15281641 -0.63328934 0.38474894 -0.06962494 -0.30254018 -0.43860972 -0.4497979 -0.45103276 0.032044858 -0.25870568 -0.38322744 -0.5519884 -0.48218608 0.65581596 
229 0.23717077 -0.10826226 -0.13613172 0.46213272 0.1370095 -0.46837062 -0.3165102 0.04902211 0.41494238 -0.0402824 0.09182603 0.069580376 0.033609077 0.731243 0.18536717 -0.3834511 
230 0.6339259 -0.00540362 0.62962943 -0.3494514 -0.20318307 -0.2767652 0.72705096 0.15561853 0.4996535 0.6614412 0.9304821 -0.0950337 -1.0516845 0.4123999 -0.41148275 -0.5079469 
231 0.67776954 0.24928935 0.92015153 -0.60375214 -0.55034506 -0.2684057 0.89746845 0.18720919 0.4723916 0.66595274 0.71420646 -0.28374863 -1.3966786 0.25354603 -0.14061674 -0.6212276 
232 0.47087637 0.15587217 0.80989736 -0.6495678 -0.86933005 -0.13870224 1.1415957 0.38118696 0.30150464 0.37647837 0.507777 -0.24850592 -1.4860619 -0.04970646 -0.31756803 -0.04738723 
233 0.51054585 0.14031869 0.68818456 -0.48575485 -0.34941283 -0.24367529 0.74861896 0.13889384 0.36298195 0.5676375 0.68044746 -0.18377846 -1.0689915 0.1942536 -0.18765165 -0.5304445 
234 0.45994794 0.09399516 0.6761861 -0.48596674 -0.42209154 -0.15759104 0.8295118 0.17837903 0.3177342 0.50137824 0.6071723 -0.20402053 -1.1497382 0.1819983 -0.20815018 -0.42475688 
235 0.08115705 0.5536777 0.6042579 -0.45430583 -0.2512426 0.26037306 0.34823352 0.49358124 -0.14755432 0.37793633 0.2264907 -0.16249113 -0.30918568 -0.08836502 -0.21279356 -0.3641966 
236 0.4671077 0.13003315 0.6229572 -0.44687685 -0.32055125 -0.21973115 0.70345557 0.1238435 0.32054585 0.5169687 0.630152 -0.19007918 -0.97959554 0.17895697 -0.17042527 -0.47814304 
237 0.39848268 0.47521776 0.8608694 -0.68890333 -0.23768076 0.10375543 0.9109704 0.40720084 0.36673936 0.87614065 0.5704452 -0.21425478 -0.99493235 -0.059049796 0.15448438 -0.80970335 
238 0.5171426 -0.539492 -0.18308216 0.43564078 0.47425988 0.21937147 -0.31145373 -0.31690273 -0.5793354 -0.21225138 0.10282601 0.26420155 -0.25268108 -0.09897938 0.22942607 0.24782158 
239 0.14150679 -0.21684259 -0.16608612 0.44141877 -0.060048778 0.33721247 0.045046043 0.17086333 -0.38856065 -0.25339597 -0.3657392 -0.19223794 0.04630608 0.22650295 0.54816693 0.021695752 
240 0.100576095 0.76858145 0.287741 -0.3996557 -0.10245353 -0.10109361 0.0014273701 0.4165629 -0.2008568 0.19985464 0.15022647 -0.09637463 -0.10188533 -0.083187774 0.01773051 -0.63952756 
241 0.21968243 0.8319325 0.28877157 -0.191109 -0.008321608 0.17140025 -0.46960732 0.2637663 -0.09272834 -0.03634739 -0.2907783 -0.17127132 0.251064 -0.09207113 0.3329823 -0.18399297 
242 -0.15234831 0.4158278 0.22154483 -0.40758792 0.16564167 0.39366677 -0.0059222877 0.06296906 -0.18465723 0.26280648 -0.15031487 -0.0495527 -0.074192725 -0.4658747 0.20987397 -0.26834074 
243 0.3754459 0.83584666 0.07973952 -0.26146513 0.21784072 -0.50450116 -0.49156573 0.050990433 -0.5768582 -0.015073723 0.21647143 -0.31437704 -0.39824522 0.2710111 0.17930825 -1.2823756 
244 -0.09901917 -0.0028780773 -0.4523809 -0.14735132 0.59403336 -0.14956453 -0.17014344 0.12528312 0.11184917 0.19055115 0.43427116 0.29113132 0.3284522 -0.2146936 -0.6217226 0.16929394 
245 0.959498 1.3564329 0.5336408 -0.25011587 0.11594844 0.20335694 -1.0535734 -0.10614845 0.05152899 0.07915529 -0.24530877 -0.46605718 0.22454526 -0.099112 0.7382608 -0.23690885 
246 0.5120215 1.276502 0.3027918 -0.5704004 0.06327895 -0.48559415 -0.49894363 0.03539932 -0.22168654 0.0687342 0.35755053 -0.6379002 -0.14446914 0.20589323 -0.11389916 -0.87937826 
247 0.2749002 0.88636005 0.3138282 -0.27341917 0.012182465 -0.28514466 -0.47640476 0.19215004 -0.41498065 -0.016203668 0.09571263 -0.17574278 -0.15675026 0.20314264 0.119298495 -1.0074047 
248 0.7466295 0.822502 0.43519706 -0.18213353 0.032008022 -0.115801506 -0.7890386 -0.1421184 -0.14450544 0.056211606 0.3443377 -0.062614694 0.003135929 0.055886187 -0.115777925 -0.2606122 
249 0.16253802 0.2918102 0.18865207 0.076868504 0.19775665 -0.10914148 -0.55048543 0.015809027 -0.107196726 -0.02509228 0.24096586 0.034666214 0.44888157 0.35522428 -0.31743592 -0.27045006 
250 0.18436739 0.43778127 0.010412619 0.31870776 -0.10291666 -0.28415653 -0.45265067 0.3271488 0.10071741 -0.1985163 -0.26291674 -0.057201028 0.23099588 0.5046977 0.5278827 -0.552991 
251 -0.3688113 -0.5505008 0.35730612 0.017728692 -0.2274447 0.108771935 0.24595717 -0.2646224 0.38783324 0.25342238 -0.44104263 -0.5334953 -0.31193182 0.3618154 -0.1501925 0.01604695 
252 0.36402407 -0.26198238 0.048281964 0.436028 -0.027324252 0.8630806 0.40415174 1.0660028 0.1602269 0.2578093 0.3328214 1.0086244 -0.06340445 0.07848765 -0.08713299 0.4121844 
253 0.001093951 0.37068948 0.5267846 -0.025120687 -0.584064 0.047172524 0.15877716 0.82821226 0.1423068 0.10027315 -0.38303488 0.61231357 -0.34946138 -0.15562823 0.47178522 -0.3955716 
254 0.23667508 0.19292504 0.24596208 0.22212562 -0.8325764 0.16215193 0.71668196 1.0147369 -0.1435504 -0.10310796 -0.20020439 0.16785684 -0.3760806 0.12985864 0.41071242 -0.0038918317 
255 -0.39711237 -0.17987002 0.33534372 0.116353825 0.03587066 -0.47455662 -0.2295778 -0.08973484 0.693194 0.13267085 -0.4988883 0.40935874 -0.32351214 0.5048403 0.5206635 -0.81089383 
256 0.32439628 -0.15891828 0.060057502 0.21738493 -0.19125316 0.44089106 0.47148946 0.6900732 0.17071609 0.12832491 0.26963496 0.46910837 -0.24192864 0.12765373 -0.08173559 0.3399924 
257 0.003932722 0.19 0.1956743 0.026992299 -0.5134684 -0.072641544 0.3472923 0.70382607 0.07942358 0.110210225 -0.1459586 0.60019886 -0.2815866 -0.23812902 0.38894945 -0.22062893 
258 0.368362 0.05723966 0.027953956 0.48310637 -0.6457035 0.102191865 0.6868583 0.89560646 -0.36085278 -0.091860965 -0.09794684 0.1776849 -0.2328886 0.23921755 0.6791959 -0.20466211 
259 0.29020196 -0.0431197 -0.025979558 0.2976084 -0.019670252 0.66201025 0.34137103 0.89433324 0.25773975 0.27602103 0.18443203 0.699811 0.10309452 0.017283669 0.1370638 0.23870422 
260 0.5255147 -0.07973072 -0.17972505 0.48041996 -0.7140366 0.047918834 0.62773913 0.718856 0.07471325 -0.40066683 -0.25251952 -0.08220716 -0.31315905 0.28757438 0.46079838 0.5950432 
261 -0.2414904 0.31475678 0.49254215 -0.44004408 -0.5097921 0.25642303 0.53608006 0.700696 -0.00218286 0.22144723 -0.253515 0.30275902 -0.4885741 -0.40801987 0.09731498 -0.26872852 
262 0.23256055 -0.24260116 0.00543759 0.20344426 0.61831594 0.5224301 -0.40740696 0.29821607 -0.71291316 -0.5748425 0.09115547 0.54157335 0.05452043 -0.21683376 -0.28492624 0.63378936 
263 0.28518727 -0.1310554 0.1233465 0.3833868 -0.23511325 -0.076964244 0.031993873 0.16443656 -0.16265532 -0.07173003 -0.08152062 0.25937825 -0.2388624 0.23226021 0.39746594 -0.23146339 
264 0.7821493 -0.36290812 -0.26265284 0.3989494 0.13914253 -0.42295057 -0.5871309 -0.6559264 -0.583941 -0.36666214 0.3723294 0.06984992 -0.041314423 0.030818056 -0.011769649 0.15074562 
265 0.26677534 0.24930412 0.5515754 -0.30803895 -0.2604388 -0.055422626 -0.15553789 -0.1191922 -0.4997999 -0.2960468 0.23859835 0.072077185 -0.3976456 -0.039908737 -0.66192144 0.16662697 
266 0.2912143 -0.07822603 0.10353246 0.3793043 -0.2785071 -0.07816182 0.018959917 0.18323748 -0.187257 -0.12165696 -0.06574051 0.22373015 -0.19843595 0.23179589 0.3632254 -0.20067285 
267 0.6519942 -0.24008135 -0.20660044 0.36492294 -0.085716285 -0.27653053 -0.13356937 -0.17575254 -0.37740284 -0.47197637 0.24265778 -0.064288154 -0.086266086 0.15343183 0.07309024 0.36820436 
268 0.32496274 -0.19118321 0.086431116 0.537267 0.58612835 0.53393316 -0.14764263 0.43001822 -0.7244669 0.07067687 0.49630597 0.14751267 0.09837365 0.4957653 0.0030118157 -0.40185544 
269 -0.12436278 0.006221043 -0.028394416 0.14112309 0.03508336 -0.800858 -0.7419862 -0.52210945 0.3708264 -0.5374515 0.068464115 0.25479606 0.3467217 0.2871629 -0.2410987 -0.07559025 
270 0.15960307 -0.055234477 -0.3253095 0.09350964 -0.009899273 -0.25595 0.06372001 -0.05784396 -0.11764135 -0.2042824 0.16480131 -0.24735387 0.2026256 0.048359986 -0.063380934 0.23672844 
271 0.115933344 -0.35653004 0.076837294 0.43632194 0.44779742 0.772199 -0.049507506 0.3653012 -0.7615379 0.051944546 0.2711952 0.38219362 0.018712502 0.058926623 -0.1440993 0.020816866 
272 -0.25370958 -0.021801544 0.07717815 -0.23364075 0.67958313 -0.13742328 0.06620771 -0.29494596 0.69504845 0.13832188 -0.36843443 -0.7454058 0.36422402 0.46368846 0.15658537 -0.27487478 
273 -0.31798515 0.31962198 0.5623319 -0.5055628 -0.34565222 0.53118527 0.35969874 0.5867001 -0.14915289 0.26594734 -0.3408656 0.42925528 -0.35105625 -0.6585628 0.097444884 -0.14979059 
274 0.14581893 0.41034985 -0.1278732 -0.24169225 0.5155091 0.035596587 -0.357436 -0.03148912 0.03329292 0.30419767 0.60579175 -0.2224569 0.17170876 0.09701298 -0.6400071 -0.31373522 
275 -0.19225666 0.13604136 0.38065964 -0.40152693 -0.65918964 0.32109517 0.48643225 0.33988833 -0.26422274 -0.16548416 -0.24867731 -0.14623341 -0.70244306 -0.17589569 -0.3237222 0.2240679 
276 -0.43867797 0.35214108 0.11751841 -0.5989126 0.19021323 0.1122608 0.037455726 0.14019176 0.08519171 0.060653683 -0.10465875 -0.4739742 -0.1658942 -0.023309648 -0.52040535 -0.24681558 
277 -0.43785027 0.7482051 0.2893807 -0.7545846 -0.12411256 0.0772951 0.14499299 0.5349539 -0.11542688 -0.016955793 -0.21169642 -0.21053739 -0.14454654 -0.2691196 -0.17579654 -0.46427092 
278 -0.45551196 0.49694952 0.08230393 -0.87622803 0.5119642 0.13889083 0.34972984 -0.26043063 0.6216381 0.63068366 -0.36896312 -1.125359 0.022771243 -0.1058716 0.20653203 -0.5261589 
279 -0.10019279 0.35035685 -0.11790025 -0.7518349 0.118666805 -0.4571663 -0.12316951 -0.37097913 -0.57879966 -0.44504437 0.13034014 0.17604311 -0.5126005 -0.7381767 -0.23787153 0.00018075109 
280 -0.47859952 -0.4166656 -0.7274591 0.12070398 0.15763609 -0.2676637 0.25258154 -0.5536982 -0.73525983 0.11065304 0.1431681 -0.11898762 0.68679476 -0.3281793 0.32931215 -0.333989 
281 0.41738898 -0.51397413 0.23022532 0.33224523 0.3577301 0.27777368 0.23761413 -0.15236501 -0.2833073 0.25848824 0.27876514 0.21031326 -0.6481135 0.13774744 0.25740945 -0.08751854 
282 0.27142242 -0.23407486 0.31191438 0.042445548 0.30735785 0.31934446 0.43778196 -0.12425127 -0.18405192 0.4803474 0.21375021 0.03320789 -0.5963191 -0.06198802 0.45103902 -0.31452572 
283 -0.47556967 -0.13242248 -0.21126287 -0.41030502 0.11534485 -0.70243174 -0.33418834 -0.43340343 0.51092404 -0.22021589 -0.040342808 0.16956785 0.14890696 -0.19924149 -0.5212482 -0.10472168 
284 -0.34349123 -0.21431133 -0.31039166 -0.10409845 0.5884391 0.08262274 0.018693179 0.15602112 0.0008946061 0.31659505 0.41709334 0.46071878 0.23261593 -0.1836347 -0.613394 -0.16818272 
285 0.53976417 -0.26051623 -0.6829076 0.32594538 0.4811449 -0.3082669 0.21194687 -0.09073131 0.46123335 0.2074099 0.729519 -0.06308729 0.46612027 0.24312757 -0.1525217 0.61959827 
286 0.38940316 -0.13028829 0.3678084 0.39077985 -0.12003645 0.30212414 -0.38465554 0.27692637 -0.98236847 -0.21691841 0.23811224 0.39135408 -0.14862934 0.13503742 -0.13137409 -0.21462847 
287 0.05628534 -0.37412375 0.24323079 -0.1916016 0.37725893 0.19284777 0.279684 -0.04366449 -0.42023325 0.08469698 0.12953411 0.70643115 -0.7827597 -0.6413977 0.045784317 -0.0048094215 
288 0.10117772 -0.3729995 0.15339108 -0.18133351 0.4225017 0.12290268 0.14459378 -0.056140304 -0.6547073 -0.006022699 0.309429 0.83685523 -0.73489654 -0.6606634 -0.15329015 0.001999084 
289 -0.06772867 -0.42137808 0.20875841 -0.07651541 0.4669502 0.30002305 0.2251641 0.09744054 -0.3922821 0.21030553 0.12485955 0.9135696 -0.66717154 -0.60486495 0.089613095 -0.21408157 
290 0.24890134 -0.32117367 -0.38310558 0.20860548 0.20189264 -0.55856276 -0.293275 -0.3205185 0.12800372 -0.18499124 0.40523553 0.29643917 0.104443185 0.03635481 -0.2935475 0.21922599 
291 0.119604275 -0.31611916 -0.016926514 0.35300654 0.37688157 0.6458026 -0.30438524 0.09261885 -0.4711221 -0.16252023 -0.21999091 0.27245456 -0.101229355 -0.060209997 0.1725875 0.18928829 
292 -0.239564 -0.06866493 0.07099646 0.091712065 0.32668436 0.7446143 -0.19132794 0.2771439 -0.3152814 -0.01029411 -0.38951144 0.24542229 0.0655563 -0.20692784 0.19615352 -0.0125973895 
293 -0.20077692 0.11924492 0.25004366 0.029561713 -0.039061405 -0.4512676 -0.70654774 0.023353286 0.1704873 -0.20954238 -0.13464896 0.5927849 0.024119847 0.25888407 -0.10975368 -0.65084434 
294 -0.22636354 -0.32438946 -0.45890406 0.12815833 -0.34921253 -0.90538865 -0.31971464 -0.6585258 0.28611857 -0.69451064 0.28356206 0.29710078 -0.020573849 0.073546626 -0.43833697 0.23686014 
295 -0.08016068 0.34518147 -0.13690746 -0.83401483 0.166605 -0.27226788 -0.073819935 -0.41648763 -0.79232836 -0.5327015 0.014625341 0.1897269 -0.6586776 -0.94890773 -0.20328996 0.27093446 
296 -0.19472772 -0.336115 -0.4715089 0.17698391 -0.31115696 -0.8653469 -0.3524478 -0.6424532 0.298151 -0.68988174 0.27682018 0.2907412 0.0032227607 0.11125749 -0.44044098 0.26065242 
297 -0.403607 0.22430454 0.18089429 -0.3260436 -0.035411675 0.30528718 0.26384526 0.19263248 -0.3712979 0.2679797 -0.13532902 -0.5709045 0.07825414 0.03286589 -0.17405485 -0.3818961 
298 -0.10543345 0.6403103 0.011987686 -1.3452353 0.33118665 -0.1376059 0.013568674 -0.40383616 -0.8485396 -0.44139445 0.096468225 0.03849506 -0.8786182 -1.2357631 -0.62043977 0.4431423 
299 -0.80516523 0.38183272 0.1345997 -0.45047322 -0.19660935 -0.422441 -0.441507 0.28934 0.6037327 -0.34708405 -0.67552525 0.34190923 0.019505076 -0.116545744 -0.09322781 -0.50527215 
300 -0.12546498 -0.09605983 0.19093806 0.03482169 -0.37419403 0.15540248 -0.08889203 0.09734029 -0.28760594 -0.11801136 -0.045230344 -0.75204325 -0.050454147 0.4529702 -0.7927982 0.37654114 
301 0.086604714 0.11569527 0.29647267 -0.43756798 -0.012798123 -0.042274814 0.31490415 0.058479775 0.1831631 0.16132566 0.3253712 0.088280104 -0.51449144 -0.110776134 -0.44467443 0.053908803 
302 -0.648367 -0.06752389 -0.15017807 -0.44219694 0.37962028 -0.57815915 -0.4884867 -0.08534133 0.77294374 -0.048255853 -0.13895081 0.49314877 0.054873634 -0.16551629 -0.5804525 -0.28795794 
303 -0.5508846 -0.055197407 -0.77377665 -0.05100081 -0.39931628 -0.6617534 0.638272 -0.580098 -0.7838529 0.0149992695 0.12662646 -0.36881888 0.6309611 -0.43526462 0.58089507 -0.42700136 
304 0.32299614 -0.29186445 -0.34531903 0.82340556 -0.5761931 0.049218502 -0.06636724 0.039776932 0.16894087 -0.8022694 -0.6384091 0.09214109 -0.2840464 0.12234739 0.81151366 0.7418862 
305 0.35221976 0.20723656 0.3241421 0.05609046 -0.024408188 0.28862154 -0.7177061 -0.21721226 -0.29818958 -0.9944599 -0.40384772 -0.14741954 -0.10847583 0.020260472 -0.06718849 0.79740644 
306 0.06875378 0.079176284 0.81936044 -0.3673736 0.11405969 0.6300688 -0.4849824 -0.69822216 -0.2370333 -0.44582516 -0.23123877 -0.16988063 -0.23452172 -0.047021233 -0.5137845 0.60495794 
307 0.16995823 -0.04459005 0.05422967 -0.014928933 0.043570668 0.49890104 -0.19484374 -0.3122058 -0.34917396 -0.3180046 -0.28065035 -0.4672725 0.097240455 -0.05723202 -0.057913434 0.5942101 
308 -0.10631827 -0.006316498 0.10278919 0.4456169 -0.38852316 -0.014169166 0.026691586 0.29206967 -0.15454355 -0.24061988 -0.32651103 0.42842978 -0.052301936 0.3304025 0.7634118 -0.5323327 
309 -0.08717525 -0.30340007 0.21924591 0.3562348 0.06177268 -0.2864435 0.014081762 -0.21126013 0.5441827 0.17732897 -0.37493813 0.11237548 -0.26645985 0.6340822 0.7746618 -0.5591526 
310 -0.34339833 0.021355696 0.2553234 0.23267128 -0.38798296 0.11230467 -0.23228501 0.17187804 -0.21379352 -0.3944121 -0.5043791 0.6437683 -0.17766783 -0.01599677 0.5264423 -0.43443352 
311 0.19498527 -0.022777433 -0.1555526 0.19491364 -0.013448484 -0.09297456 -0.10733895 -0.037838977 -0.075883016 -0.13251947 0.20077094 -0.17055088 0.16503999 0.26665255 -0.14838259 0.069146484 
312 -0.2062454 -0.07381448 0.15753639 0.57547456 -0.415331 0.35349846 -0.039682344 0.41986525 -0.32402954 -0.3615036 -0.6335826 0.65740776 -0.085854866 0.13285765 1.018046 -0.43596292 
313 0.009957597 -0.27383846 -0.09938078 0.7457277 -0.47862998 -0.23436686 -0.38318315 0.027353361 0.11196318 -0.6760064 -0.61081934 0.5194587 -0.1839482 0.26856858 0.71004313 0.03172816 
314 0.020557372 -0.02642864 0.18210448 0.83568853 -0.92107767 -0.37886602 -0.14512171 0.33043215 -0.2640984 -0.7432474 -0.4285293 0.73603886 -0.20013078 0.68937504 1.1158895 -0.7801887 
315 0.38190666 -0.5036846 -0.19229653 0.3099453 0.49653047 0.41707373 -0.18995118 0.05072967 -0.33933783 -0.17517357 0.24089861 0.36203945 -0.15918522 -0.05472036 -0.33160046 0.61370844 
316 -0.37022567 -0.0034805238 -0.59470785 0.0024258494 0.38990963 0.50090814 0.40083513 -0.009185987 -0.5674425 0.1347912 0.18317951 -1.1396368 0.89840573 0.19520459 -0.38453412 0.20701356 
317 -0.38994715 0.09385544 -0.048166297 0.045322184 0.063699596 0.4787095 0.3295902 0.4891262 -0.24981135 0.13102165 0.021348454 -0.5583661 0.44969884 0.5248934 -0.5814799 0.0053130165 
318 -0.023665112 0.13185024 0.06624095 0.06740354 0.31327876 0.6341762 -0.002495991 0.80698293 -0.5027613 0.11073244 0.5531172 0.036731154 0.39957136 0.19834265 -1.067018 0.3039211 
319 -0.05074291 -0.40765262 -0.33494955 0.14197406 0.5723673 0.42779362 -0.020322103 -0.12545207 -0.5659957 -0.01799304 0.34831342 -0.048650745 0.070144325 -0.11464793 -0.4287798 0.29610324 
320 0.082735315 -0.09992695 -0.23995239 -0.04712286 0.14222811 -0.28306854 -0.00068924855 -0.14251608 -0.048856065 -0.026530229 0.19597161 0.0061945682 0.13609242 -0.16156214 -0.11501601 0.14487515 
321 -0.16642505 -0.23983607 -0.47878054 0.2634288 -0.1780305 0.073096246 0.25986665 -0.031356625 -0.23781222 -0.28886002 -0.056442272 -0.8623312 0.4832189 0.44131243 -0.27903867 0.39458582 
322 -0.053766277 -0.33850187 -0.25052127 0.4457323 0.06049104 0.10877515 0.44623947 0.25148588 -0.025515258 0.093774974 0.11542982 -0.54747975 -0.06520975 0.8600652 -0.16477628 -0.08465872 
323 0.123615645 -0.34123114 0.05417649 0.19641796 0.026626728 -0.061777405 0.11160844 -0.37079385 0.30593166 0.123707235 0.057914853 -0.63242286 -0.049125727 0.64694923 -0.3464134 0.22054826 
324 -0.6035973 -0.2977863 -0.10999744 0.1993339 0.12640762 0.4272582 -0.6199514 -0.12822059 0.1569009 -0.11546418 -0.42831147 0.091096535 0.4559718 0.19619316 -0.5749134 0.2307502 
325 -0.12130653 0.49055126 0.26939154 -0.41323438 0.17291912 0.038532097 0.118817605 0.30100697 0.36650008 0.23452242 -0.33520478 -0.49663308 -0.26293084 0.11995571 0.38487345 -0.64087814 
326 -0.22672072 0.43847364 0.23214388 -0.3515052 -0.11619808 -0.31499287 0.108111024 0.12962888 -0.0122559 0.20701562 -0.20161863 -0.08332254 -0.10281588 -0.08569932 0.50821865 -0.91475785 
327 0.5295032 0.6035383 -0.5850171 -0.12393008 -0.20448323 -0.7506131 0.25723806 -0.34386092 -0.25380462 0.029401803 0.7474109 -0.4623096 0.42671135 -0.45141432 0.18701327 0.6643312 
328 -0.06395263 0.2932066 -0.11619928 -0.11838429 -0.0046418672 -0.5488591 -0.38626838 -0.3229707 -0.3614995 -0.38537028 0.21083687 -0.6211782 0.49712238 0.29650456 -0.5845066 -0.02793989 
329 -0.08099303 0.78774077 1.096073 -1.4078852 -0.38759056 0.24024662 0.7138967 0.5963505 -0.39706284 0.11079902 0.37958232 0.441266 -1.1629782 -0.9011886 -1.1978912 0.33425012 
330 -0.1105355 0.93197185 0.361132 -0.33712098 -0.0067036105 0.20476034 -0.30088577 0.58710665 -0.11295965 0.13502797 -0.10483426 0.001660306 0.51229495 -0.056225628 0.073215604 -0.5429082 
331 -0.636004 0.20349166 0.103918254 -0.65642226 0.40722728 0.33719873 0.25387308 0.039682396 0.19637309 0.5310553 -0.26504704 -0.4724739 0.20044276 -0.37519062 -0.16373172 -0.34155056 
332 -0.23223013 0.73216355 0.53543425 -0.43498442 -0.2896566 -0.36222777 -0.4594505 0.2753185 0.15108012 -0.10040669 -0.19392148 0.16796032 0.027498573 -0.011465375 -0.15555449 -0.62063676 
333 0.5058315 -0.38729566 0.28722826 0.40468425 -0.06335315 -0.37697273 -0.36112136 -0.2898755 -0.2509335 -0.10666176 0.21073286 0.40849704 -0.38958424 0.3830055 0.14923784 -0.30175835 
334 -0.45308837 -0.15657023 -0.27937576 -0.33354813 0.33308315 -0.5853268 -0.43652067 -0.10780946 0.6517365 -0.1716587 -0.06870031 0.5964068 -0.023994304 -0.2908848 -0.5650895 0.027799241 
335 -0.5765762 0.100979954 -0.19707245 -0.76165605 0.3957725 -0.34124315 0.115634635 -0.41003865 0.2922059 0.2753218 -0.0264806 -0.32215518 -0.08857755 -0.42453358 -0.24397501 -0.40549883 
336 -0.75542486 -0.34956762 -0.2305347 -0.49683473 0.1597986 -0.52921844 -0.2681184 -0.27997592 0.33052686 -0.29433048 -0.41470033 0.81683064 -0.38044018 -0.8541659 -0.39030772 0.090566516 
337 -0.4804352 -0.73536 0.2763397 0.17008805 -0.18404189 0.22980194 0.07684958 -0.5311516 0.26824406 0.07964328 -0.60221446 -0.83949393 -0.17084876 0.6059088 -0.33146736 0.23763141 
338 0.20410316 0.44830787 0.5157916 -0.7871408 -0.17300601 -0.42532387 0.5313799 -0.050034616 0.24665909 0.35225695 0.33890396 -0.20686173 -0.49483863 -0.37644744 -0.49719462 0.25253868 
339 0.92599076 -0.380623 0.23839405 0.11541579 0.25208917 0.22958905 0.3669185 -0.45908 0.74567014 0.89364624 0.06975134 0.17264171 -0.6385294 -0.44770783 0.9591782 0.39704844 
340 -0.10981782 -0.7772825 0.4117474 0.21338624 -0.044862866 0.5793849 -0.046955723 -0.61950433 0.13021402 0.16387582 -0.6713842 -0.78130364 -0.36120513 0.4113252 0.038807653 0.29483753 
341 -0.5294223 -0.84320086 0.3664596 0.19214219 -0.22055295 0.29229358 0.12338445 -0.5320197 0.2284194 0.11217726 -0.6452917 -0.8945674 -0.25479403 0.66031617 -0.38239062 0.22967914 
342 -0.47803047 -0.7503934 0.30819675 0.1508012 -0.25776517 0.08169038 0.18019263 -0.54978055 0.43275622 0.19007328 -0.56693417 -0.83094394 -0.25179598 0.61905277 -0.2932843 0.16407914 
343 0.7893285 0.21932715 -0.42142874 -0.22362435 -0.03668548 -0.5849671 0.9592869 -0.43184057 0.56729627 0.6717896 0.37905997 -0.8641208 -0.022967612 -0.41451034 1.092562 0.28653878 
344 0.35457972 -0.017133756 0.07319868 0.08490412 -0.38206705 -0.18638477 0.26000547 0.08962989 -0.09283185 -0.20085742 0.3225931 -0.41887495 -0.26552773 0.4046555 -0.4206573 0.2425649 
345 -0.40731552 -0.6260437 0.11997278 0.19882245 -0.2908046 0.04603677 0.078629404 -0.4596298 0.24130347 0.023990702 -0.42379814 -0.6324011 -0.16105738 0.55172646 -0.36859757 0.24759096 
346 -0.42547315 -0.5776853 0.12116316 0.16831017 -0.29367274 0.010502668 0.09196042 -0.4266895 0.2500636 0.036611736 -0.391495 -0.6113814 -0.11876019 0.5276717 -0.3704949 0.19590108 
347 0.34029838 -0.26532146 -0.34409386 0.7890761 -0.54963344 0.028106827 -0.05270702 0.03643285 0.16574053 -0.7706867 -0.5955643 0.070627294 -0.26280805 0.1259914 0.8007623 0.70608974 
348 -0.19090979 0.049027234 0.19641691 0.4580776 -0.48377296 0.04654546 -0.09464433 0.36958882 -0.16121076 -0.3655892 -0.5136171 0.5870265 -0.07241583 0.25946963 0.8422824 -0.5498377 
349 -0.2841443 0.2988964 -0.65649295 0.024503719 -0.48036358 -0.63288736 0.51326925 0.9938652 0.2973674 -0.175211 -0.20177384 -0.16813694 0.12599549 0.13905221 -0.26890352 0.15889703 
350 -0.53843766 0.117351495 0.22729602 -0.5210239 -0.13120247 -0.31603175 -0.08411286 -0.26527742 0.28797215 -0.18307197 -0.25816932 0.30542934 -0.27008513 -0.35164395 -0.028063245 -0.3143272 
351 -0.5770162 -0.25575286 -0.41447857 0.059061777 0.62116396 0.856778 -0.11423786 -0.2550711 0.07445556 -0.012994576 -0.57511765 -0.48057103 0.7640701 -0.019699903 0.19547254 0.2713477 
352 -0.36657462 -0.30633894 -0.25632936 -0.2280119 0.46974605 -0.44864234 -0.39230257 -0.2975902 0.79312885 0.017452352 -0.15321983 0.3613839 -0.0617403 -0.07324283 -0.32465756 -0.098724484 
353 -0.81744045 0.21408758 -0.0031082784 -0.440559 0.33504432 0.18196714 -0.28843617 0.13429111 0.41328698 0.26089868 -0.3584951 -0.19108735 0.45364308 0.050877452 -0.60640776 -0.298216 
354 -0.17688285 -0.43304354 0.20564917 0.30473605 -0.33081704 0.14110307 -0.3125072 -0.16123578 -0.17601539 -0.3819448 -0.38336933 0.74565464 -0.39177543 -0.22750565 0.12978849 0.09450176 
355 0.6637485 -0.19884437 0.26267654 -0.0500935 0.20138387 0.12069982 0.21408093 -0.53223246 0.5423603 0.7317868 0.13531463 -0.07590901 -0.47946376 -0.2601864 0.62513506 0.0691663 
356 -0.4586885 0.49616623 0.6412524 -0.19393224 -0.24023913 0.82138646 0.14475533 0.9995161 -0.4723763 0.34933782 -0.45799288 0.48812228 0.060154013 -0.34103617 0.27592653 -0.5955998 
357 -0.3945512 -0.65401447 0.20319656 0.41292703 -0.40367398 0.040587224 -0.65263563 -0.5966799 -0.035892576 -0.65983206 -0.6365135 0.7940481 -0.42942142 -0.14245628 0.11314531 0.095779374 
358 -0.34435803 0.6807696 0.7301488 -0.22263774 -0.6270373 0.24045756 0.056312013 0.8784587 -0.20083477 0.08481805 -0.5521342 0.5531152 -0.09450196 -0.25488994 0.5504508 -0.76099837 
359 -0.22449398 0.6464422 0.59128195 0.47540715 -0.95788085 0.21831858 -0.39669558 1.3275855 -0.35062918 -0.7560844 -1.1753143 0.6857145 0.023713628 0.2084494 0.9081197 -0.42709002 
360 0.3131181 0.51603174 0.22214231 -0.35224092 -0.44928622 -0.17558526 0.52027243 0.4866366 0.42826867 0.32056266 0.20514774 -0.14839853 -0.24725515 -0.20054941 0.011808926 0.12166002 
361 -0.020715995 0.18734092 0.091765724 -0.11784065 -0.5829994 -0.064010896 0.56589377 1.0339515 0.6503135 0.22229698 -0.08881916 0.56475836 -0.45592588 -0.19690889 -0.16797101 0.2400699 
362 0.00026216917 -0.31209287 -0.54738814 0.15722461 0.24941726 -0.2441769 0.2974071 -0.47250533 -0.826668 0.023858367 0.25699946 -0.10894828 0.026133817 -0.21843699 0.55282444 -0.44367164 
363 0.003897245 0.015619248 -0.32347184 0.3167376 -0.40134192 -0.12537843 0.40938693 0.2348862 -1.3318911 -0.20337704 0.5459077 -0.73590523 0.4118799 0.5919857 -0.46663776 -0.36424115 
364 0.36447152 -0.35857484 0.0024609119 0.04749286 0.178712 -0.12123299 0.0046216175 -0.40433067 -0.21846962 -0.058097586 0.5641865 0.11160648 -0.38205835 0.031939056 -0.43023396 0.24939136 
365 0.2659322 -0.6168291 -0.022693612 0.01367802 0.08520331 0.037702516 0.096451044 -0.585319 -1.0478066 -0.35766807 0.5947038 0.46055937 -0.70263815 -0.47753763 -0.43520194 0.41222218 
366 -0.4913302 -0.5959576 0.21099456 0.31944063 -0.28879097 0.041166842 -0.72791713 -0.5778797 0.011930582 -0.6322788 -0.7192614 0.8800876 -0.4176845 -0.21995279 0.16594592 -0.029394502 
367 -0.07592133 0.4360127 0.22071965 -0.0011150836 -0.53367823 0.60544777 0.28000784 0.6502146 0.5162861 0.37414655 -0.37737527 0.6127753 1.0863178 -0.99059856 0.8158032 0.73804915 
368 -0.12812985 0.06995919 -0.42972624 0.14989199 -0.014515452 -0.72319657 -0.13008413 -0.028663747 -0.67112607 -0.10314568 0.5056839 0.2975129 0.5037223 -0.050571576 -0.20135729 -0.5198573 
369 -0.07655724 -0.29958034 -0.3697285 0.25572926 0.4709903 0.545848 -0.07747574 0.040427778 -0.26034537 -0.058913417 0.05418045 -0.13816309 0.36842877 0.077823654 -0.17590445 0.36380404 
370 -0.16197309 -0.3948114 0.054865345 0.33007532 -0.23108481 0.06626204 -0.4053652 -0.33646277 -0.062310632 -0.4185362 -0.40132654 0.442989 -0.24723907 -0.07208766 0.14060745 0.1578036 
371 -0.4362108 -0.20983759 -0.22717401 -0.2633418 0.61974055 0.410482 0.19547938 -0.273808 -0.13751468 0.3867161 0.1223793 -0.14729673 0.2525708 -0.33559275 -0.13776097 -0.08743279 
372 0.52054334 -0.44151354 0.46388698 0.24058422 -0.14540261 0.52751946 -0.23789269 -0.6100682 0.254439 0.20072971 -0.57370496 -0.5266576 -0.45940405 0.11084231 0.5340986 0.402876 
373 -0.16886537 -0.35813773 0.06590258 0.34290177 -0.2677008 0.05560829 -0.41004837 -0.30531234 -0.058829334 -0.4485421 -0.41115516 0.42750683 -0.22246361 -0.04025899 0.14787427 0.12550572 
374 0.27107102 -0.5662673 -0.27095845 0.52514434 0.5664352 0.56286424 -0.030884236 0.0127673 -0.7955208 -0.17372698 0.45680466 -0.098358296 -0.036695313 0.28194058 -0.40324408 0.34330416 
375 -0.07261527 0.071507536 0.2580685 -0.21331583 -0.60385066 -0.8343474 -0.057514675 -0.038865246 0.707098 -0.26510677 -0.1370314 0.18131198 -0.75231063 0.21737842 -0.18109806 -0.255742 
376 0.09566364 0.13860424 -0.061122634 -0.13094464 0.6974317 0.07031572 -0.28097522 -0.06893534 0.80269206 0.4604087 0.22300598 -0.41412404 0.41252935 0.4642031 -0.28220972 -0.20673977 
377 0.18720928 0.16451731 0.38787222 -0.26406446 -0.2415128 -0.1049312 0.35983878 0.19740337 -0.031171218 0.2167382 0.32508576 -0.006821193 -0.51724607 0.05558334 -0.08634108 -0.40920103 
378 0.03934836 0.38653192 0.5675671 -0.84686875 -0.05247011 -0.1507331 0.51120555 0.00091090426 0.1325308 0.39788154 0.3235584 0.011416776 -0.69737154 -0.41992903 -0.37386158 -0.15887792 
379 0.022165157 0.03995248 -0.028492473 -0.12215477 0.651144 0.085565254 -0.23426624 -0.17716691 0.8678231 0.46958032 0.080403015 -0.5273201 0.34726635 0.491732 -0.21706074 -0.17344125 
380 -0.10337263 0.26734006 0.1444896 -0.3353392 -0.39579555 0.14759488 0.59367394 0.0034427047 -0.715381 0.021632992 0.31214145 -0.5916522 -0.21196947 0.048814476 -0.35354257 -0.08715652 
381 0.15716033 -0.19550166 -0.14247859 -0.21441042 -0.2967468 -0.65376955 -0.1053247 -0.4875102 -0.1901232 -0.6066612 0.23137389 0.1638929 -0.5861606 -0.2563006 -0.3651972 0.2973562 
382 -0.05255347 0.112528645 0.17727259 -0.1908235 -0.2816133 0.34618345 0.6795581 0.12897952 -0.47485015 0.23056388 0.109066635 -0.3773101 -0.25319105 -0.0656229 0.1943329 -0.21383834 
383 0.07045756 -0.051816247 0.3541491 -0.36022714 -0.7392604 -0.31200892 0.4386246 0.23105882 0.0693 -0.273818 0.25447947 0.21908554 -1.0235916 -0.09186101 -0.5618889 0.099330366 
384 -0.072780564 0.2039149 0.4637902 -0.38279304 -0.8236318 -0.021291383 0.55295706 0.70577157 0.029274955 -0.19072251 -0.069071725 0.36211067 -0.9062125 -0.22855535 -0.28607526 0.04996947 
385 -0.33175442 0.4607072 0.33497941 -0.26559368 -0.10490534 0.30218577 0.059741035 0.462103 -0.47790864 0.1300735 -0.02697716 0.027882908 0.10935715 -0.051591143 -0.064516336 -0.6235529 
386 -0.1545947 0.34927115 0.43956575 -0.18968433 -0.6482351 0.4545812 0.293097 0.54260087 0.77091914 0.41409263 -0.3394435 0.7332983 0.6869139 -0.9173017 0.5108344 0.66198397 
387 -0.65503246 0.31554884 0.3897848 -0.5823561 -0.0034449622 0.20964697 -0.012950963 0.16744074 -0.1132739 0.03716535 -0.43966562 0.5513001 -0.2031253 -0.677703 0.21582064 -0.49829498 
388 -0.5096122 -0.5821713 0.22645603 0.39898002 -0.42701766 0.061697308 -0.6548889 -0.5032833 0.021142963 -0.6709629 -0.7490243 0.8932994 -0.3940872 -0.14599025 0.23787378 -0.018895695 
389 0.54672384 0.13168995 0.01666727 0.053279698 -0.21414794 -0.37996143 0.1776646 -0.1874229 0.032571275 0.0202635 0.39881164 -0.53308517 -0.22011133 0.41759062 -0.020905424 -0.09028421 
390 0.71027774 0.6489817 0.29656973 -0.07492078 0.22867993 0.2431381 -0.636881 -0.38757366 0.23319156 0.14869942 -0.33538884 -0.61796826 0.089597344 0.027561968 0.7555456 -0.04718673 
391 0.3929766 0.14985894 0.007694077 0.5735487 -0.21004274 -0.22043252 -0.28343567 0.18344057 0.11154556 -0.23379941 -0.45944276 -0.1074342 -0.041316506 0.549122 1.0064253 -0.47178715 
392 0.26621798 0.77015865 0.08161909 -0.3186977 0.12535605 0.027385466 -0.2771118 -0.08707387 0.61416584 0.14470129 -0.098709986 -0.52507764 0.13633308 -0.11128855 0.20806023 0.20535922 
393 0.2737089 -0.4200974 -0.38994226 0.32623595 0.42781284 0.2597046 -0.38467932 -0.32625228 -0.4374056 -0.2988625 0.040841147 -0.07382158 0.038217567 -0.014193596 -0.10109828 0.48447338 
394 -0.13113919 -0.0675618 0.28120333 -0.10379776 -0.3581418 -0.05214589 0.15114382 0.44138986 0.3246825 -0.027718361 -0.25868165 0.6995443 -0.62134886 -0.25155106 0.10405877 -0.08833639 
395 0.021540627 0.57991564 0.06641762 -0.27796504 0.14416331 -0.13372599 -0.53138626 -0.08628382 0.7011666 -0.05134803 -0.29184988 -0.17352416 0.13235417 -0.08452883 0.058504105 0.12879382 
396 0.32544184 0.62448853 -0.6842736 -0.11655776 0.0045117103 -0.51587754 0.114485465 -0.31575924 -0.031004144 0.39840713 0.4221325 -0.3688947 0.2934343 -0.5697341 0.35228878 0.50036377 
397 1.4200445 1.8503907 0.74385095 -0.40979686 0.30219254 0.4216009 -1.5724623 -0.29376668 0.14332052 0.1770388 -0.2557156 -0.47696587 0.13996843 -0.38553748 0.89618766 -0.024012465 
398 1.223239 0.90578276 0.5274724 0.020319369 0.030408505 0.24158026 -1.0785899 -0.30517152 -0.011517849 -0.0009125234 -0.23827465 -0.17412002 -0.12343837 -0.1501393 0.7537979 0.119658485 
399 0.2737089 -0.4200974 -0.38994226 0.32623595 0.42781284 0.2597046 -0.38467932 -0.32625228 -0.4374056 -0.2988625 0.040841147 -0.07382158 0.038217567 -0.014193596 -0.10109828 0.48447338 
400 0.23452306 0.3800178 0.32567903 -0.12352125 -0.42057702 0.0835364 0.41114432 0.25956166 -0.7506979 0.1629866 0.6495314 0.07076517 -0.15252917 -0.07801491 -0.1721434 -0.29698485 
401 0.54961723 -0.47531855 -0.2562992 0.3726986 0.451366 0.059084475 -0.38073444 -0.44142252 -0.56888807 -0.24996024 0.094061196 0.2268914 -0.18977979 -0.18605694 0.28305167 0.21004869 
402 0.32296923 -0.26400375 -0.003225483 0.20356023 0.31172937 0.30906808 -0.083478115 -0.16143772 -0.81652915 -0.055255592 0.22573955 0.33251262 -0.24762487 -0.29029214 0.22209272 -0.029327804 
403 0.54293436 -0.5076378 -0.19706461 0.4378898 0.47690973 0.26830462 -0.37772018 -0.33611736 -0.76048005 -0.2475724 0.0987 0.31614172 -0.24031292 -0.18493553 0.28818348 0.19934824 
404 0.29734066 -0.9319906 -0.046120584 0.5109963 1.142864 1.0147853 -0.09371008 -0.05919598 -1.2483857 -0.0590251 -0.19714421 1.1453168 -0.6202211 -0.93470514 0.98216707 0.077540115 
405 0.15951806 -0.40785357 -0.12485759 0.30744308 0.61410487 0.569493 -0.0052081123 -0.25550765 -0.5036448 0.13923106 -0.09960469 0.09295684 -0.23823065 -0.1468744 0.5849482 -0.12351725 
406 0.50435877 1.0931827 0.34523016 -0.39583427 0.20011348 0.037620686 -0.81041753 0.013650099 0.10935612 0.110406585 0.014405608 -0.20459002 0.20577039 -0.19318357 0.07256196 -0.1565702 
407 -0.12460715 0.02408327 -0.19717443 0.054388966 0.12167794 -0.6319408 -0.5653438 -0.14943998 0.44055077 -0.28929773 0.07877028 0.25598848 0.22938244 0.27163082 -0.3235424 -0.18917948 
408 0.22586502 0.4849606 -0.017171964 0.55107397 -0.05009891 -0.6065324 -0.6836027 0.4819949 0.3503824 -0.21144755 -0.31267473 -0.0071473476 0.3134137 0.96400756 0.6891018 -0.96735746 
409 0.53988093 0.6957781 0.20789105 -0.120680615 0.6104259 0.54205275 -1.1727192 -0.3101986 0.31831202 0.023516607 -0.22167073 -0.06113127 0.21026388 -0.16416262 0.18637799 0.16705288 
410 0.05721288 0.8923178 0.45127928 -0.11846344 0.032514274 0.077641375 -0.72217125 0.39835337 -0.24057807 0.011796227 -0.10885771 0.10504249 0.41415793 0.16639896 0.08765946 -0.76498574 
411 -0.019822553 0.22049347 0.23742077 0.30929542 -0.35918412 -0.018495198 -0.35194823 0.43741217 -0.18385305 -0.3314985 -0.4231751 0.3597371 0.024306249 0.19059385 0.3375004 -0.28115928 
412 1.1903222 0.65148526 0.42429096 0.07152058 0.09256112 0.22432807 -0.9732234 -0.435582 -0.029298471 -0.00059677847 -0.15620427 -0.15894097 -0.19432352 -0.1362396 0.65025973 0.22547345 
413 0.39054924 0.6579652 -0.6222573 -0.11019641 0.03485722 -0.4511121 0.068730615 -0.3436587 -0.0033817696 0.3950619 0.3423533 -0.47412273 0.30683136 -0.5127734 0.4828363 0.42771164 
414 -0.086384185 0.8339884 0.31796944 -0.0840414 -0.12943238 0.23245867 -0.42754737 0.61550045 -0.1350647 -0.08358754 -0.49731568 -0.078293025 0.39048892 0.04684548 0.36826703 -0.42939156 
415 0.38136286 0.4063817 -0.05136019 -0.03190008 0.2282785 -0.37810218 -0.33270591 -0.064627804 -0.47023022 -0.019527096 0.16179697 -0.20211923 -0.49799174 0.27291894 0.2667927 -0.9842247 
416 -0.15713234 0.17685398 0.21469495 0.41318637 -0.53762335 -0.04745805 0.03148694 0.4089268 -0.2790278 -0.2848876 -0.36062482 0.4538269 -0.03450668 0.36910677 0.9103978 -0.81965184 
417 -0.09462802 0.053380176 0.16372319 0.0094315335 0.113027684 0.53865284 0.28663406 0.5023053 -0.61880326 0.07970591 0.3452696 -0.13500938 0.0045260303 0.2240197 -0.59699965 -0.029825415 
418 0.3638234 -0.23597279 -0.26029134 0.43473405 0.19455113 0.5092298 0.14230849 0.62597835 0.30520228 0.0011788625 0.31041822 0.54615587 0.14132887 0.22520609 -0.15156445 0.5964892 
419 -0.19825383 -0.029225346 0.24688378 0.1708996 -0.14935547 -0.27597755 -0.07548856 0.029817475 0.27595147 0.04016591 -0.26540387 0.3239074 -0.19442856 0.40755934 0.49174738 -0.6196082 
420 -0.1357733 -0.057270244 0.37664568 -0.049997233 -0.21159294 0.3197539 0.33941203 0.5883643 -0.11740532 0.19610721 -0.18479343 0.7528803 -0.6140851 -0.31516668 0.26779583 -0.37324056 
421 0.5476592 -0.12953842 -0.24256572 0.38421434 -0.62557214 0.06860755 0.7558947 0.6495346 0.15499654 -0.29976994 -0.14159037 -0.15439434 -0.33234003 0.22427087 0.36594248 0.6975053 
422 -0.3599425 0.13054813 0.5166326 -0.7147106 -0.3868761 0.34767416 0.5362479 0.15014336 -0.13384864 0.06734692 -0.036484398 -0.239826 -0.8387808 -0.2788811 -0.73840094 0.14412102 
423 0.31921166 -0.14381035 0.14209151 0.3031405 -0.020965418 0.81782246 0.34976473 1.0236856 0.22417976 0.26665965 0.22992367 1.0251625 -0.14454636 0.0045912666 0.05232794 0.26354662 
424 0.56915337 0.592627 -0.041215803 -0.1134057 -1.0636419 -0.4941498 1.0421429 1.1523807 0.9642674 0.27185637 0.045819975 0.0077585652 -0.39977273 -0.15377888 0.403816 0.45191908 
425 0.14344345 0.32261106 -0.4486838 0.009860374 -0.5536567 -0.26210856 0.94209844 1.0215791 0.17603998 0.15537012 0.23475862 -0.094577 0.2213683 0.025178634 0.042052075 0.22909383 
426 0.39748412 -0.028240638 -0.03490073 0.48625988 -0.6077416 -0.010765135 0.69912714 0.7931173 -0.14276351 -0.0775801 -0.10851823 0.120223165 -0.28186232 0.28581047 0.6464572 -0.07315492 
427 -0.0051951148 0.34040752 0.2878988 -0.18584062 -0.5907059 0.097684704 0.5002402 0.6459875 0.18797605 0.1411472 -0.24822469 0.065044045 -0.2809356 -0.154608 0.299457 -0.08588086 
428 0.042526096 -0.39656916 0.06496668 0.52282786 0.19691846 0.56987464 -0.09455327 0.4826795 -0.25514373 0.1398223 0.24357319 0.7124108 0.032054707 0.176088 -0.4048803 0.17281573 
429 0.051821996 -0.08086207 -0.044028714 0.49896196 -0.36615145 -0.25318584 -0.12759443 0.0017695185 0.017540522 -0.4045237 -0.22816089 0.17437851 -0.0053084157 0.47371957 0.58589536 -0.28640044 
430 0.12571079 0.046214573 -0.019463252 0.3519988 0.17316324 0.5120523 -0.12426085 0.30056086 -0.81570053 -0.07523478 0.58320063 -0.4656965 0.33691615 0.56635714 -0.82685006 0.05163516 
431 0.4552889 0.14573434 -0.01223206 0.055377 -0.8364521 -0.0652002 0.77957803 0.4400264 -0.29260078 -0.27567524 0.19995077 -0.2735329 -0.2725216 0.2027927 0.21347846 0.24814357 
432 -0.28925523 0.51776 0.09748007 -0.40348533 0.50117195 0.2747024 -0.16851193 0.19350295 0.39492726 0.20902348 -0.1632322 -0.8704727 0.47393665 0.38229412 -0.2498348 -0.33039996 
433 -0.2175188 -0.27113706 0.19928029 0.1220215 -0.04243587 0.33184814 -0.5020279 -0.2597365 0.60316616 0.3983222 0.36691737 0.30816376 0.726066 0.2458053 -0.20870131 -0.536023 
434 -0.17854035 -0.06825808 0.27580753 0.82140726 -0.92441565 -0.30611613 -0.23999968 0.29114646 -0.13902308 -0.7056323 -0.61820525 0.85557604 -0.23074725 0.64693445 1.1594218 -0.8989269 
435 -0.018337194 -0.23163688 -0.06440956 0.6272916 -0.426353 0.16810349 -0.19475627 0.17238551 0.054023445 -0.46417093 -0.6852963 0.39283735 -0.22863923 -0.002628005 0.6978599 0.22617835 
436 0.2427997 -0.10964306 0.01357452 0.58955467 -0.49890822 -0.38977817 -0.16066587 -0.0005608319 -0.019569904 -0.45155942 -0.1340886 0.2513629 -0.123087816 0.5342468 0.58218604 -0.2927769 
437 0.18049338 -0.14300689 -0.21463019 0.4350714 -0.2758985 -0.37914973 0.029474054 -0.082369335 0.15185955 -0.3628568 -0.05572728 -0.1046186 -0.0023312941 0.45725662 0.37988067 0.01615547 
438 0.04970899 0.14894618 0.21193324 -0.18257876 0.17000154 0.8017808 -0.29136807 -0.19783533 -0.53619516 -0.51552176 -0.45207077 -0.618125 0.20215535 -0.14842634 -0.0644193 0.70404935 
439 0.34029838 -0.26532146 -0.34409386 0.7890761 -0.54963344 0.028106827 -0.05270702 0.03643285 0.16574053 -0.7706867 -0.5955643 0.070627294 -0.26280805 0.1259914 0.8007623 0.70608974 
440 -0.0066513782 -0.11622034 0.09897481 0.64063895 -0.5400908 -0.32011017 -0.091621466 0.13090008 0.061201535 -0.4590021 -0.35875505 0.4557429 -0.12612621 0.6140634 0.8602293 -0.51152873 
441 -0.03865472 -0.18761188 -0.013911147 0.41568753 -0.30804414 0.1356484 -0.107100606 0.14156711 -0.04246396 -0.32237458 -0.46392727 0.3409351 -0.18165115 -0.015922677 0.43315333 0.15643415 
442 -0.118370965 -0.19411178 -0.027161622 0.5681585 -0.4123326 0.0829641 -0.19941585 0.050295837 -0.100980215 -0.58468235 -0.5604328 0.39064863 -0.05751784 0.23048629 0.7384427 -0.08173828 
443 -0.24083224 -0.2558634 -0.15111147 0.059128053 0.16585223 0.3733839 0.0008429624 0.20009795 0.1311946 0.26748106 0.16267823 0.58691 0.48232082 -0.4604487 -0.50924027 0.65851194 
444 0.20377 -0.05610358 -0.21545452 0.12932369 -0.0016861614 -0.22956479 -0.06838344 -0.11419225 -0.12788649 -0.154113 0.21500744 -0.18504481 0.15561673 0.13425806 -0.13018757 0.11037362 
445 -0.13744576 0.040078796 0.20302613 -0.23078749 -0.4956246 -0.16639477 0.21187171 0.36469296 -0.027592719 -0.43048257 0.07638784 -0.26803055 -0.23949963 0.20704786 -0.8932342 0.48979893 
446 -0.8312343 0.4301041 0.20648059 -0.42479187 -0.2902118 -0.5561102 -0.6509723 0.25126198 0.6769537 -0.52767044 -0.898839 0.47861993 -0.06402347 -0.14071195 0.07406656 -0.56805 
447 0.09313323 -0.5546174 -0.11190626 0.7926103 0.36172122 0.5111122 -0.1979157 0.5919668 0.12420935 0.23634115 0.39255962 0.9049647 0.17824744 0.49139768 -0.6554152 0.3058902 
448 -0.06459054 -0.49111366 -0.12252662 0.7823546 0.33561462 0.61462843 -0.16613203 0.7203793 0.104841985 0.26450482 0.24605538 1.0251714 0.24148521 0.36140007 -0.53666866 0.26095322 
449 -0.36206186 -0.2899557 -0.3770967 0.042475015 -0.562238 -1.0109817 -0.3181077 -0.7816811 0.33526537 -0.8007874 0.16578835 0.20795411 -0.05786821 0.081224434 -0.46677393 0.20367625 
450 -0.32078433 -0.20241725 -0.3917741 -0.032057155 -0.39171386 -0.94183946 -0.2544659 -0.6433715 0.27790022 -0.62528497 0.20067483 0.1157823 0.026583254 0.08460427 -0.38973883 0.01732154 
451 0.42079282 -0.33902016 -0.037786983 0.33599162 0.4804787 0.38631213 -0.10807085 -0.20640537 -0.3396045 0.0073580444 -0.057346497 -0.008826725 -0.19570619 -0.048588622 0.52604973 0.08908409 
452 0.24821423 -0.17842709 0.13852377 0.26187256 0.2617617 0.63785154 -0.14013271 0.49489424 -1.0071573 -0.50279945 0.066516876 0.5404855 -0.135675 -0.25010732 -0.13864999 0.52463406 
453 0.07562902 0.016560707 0.3943588 0.040696792 0.09289681 -0.034837753 -0.2538014 -0.11248687 0.11321607 0.20178193 0.097745076 0.30980653 0.23306191 0.43170875 0.12454702 -0.52969766 
454 -0.29193288 -0.32372892 -0.10255162 0.13868941 -0.5124312 -0.5242877 -0.31573266 -0.40496725 0.28696644 -0.68480957 -0.15141147 0.64007425 -0.24432549 -0.16812846 -0.12674268 0.2886151 
455 -0.9144194 0.53080887 0.2388161 -0.45452762 -0.25662774 -0.3509468 -0.6165062 0.33458197 0.62951326 -0.4730546 -1.0026774 0.36900827 0.028893493 -0.13632123 0.16738454 -0.6234061 
456 -0.8554134 0.33898824 0.26487464 -0.54409754 -0.24594417 -0.43879628 -0.46439818 0.28179595 0.49492544 -0.37148175 -0.63529015 0.57178646 -0.18821353 -0.23052925 -0.23733221 -0.56545633 
457 -0.16810559 -0.42355293 -0.2678329 0.09764947 -0.17799288 -0.73203105 -0.3540635 -0.81769526 0.18514594 -0.1464394 -0.036900036 -0.021032557 0.320385 0.030120732 -0.12202875 -0.09787433 
458 -0.7626869 0.44894183 -1.1196493 -0.041608054 -0.44821048 -0.7718065 0.5933936 1.5231658 0.431441 -0.21224499 -0.43043655 -0.22246353 0.46116692 0.1278882 -0.56062245 0.1570721 
459 -0.37741014 0.3432022 -0.63982177 5.3429976e-06 -0.48061097 -0.6753834 0.40247154 1.0134801 0.35415742 -0.2302035 -0.28752854 -0.10675785 0.15521565 0.13234198 -0.2858548 0.10559109 
460 -0.60954607 0.37065297 -0.019686256 -0.48485652 0.040587865 -0.017247789 0.102920264 0.64155686 0.6400944 0.32648543 -0.19687124 0.14436439 0.2475804 -0.071317054 -0.48377115 -0.26214188 
461 -0.40889788 0.2583446 -0.16817485 -0.4141618 0.48192614 0.12740451 -0.008552514 -0.070794605 0.06793931 0.2635084 -0.19654986 -0.35085994 0.56395507 -0.3540405 0.16090481 -0.19761279 
462 0.05397032 0.14681906 -0.10052984 -0.42246246 -0.0021862537 -0.36654297 -0.10377312 -0.31866756 -0.40129882 -0.3749576 0.10199383 0.106741555 -0.34952497 -0.47705987 -0.20378254 0.19532077 
463 -0.29620057 0.06029308 -0.21535143 -0.45516452 0.2040503 -0.24422586 -0.26328304 -0.42362702 -0.48216605 -0.47202817 -0.14868595 0.42025924 -0.40665004 -0.78873813 0.08000669 0.016900737 
464 -0.3815571 0.3015941 -0.7353514 0.00612148 -0.37021807 -0.55328155 0.47225276 1.0349092 0.40532678 -0.12391521 -0.22205558 -0.17643498 0.26301965 0.17381923 -0.3331811 0.13949138 
465 -0.60172576 0.3979555 -0.7434584 -0.012473167 -0.45370424 -0.7387399 0.21857685 1.195784 0.4552099 -0.32397464 -0.4798271 0.15369529 0.23647188 0.022283822 -0.36231607 0.11610115 
466 -0.39890385 0.13991295 0.15094067 -0.37500575 -0.39268607 -0.913345 -0.39194632 -0.2685869 0.56976026 -0.43311816 -0.18866229 0.278853 -0.40004587 0.07046481 -0.30082154 -0.43005243 
467 -0.117280066 -0.30584955 0.29011917 0.37109494 0.07525137 -0.4356239 -0.086465046 -0.21347392 0.58271825 0.1796681 -0.31479567 0.22273411 -0.30704874 0.7369561 0.64497197 -0.63850427 
468 0.47532126 0.017605126 -0.25420696 -0.012122031 -0.5006547 -0.5688432 0.597981 0.25490272 0.5322962 -0.14692906 0.24518988 -0.10445718 -0.32383192 -0.045154702 0.052078225 0.5866394 
469 -0.29285812 -0.5022614 0.0063409824 0.13400891 0.14875719 0.4668177 -0.066761605 -0.27357227 -0.3231894 -0.15333518 -0.40652287 0.58268064 -0.352557 -0.5197001 0.37287566 0.1074511 
470 -0.33971995 -0.23128246 0.093545884 0.32541585 -0.17484719 0.4062358 -0.31707233 -0.019498628 -0.16881838 -0.42600945 -0.7078783 0.5009236 -0.09634115 -0.16789791 0.5110587 0.041495137 
471 0.173644 -0.30850786 -0.1339659 0.81082547 -0.4946088 -0.25779644 -0.24010925 -0.014003109 0.05810214 -0.6185642 -0.45441902 0.35675898 -0.18537879 0.35463095 0.7281059 0.09983028 
472 -0.07352612 -0.5316824 -0.11205685 0.012638113 0.28758377 0.293419 -0.0063963234 -0.5346236 -0.47301596 -0.09920964 -0.043021075 0.22464266 -0.30052584 -0.4530966 0.08393867 0.21184738 
473 0.11197845 -0.14479451 -0.012815075 0.8180452 -0.6465815 -0.42302883 -0.15894693 0.045271654 -0.007190559 -0.6083097 -0.31852263 0.38157114 -0.078729644 0.76859826 0.9660289 -0.5462699 
474 0.13207972 -0.11290838 -0.07003358 0.40115106 -0.3814684 0.3720693 0.022612981 0.18454435 0.3071616 0.011478525 -0.4442393 0.524094 0.37744826 -0.53905773 0.83681 0.55501646 
475 0.34029838 -0.26532146 -0.34409386 0.7890761 -0.54963344 0.028106827 -0.05270702 0.03643285 0.16574053 -0.7706867 -0.5955643 0.070627294 -0.26280805 0.1259914 0.8007623 0.70608974 
476 -0.17733623 0.0868447 -0.5785903 0.038968388 -0.24834058 -0.51586926 0.1593211 -0.21453205 -0.2098515 -0.3260965 0.25345132 -0.25289038 0.13167793 -0.019905953 0.031995885 0.100861564 
477 0.22017948 -0.33470225 -0.00939473 0.3873855 0.30311817 0.34731525 -0.01130673 -0.07888736 -0.39027587 0.007455379 -0.18765552 0.21715818 -0.37340188 0.013429275 0.6226789 -0.21724725 
478 -0.03621891 0.4310246 -0.025395699 0.3121026 -0.40675828 -0.16270275 -0.017861955 0.7071439 0.044078577 -0.7431867 -0.14834367 -0.36136544 0.4604277 0.61543757 -0.37106767 0.41462564 
479 -0.357988 -0.17689155 -0.042240985 0.14519122 0.086357854 0.6855719 0.04518709 0.3433709 0.442636 0.5168074 -0.029522348 0.5984599 0.89881474 -0.50990736 -0.1723993 0.64523655 
480 -0.028829224 -0.17817259 0.66407007 0.18806528 -0.34751314 -0.0007034126 -0.31496805 0.3114644 -0.56504273 -0.45958894 0.35788733 0.46105582 -0.21896836 0.4176607 -1.1085984 0.19426943 
481 -0.08480824 -0.056186546 -0.5529664 -0.049738362 0.3667253 -0.63372606 -0.5628371 -0.3587392 -0.25316265 -0.4001097 0.0032351315 0.24633417 0.037471134 -0.36359572 -0.017101198 -0.07989451 
482 0.5069373 -0.7303407 -0.025880631 0.26608598 0.7404027 0.04371455 -0.034084857 -0.5372893 -0.25722873 0.14604613 -0.045858864 0.37156802 -0.529358 -0.47954416 0.7241639 0.060430672 
483 -0.2693439 -0.15226081 0.6057838 0.16383377 -0.17468293 0.07497647 -0.45763692 0.35863495 -0.5693634 -0.4842728 0.25635606 0.5824598 -0.019629162 0.336604 -1.1549468 0.1520224 
484 -0.17560937 -0.23218852 -0.46961564 -0.18985996 0.34607178 -0.73553777 -0.40831754 -0.4036022 0.269375 -0.19040553 0.17585894 0.3664856 0.051815443 -0.3406834 -0.4295825 0.09024023 
485 -0.026166264 -0.17860179 0.6235802 0.2792232 -0.30323356 -0.065201126 -0.47846293 0.2614568 -0.6233655 -0.56301564 0.3519867 0.43484238 -0.044370648 0.49236146 -1.1540141 0.23503138 
486 -0.10270937 -0.13065688 0.6114788 0.2242425 -0.29723608 -0.07994563 -0.4953117 0.2740273 -0.5404462 -0.5469389 0.2566681 0.44886643 -0.034182064 0.44774857 -1.0761589 0.16120395 
487 0.13164096 0.2777469 0.18766434 -0.069046624 -0.44612792 0.071753375 0.35635585 0.5735122 0.18774146 0.12064973 -0.18768242 0.2763671 -0.13349237 -0.32084468 0.35719064 0.173638 
488 0.060137272 -0.22576194 0.004512757 -0.23778415 0.12138871 0.5873336 0.7106248 0.6322808 0.23318256 0.6658747 0.043157138 0.91908556 -0.4850819 -1.0599527 0.11450416 0.49179378 
489 0.3549826 0.09988164 -0.3527766 0.22564352 -0.42516297 -0.5513486 0.19435193 -0.04830953 0.59009594 -0.14374216 0.40657815 0.078125 0.91379696 -0.1502972 0.054636832 1.0156806 
490 -0.18378858 0.55989003 0.3794014 -0.482763 -0.14197822 -0.15458815 -0.02056264 0.10988259 -0.25885627 -0.068899624 0.13420919 0.0118557215 -0.17162699 0.030363642 -0.2155796 -0.6189184 
491 0.29089022 -0.054125212 -0.3554049 0.29692563 -0.17478156 -0.2980104 0.04710995 -0.19387075 0.26094836 -0.100385964 0.28935027 -0.121925 0.49256396 0.16077504 0.03842123 0.47163874 
492 -0.49851716 -0.41531387 -0.15497349 -0.59185594 0.28210694 -0.037608974 0.5755107 -0.24204376 -0.13304807 0.2715637 -0.02112285 0.15900405 -0.42385978 -0.86189187 -0.29826617 0.079260364 
493 -0.5560729 -0.28412166 -0.41788822 -0.13217822 -0.4150342 -1.1378475 -0.3612939 -0.74583006 0.5233104 -0.71100444 0.09983911 0.2948455 -0.037509516 0.0022757482 -0.509188 0.00438576 
494 -0.13602449 -0.2519246 -0.33404022 0.13349125 -0.23000139 -0.62586045 -0.26381996 -0.46826884 0.21983282 -0.5094708 0.19210087 0.22869322 -0.0078113023 0.074010305 -0.3156914 0.20180151 
495 -0.08175012 -0.066089116 -0.5549128 0.17285681 0.4665994 0.24706411 -0.037070885 0.1697381 0.046818737 0.016675808 0.23290865 -0.1761573 0.72326994 0.16912591 -0.19835365 0.21713266 
496 -0.59021676 -0.290463 0.08289964 -0.15336952 0.40836784 0.45874298 0.05329233 -0.00032242388 0.12836525 0.20554283 -0.29806906 0.71878123 -0.4502154 -0.44266433 0.15950742 -0.34321713 
497 -0.76845837 0.045182057 -0.12838674 -0.6546067 0.20989569 -0.5883858 -0.4113052 -0.30008975 0.45387086 -0.18432084 -0.14061856 0.2712622 0.19969632 -0.36455068 -0.65685123 -0.26564112 
498 0.37905258 -0.033049427 -0.1433799 0.11646388 -0.6436386 -0.118707106 0.62393177 0.43082473 -0.20312363 -0.2834055 0.2934745 -0.0867227 -0.21195517 0.05390168 -0.16986868 0.5856972 
499 0.010227075 -0.13061345 0.16107976 0.15561514 -0.4230754 0.23480578 0.43445808 0.8195921 -0.13468891 0.082409084 -0.16687298 0.9887381 -0.38945314 -0.48467124 0.25890502 0.110953934 
500 0.0553489 0.21306461 0.30430478 -0.2423001 -0.7251423 -0.14693096 0.41870245 0.5739123 0.08412264 -0.14641467 0.037618514 0.28874266 -0.62181896 -0.1718466 -0.18084398 0.05792092 
501 0.27073467 0.1882157 -0.11240711 -0.0034916624 -0.517191 0.0329069 0.5976102 0.51745266 0.4093146 0.13214532 -0.02441981 -0.037965316 0.059429247 -0.21868224 0.2676588 0.53850174 
502 0.41327676 0.17272264 -0.09658472 0.18444464 -0.6305213 -0.13772501 0.80494595 0.79509765 0.34812284 0.15174381 0.08560552 -0.0021771584 -0.035455354 0.046881422 0.31725243 0.39828947 
503 0.026887983 0.19084582 0.01924698 0.059390552 -0.30557 0.16400136 0.22040573 0.533657 0.37520942 0.12292396 -0.268069 0.3079329 0.15166575 -0.25941458 0.40535522 0.24232751 
504 0.32952535 -0.1308187 0.21595125 -0.25393903 -1.1805754 0.24666642 1.1709356 0.5215975 -0.21226552 -0.46364182 -0.11895716 -0.46558183 -1.2672724 0.009353189 -0.26058227 0.89004576 
505 -0.29803947 0.2949959 0.4934733 -0.047537103 -0.3591241 0.14117423 -0.011815675 0.53008556 0.049093723 0.06342988 -0.5782645 0.2217182 -0.16671267 -0.00063945353 0.46022788 -0.5602933 
506 1.0448021 -0.39385408 0.14420854 -0.09209524 0.082670525 0.18764558 0.7343529 -0.8018319 0.59856826 0.910638 0.12579083 -0.3979459 -0.85954547 -0.64491934 0.98415 0.73708624 
507 0.02004911 0.67495304 0.19876713 -0.13585496 -0.2799771 -0.7548914 -0.6423966 0.10259991 0.080136195 -0.6104435 -0.15758246 -0.14463302 0.11655517 0.38627297 -0.17967884 -0.42003098 
508 0.55729187 0.41752547 -0.40764374 -0.026649298 -0.032549664 -0.05179817 0.34158263 0.0069011133 0.60991466 0.4799731 0.3407569 -0.21161547 0.63128287 -0.5414965 0.42384478 0.8269308 
509 0.44513667 0.5268091 0.1597006 0.024450716 -0.72738326 -0.25945783 0.43131268 0.33402008 0.33509937 0.04637221 0.05612502 -0.2501319 0.22748052 -0.20606491 0.17040612 0.7982759 
510 0.1459362 0.072900444 0.3518111 0.015847236 -0.1958561 -0.8884032 -0.6239764 -0.27662742 -0.061800413 -0.33638585 0.1308541 0.5031205 -0.2531001 0.27777395 -0.023393983 -0.7201895 
511 -0.21006548 0.14526129 0.07632233 0.02547943 -0.25633666 0.6615767 0.15177341 0.33194283 1.1158957 0.6460458 -0.3479309 0.6331023 1.17144 -0.87076026 0.5223466 0.94767267 
512 -0.5489744 -0.13985197 -0.17036846 -0.43904996 0.1167841 -0.68710697 -0.3444474 -0.3950979 0.6174411 -0.19606942 -0.12504524 0.23248884 0.09399878 -0.20586574 -0.49467537 -0.15018941 
513 -0.48454207 -0.11553234 0.32087904 -0.057559866 -0.024257721 0.40458298 -0.42268032 -0.092243046 0.59964204 0.3887532 0.113731645 0.34528348 0.70602304 0.15167695 -0.18984106 -0.6143545 
514 0.6206536 -0.1216592 0.32138643 -0.14475977 0.37033218 0.59687465 0.390021 -0.5192514 0.50264597 1.0406944 -0.11618866 -0.15267104 -0.38271517 -0.6511024 1.1143225 0.14503019 
515 0.23501083 -0.07784483 0.2816019 -0.26348814 0.12382588 0.15583618 0.3921038 -0.21158704 0.65218365 0.7255029 -0.056737237 0.031542197 -0.466096 -0.39516148 0.4952042 0.0035190731 
516 0.5288707 0.51303357 -0.26032466 -0.1643886 -0.09041472 -0.2788132 0.12576377 -0.28790498 0.34403837 0.24808791 0.16652158 -0.580455 0.38026312 -0.36715397 0.5130973 0.45512083 
517 0.32410625 -0.210511 0.008199079 0.01559524 0.23561452 -0.18016937 0.17730127 -0.09008544 0.36395484 0.3234642 0.56657946 0.031341515 -0.2155554 0.28892565 -0.30218565 -0.08583824 
518 0.6437103 -0.43742606 0.4409467 0.016118456 0.42043918 -0.09439142 0.38676435 0.07985056 0.8903488 0.9549948 1.2019746 0.541757 -0.8056399 0.648917 -0.5579247 -0.61813253 
519 0.032426972 0.3146671 0.11755413 -0.44791576 0.6460972 0.15602446 0.112449594 0.08649194 1.0107107 0.79872286 0.30907494 -0.5659769 0.08461404 0.3752024 -0.35242352 -0.34611252 
520 0.2225884 -0.28604716 0.18258776 -0.024214502 0.2943683 -0.03883639 0.18502593 0.0070258956 0.49991596 0.50020874 0.5850182 0.35335603 -0.42844108 0.2664583 -0.33447134 -0.33182633 
521 0.032289106 -0.467175 -0.07455409 -0.1587059 -0.061600585 -0.78582305 -0.22852577 -0.38661623 0.6908444 -0.27358487 -0.20134993 0.6727396 -0.82313126 -0.3775826 -0.0792979 0.2235937 
522 0.075047374 -0.3217558 -0.04632084 -0.18767677 -0.087018795 -0.98987234 -0.32092172 -0.42751297 0.5356349 -0.32992584 -0.0130895 0.5435923 -0.67926776 -0.21359584 -0.21089338 0.020471878 
523 -0.077449016 -0.013948094 0.5231312 -0.1767172 -0.17875703 0.6819768 0.28081396 0.45826656 -1.0571973 -0.15187235 0.22699921 0.4885956 -0.45878756 -0.40394583 -0.5131012 0.21908087 
524 0.03264802 -0.1173587 -0.029887784 -0.073207445 -0.6964468 -0.30123138 0.06310789 -0.124457106 -0.89083964 -0.7587722 0.24268162 0.16059068 -0.4541686 -0.16191232 -0.5114845 0.357528 
525 0.37991026 -0.34326637 -0.067876354 -0.027712915 0.09709362 -0.25241607 0.03787858 -0.5419286 -0.70025474 -0.2250914 0.8804452 0.18397851 -0.4245381 -0.15659317 -0.59656173 0.24059027 
526 0.08113302 -0.4795316 -0.04036875 -0.12756616 -0.07520208 -0.029106984 0.3487988 -0.3359485 -0.96604145 -0.32259023 0.535115 0.2786984 -0.6696024 -0.47428173 -0.5784513 0.42698753 
527 -0.013917286 0.41655284 -0.12971246 -0.24152234 -0.23731847 -0.86776286 -0.18598948 0.07366996 0.6819125 -0.6572658 -0.21148938 -0.38204914 -0.21479562 0.3613962 -0.3231631 0.10017137 
528 0.4558338 0.78513694 0.7141057 -0.3019915 -0.28853762 -0.25478277 -0.24213856 0.11415607 0.20258 -0.25206393 0.12947327 -0.23214403 0.055362564 0.13045356 -0.25906193 0.22019981 
529 0.5664268 -0.4241541 0.5814059 -0.11657709 0.25474742 -0.044274718 0.5092088 0.16369343 0.81503236 0.88492924 1.1362768 0.6093768 -1.0737022 0.5233525 -0.6573635 -0.5705371 
530 -0.21344537 0.30384076 0.12074323 -0.06387449 0.3118038 -0.013597082 -0.96113455 -0.12508987 0.49706066 -0.19608785 -0.43282688 0.27822325 0.23461506 0.09166174 -0.05798251 -0.21038552 
531 -0.28893661 0.24002522 -0.04093474 -0.46790576 0.73197985 0.4127878 0.13853157 -0.32693347 0.63846517 0.53726906 -0.46632427 -1.0512207 0.2468741 0.076749995 0.41762757 -0.23352285 
532 -0.12634696 0.05358299 0.030155718 -0.4376077 0.85174924 -0.4983666 -0.31547016 -0.5894264 -0.007841315 0.05336787 -0.15133183 -0.45156816 0.12846051 -0.19705504 0.24834481 -0.4546497 
533 0.33775866 0.20582594 -0.03408919 0.70841414 -0.16379516 -0.52751523 -0.49093825 0.3746302 0.2695707 -0.25202805 -0.3272267 0.030621616 0.09966387 0.93145585 0.7990182 -0.77218974 
534 0.5354157 0.7370112 0.21935885 -0.13606665 0.6937709 0.6340476 -1.2803631 -0.32340392 0.36999744 0.040073235 -0.2638915 -0.048137397 0.2593038 -0.18213739 0.18245214 0.182709 
535 1.3490142 1.2487259 0.61126465 -0.047062874 0.06893922 0.27571914 -1.3154604 -0.26532757 -0.013888864 -0.023187688 -0.2820979 -0.3230911 0.04965862 -0.117225796 0.8248446 0.052957527 
536 -0.23575735 -0.074552834 -0.043426484 -0.11656417 0.42749527 -0.39783543 -0.68126875 -0.46584213 0.7370261 -0.05330176 -0.20189181 0.038300343 0.2055619 0.2570138 -0.23327568 -0.19948496 
537 0.9513208 -0.2231932 0.8627426 -0.48189542 -0.2521027 -0.33800188 1.110158 -0.026819158 0.67994136 0.9206598 1.4056 -0.18475741 -1.7510139 0.6251329 -0.67788184 -0.59909546 
