2405 128
1383 0.08117548 -0.048681248 -0.0010979755 -0.0004055613 0.10336458 -0.032152522 0.109672606 0.0764696 0.038969457 0.111386806 0.110866085 -0.046733547 -0.004025034 -0.036757827 0.033214264 0.12600322 -0.013493444 -0.06656976 0.025419626 0.008357974 0.10659841 -0.010942187 0.081263594 0.048715115 -0.018286958 -0.017304191 0.025719658 -0.06682509 0.028221212 0.09358281 -0.06753894 0.06519989 0.10561316 0.071228206 0.025979597 0.13748458 0.07164752 0.015962483 0.01706157 -0.0073696435 0.0034201404 0.030968133 -0.0866187 0.028187841 -0.017407717 0.014874467 -0.041698515 -0.015437245 -0.029818065 -0.035739347 -0.06796642 -0.03486854 -0.02840217 -0.010861258 0.01926836 0.044382468 0.045954272 -0.01586975 -0.0059214174 -0.029805033 0.031485423 -0.07698801 -0.084793456 -0.015713584 -0.0054753223 -0.14508115 -0.15544608 -0.15853949 -0.19765136 0.21266504 -0.1754111 -0.08612012 -0.22243126 -0.08770217 -0.15371813 0.03539036 0.08825377 0.10558905 0.10933092 0.1359379 -0.092519596 0.11592198 -0.17486969 0.11983501 -0.1257566 -0.15283887 0.07106864 0.04030062 -0.029232172 0.08380664 0.0027899065 -0.07699911 0.15303665 0.06258636 0.14737788 -0.023942746 -0.044733424 0.09745844 -0.1333805 0.02576148 -0.07717051 -0.10769691 -0.11823506 0.090240814 -0.100972906 -0.14015391 -0.1819715 -0.123497486 -0.033339523 -0.1629622 -0.07864584 -0.12731884 0.18899189 0.045232814 -0.091008104 0.042107765 0.030971726 -0.09042346 -0.1674081 0.15483522 0.08689525 -0.031697918 -0.10541412 0.20932992 0.10304045 0.039957337 -0.06844856 -0.07478613
756 0.07458833 0.013689645 -0.08190145 -0.07210226 -0.06037927 -0.039284572 -0.005589892 0.084598966 0.042266507 0.074583486 0.0005560728 -0.06563194 0.018587744 0.018730734 0.030401824 0.008952604 -0.017544197 -0.06167973 -0.00810797 0.073066406 0.056758557 -0.021524878 -0.023049518 -0.11999678 0.00046719468 -0.07150436 -0.059523903 0.122059576 0.0015831458 -0.09058612 0.12263138 0.04335425 -0.024802065 0.026095863 0.015050514 0.021337504 -0.030218111 0.021694416 0.012011662 -0.025835846 -0.01489344 0.10937297 0.13497792 -0.006927526 0.08503417 -0.031091435 -0.0076430053 0.007885033 -0.013519472 -0.017491804 0.07976421 0.0025272416 0.03687453 -0.017301094 -0.033792082 -0.055599082 0.05632257 -0.09971479 -0.014000683 0.053582937 -0.055080425 0.08428809 0.14801466 0.020211767 -0.009811195 0.0068576345 -0.115889244 -0.08816162 -0.050981987 0.081914686 -0.07429423 -0.07607901 -0.093081236 -0.10859643 -0.123175025 0.0574012 0.06759886 0.09362306 -0.0016308565 0.078353524 -0.022849875 0.043039594 -0.034753386 -0.019912452 -0.08312656 -0.11905988 -0.016885085 0.056721043 -0.019252535 0.046831354 0.004168616 0.024221217 0.12893273 0.045348715 0.062364325 0.078453735 -0.09882355 0.1123561 -0.11297534 0.036583904 -0.048297565 -0.0620976 -0.00593699 0.11714877 -0.06276908 -0.14461413 -0.013313681 -0.064150885 -0.095388055 -0.09355379 0.022363994 -0.047424935 0.031009272 0.09336383 -0.14968197 0.13000943 0.027241645 -0.15736727 -0.14214498 0.042585164 0.070055574 -0.032879546 -0.063585825 0.04063754 0.08538258 0.06432625 0.0020014276 -0.053126015
1514 0.012402967 0.039298106 -0.018066857 -0.0052916454 0.046870954 -0.08834922 0.0047365944 -0.08492834 0.024714055 0.11710545 -0.11955287 0.0634462 -0.12509823 -0.012212856 0.032429077 -0.055395003 -0.03542136 -0.07651827 0.09171423 0.08621573 -0.053126987 0.041456632 -0.018006267 -0.0025500397 -0.08642997 -0.01143142 -0.06357646 -0.07325359 -0.0042598387 -0.10492956 -0.05109898 -0.019007465 0.050739672 -0.060557388 -0.07432034 0.049698405 -0.049378976 -0.026259517 -0.10116942 -0.0061463104 -0.007421336 -0.012733121 0.08477414 -0.027141066 0.038773112 -0.06112526 0.044027556 0.03392706 0.0543056 0.08397683 -0.07069187 -0.0013794269 -0.049422827 0.021293052 0.072592236 -0.12264992 0.030925438 -0.023029214 -0.06623681 0.005786258 0.0010415606 -0.046551947 0.0037445656 -0.010655921 -0.07444872 -0.11315848 -0.0352795 -0.15970294 -0.10367546 0.12730847 -0.06439486 -0.14711995 -0.16563651 -0.10718545 -0.07173739 0.0515105 0.1376381 0.09282046 -0.013409285 0.089767165 0.017167935 0.0025045613 -0.08498348 0.03868537 -0.10848291 -0.110525474 0.041444793 0.029037338 -0.16254328 0.18267186 -0.02088518 -0.14101353 0.055524785 0.16946311 -0.02398505 0.16816616 0.013697843 0.11026089 -0.060335744 0.08102859 -0.067379974 -0.054217227 -0.08148544 0.13772383 -0.005449393 -0.012525444 -0.08996428 -0.094735995 -0.05187193 -0.07813063 0.036961894 -0.1267256 -0.019335266 0.07386964 -0.21146391 0.10656704 0.16816215 -0.14422795 -0.052989308 0.15532501 0.086304076 -0.014759224 -0.04281566 0.13730027 0.21117124 0.09365157 -0.10403644 -0.052513845
83 0.043105222 -0.114562064 -0.025439199 -0.056985706 -0.025389357 0.050626263 -0.057692647 -0.051319603 -0.07925505 -0.039293632 -0.08668208 0.02103032 -0.08078246 0.11315005 0.18350168 -0.012010239 0.06767756 -0.047385566 -0.002283672 0.002420243 -0.018375343 0.0080355955 0.02300437 -0.027848138 0.08419626 0.024377316 0.053053625 0.0040262337 0.06745758 -0.026392832 -0.044857077 -0.11060082 0.01572367 0.047561727 0.09565426 -0.015950136 -0.10736431 -0.015662635 0.09408729 0.07267558 0.14864464 0.020021725 -0.021523481 -0.01897002 0.039087396 -0.07082339 0.025487287 -0.019445634 -0.071015745 -0.11845363 0.1558217 -0.05648416 0.00045564512 -0.05617409 -0.067034416 0.021562375 0.1071259 0.124110356 0.05873821 -0.00043451635 -0.091257 0.05099295 -0.026372043 0.15996434 -0.1371543 -0.20421576 -0.11701654 -0.13516462 -0.09970565 0.22595948 -0.1628664 -0.12134961 -0.15711312 0.01157437 -0.21249679 0.06286701 0.20353568 0.16247843 0.13459179 0.13078284 -0.091454394 0.0811361 0.014139857 -0.04191462 -0.19188431 -0.14717674 0.009092654 -0.0040712133 -0.09177056 0.04347915 0.03990821 -0.21137404 0.15903021 0.10009458 0.15774536 0.14499782 -0.06950545 -0.055991564 -0.10301296 0.1263381 -0.14000241 -0.095689 -0.08499424 0.11713808 -0.068136714 -0.11183584 -0.22601025 -0.16132551 -0.05556606 -0.12912321 -0.0760276 -0.13846911 0.23839943 0.21244484 -0.09780681 0.11968925 0.09910425 -0.12138304 -0.16929333 0.13663091 0.15547086 -0.03161622 -0.087672025 0.08268499 0.14160915 0.08236228 0.027891545 -0.06627791
1357 0.078613475 0.04423736 -0.097410485 -0.030235661 0.06175121 -0.10790632 -0.06641798 0.022127664 0.04062266 0.08027951 -0.017621132 -0.00031442026 -0.031675078 0.03784955 0.1033794 0.07499265 -0.028533986 -0.084926754 0.0067163096 0.025890447 -0.028487526 0.0763555 0.04529886 -3.1245017e-05 0.083346 -0.0065185428 -0.046977136 -0.11556998 -0.016456142 -0.051362365 0.062467888 0.049099382 -0.05486501 -0.06753489 -0.049581446 0.0705185 0.014479983 0.037319258 -0.1084351 0.09840394 -0.092763096 0.06531847 0.045203827 0.0033441046 -0.019487066 0.020290788 0.030117897 -0.022623105 -0.051550817 0.03672363 0.036244016 0.069572724 0.042138603 0.052827533 -0.0027912469 0.015030578 0.046854462 0.1348425 -0.06510789 0.07179178 -0.002002653 0.121637136 0.06310315 -0.039165895 -0.012671135 -0.112145625 -0.05606068 -0.09573936 -0.09086246 0.05431718 -0.017384898 -0.08393176 -0.030166676 -0.06679275 -0.031032851 0.039801892 0.020262761 0.10249301 0.07334197 0.052885957 -0.022510272 0.07626528 -0.12136704 -0.028796364 -0.028297596 -0.046210382 -0.01385522 -0.036059357 -0.046833903 0.10234108 0.12273956 -0.011301328 0.07042283 0.033041388 0.03233524 0.11884801 -0.039790597 0.03014551 -0.054808848 0.031272594 -0.053332873 -0.07702969 -0.11916504 0.021510277 -0.020199556 -0.060517505 -0.03234246 -0.13841277 -0.08394004 -0.06495884 -0.06538746 -0.062635906 0.075001694 0.03261503 -0.13444881 0.03641228 0.06955969 -0.09915924 -0.09661435 0.05836229 0.037006143 0.0028365524 -0.009290177 0.024905762 0.104995325 0.09573473 -0.05841999 -0.14476714
1420 -0.07627398 -0.18539773 0.13365918 0.10120664 0.20548254 0.17618747 -0.14156953 0.18097888 -0.02346143 -0.08474369 0.12763834 0.20625822 0.16568933 -0.1421262 -0.16413999 -0.035275154 -0.10075164 0.06610113 -0.03918017 -0.20419553 0.17318346 0.0045323973 -0.106721655 -0.02530763 -0.016484996 0.046677977 0.17103933 0.1821809 -0.10799919 0.15003149 -0.13462597 -0.20387025 -0.10748842 -0.09083477 -0.0920524 0.0148463035 -0.17737842 -0.08628531 0.14273132 -0.16694438 0.075713515 -0.16413821 0.11217724 -0.1398856 -0.045905106 0.015550355 -0.17680852 0.19145992 0.058199126 0.023894075 -0.17984529 -0.19021545 -0.00530859 -0.11074586 0.0027456065 0.057988852 0.09163073 0.07449744 0.03295065 -0.19306351 0.12903324 -0.07504823 -0.06184828 -0.112906575 -0.3253465 -0.25081468 -0.2578516 -0.21689445 -0.18599541 0.21639143 -0.29821682 -0.2801676 -0.101327054 -0.14280319 -0.30016747 0.05309777 0.28849664 0.29548022 0.12072535 0.073544115 -0.38175175 0.07787526 -0.2615438 0.27069637 -0.11425111 0.012149016 -0.29383364 -0.0580039 -0.11331863 0.1316531 0.18012314 -0.3791126 0.22499658 0.2996734 0.14950922 0.18514992 -0.033606246 -0.23089232 -0.3461475 0.09944887 -0.41627204 -0.17285663 -0.2730807 0.35420763 -0.122702666 -0.17102064 -0.21026553 -0.08233936 -0.10129207 -0.2195406 -0.27371863 -0.32767206 -0.021405082 0.35543695 -0.22577871 0.10770039 0.10639044 -0.19612707 -0.09469628 0.292247 0.33193487 -0.07590071 -0.026847307 0.3245642 0.322352 0.22854142 -0.035978816 -0.07181057
656 0.029163925 0.023637803 0.015008423 -0.021174025 -0.027076593 -0.05357339 -0.08232409 -0.006438125 -0.0775855 0.033960503 0.00081396004 0.03321071 0.061976947 0.03711953 0.10280492 0.1097861 0.06884042 0.0913192 0.04551751 0.110052235 -0.07632396 -0.03039639 0.07711969 -0.09235683 -0.035643768 -0.011972595 -0.07946573 0.0009389026 0.026044564 -0.013400362 0.04062794 0.0039879996 0.019868951 -0.009056218 -0.04310584 -0.05431614 0.018611562 0.034125388 0.04792997 -0.12179119 -0.06931334 0.053667862 0.03459705 -0.048612557 -0.09768169 -0.008939065 0.0068132035 -0.03347308 -0.02445575 0.091303006 0.020827094 0.025605815 0.12138635 -0.05545056 0.057776757 0.027711114 0.010386092 0.010754129 -0.034697328 -0.055056177 -0.05118662 -0.044767167 0.025149215 -0.016341636 -0.02728395 -0.020182239 -0.08353935 -0.025949722 -0.0702586 0.12215289 -0.033292197 -0.067221 -0.12715264 -0.105990686 -0.047963154 0.052637964 -0.0038453694 0.006264238 0.061911024 0.050124504 -0.08856465 -0.018157989 0.035252795 0.06754226 -0.04698613 -0.15394293 -0.052575033 0.059646823 -0.057340913 0.10745576 0.05944039 -0.03922885 0.09600002 0.028740276 0.13178343 -0.005645747 -0.084526055 0.0342057 -0.024555642 0.03375001 0.023123886 -0.012411756 0.009530891 0.069413885 0.020322613 -0.075328976 -0.084932856 -0.09578078 0.015811007 -0.098553404 0.092060134 -0.06087522 0.11727781 0.07797386 -0.13350166 0.00017724528 0.07346877 -0.013975585 -0.073454015 0.015139403 0.11723325 -0.08727268 -0.08196313 0.0388317 0.050121374 -0.038270164 0.0037892046 -0.09058865
1696 0.0814404 0.032154366 0.013697349 -0.12578034 0.053297404 0.07706207 -0.027610475 -0.011319461 0.104979075 0.08397191 0.010791974 -0.068597876 -0.042470075 0.135424 0.087621145 -0.017958438 -0.042636763 -0.1236048 0.009765584 -0.058159586 0.065704 -0.13866243 -0.0067019146 -0.06173494 0.01179386 -0.09734009 -0.07919384 0.0051460695 0.02487527 0.053998135 0.020238437 -0.030083973 0.11172492 0.07681459 -0.084428035 -0.004985046 -0.01660012 0.03613278 -0.04096985 -0.061521843 -0.0075327293 0.069678724 -0.13714157 0.11648948 -0.04902418 -0.09997536 0.12777326 -0.08711916 0.00748268 0.06765976 0.002179062 0.00075477443 -0.0801712 -0.10430927 -0.08553103 0.025105922 -0.10128915 0.10098496 0.10241095 -0.09243468 -0.1067562 -0.072424755 -0.015494065 0.015003432 -0.07210285 -0.20920455 -0.093386285 -0.07234041 -0.11517465 0.13131405 -0.21096474 -0.12899962 -0.059650578 -0.055112544 -0.10829226 -0.03518998 0.16885632 0.119875796 0.15406752 0.093221955 -0.08480419 0.17943951 -0.14053765 0.09810399 -0.1478202 -0.11324374 -0.073244154 0.085015334 -0.059294093 0.100361116 0.06465384 -0.19607458 0.14463373 0.052279755 0.18682405 0.19926181 0.049827997 0.020959638 -0.142502 0.09837541 -0.1717574 -0.044640407 -0.09588696 0.06768844 0.08306696 -0.15018518 -0.23840389 -0.24227956 -0.15249892 -0.12654497 -0.00277968 -0.1816528 0.055933304 0.061445106 -0.17868426 0.19828236 0.121094644 -0.10270858 -0.21853794 0.19026765 0.22943668 -0.061369482 -0.07033561 0.13502495 0.24816892 0.2154326 -0.02565603 -0.07973326
1176 -0.0029745582 0.07294897 -0.19341962 0.13586292 -0.07590629 -0.106079765 0.058570165 -0.007828493 0.09209217 0.019462815 -0.03276184 -0.019537436 -0.00512945 0.1276613 0.014988525 -0.0043005855 0.060019836 -0.17313795 0.008299489 -0.008623188 -0.13864724 0.08887363 0.06243994 0.0029102836 -0.064615645 0.03039845 0.092127874 -0.1025023 -0.026498752 -0.085148975 -0.024527233 0.09328665 0.09565835 -0.028499154 -0.036478847 -0.075320676 -0.04597819 0.099345 0.05778917 0.003341724 -0.2015846 0.033815246 0.04951628 0.057354715 -0.10387162 -0.059013467 -0.15698661 0.083987586 -0.025773026 0.033398576 -0.14233977 -0.018028049 -0.034733765 0.035346895 -0.08417272 -0.12628865 0.12420073 0.18869354 0.14037545 -0.031310122 0.14000794 -0.046530858 -0.038039725 0.04832832 -0.006349626 -0.17788999 -0.06805303 -0.24253798 -0.19880712 0.1968265 -0.21693489 -0.13540612 -0.22165494 -0.30590886 -0.12866442 0.1667896 0.27420846 0.16323447 0.17844343 -0.015977263 -0.048518628 0.11532518 -0.16146965 0.11906397 -0.14786015 -0.21773212 -0.14199375 0.12786697 0.049124714 0.10331748 0.17181616 -0.19124825 0.16221285 0.10841299 0.21205285 0.069140926 -0.08567116 0.017913263 -0.24065875 0.21485499 -0.17434418 -0.068590045 -0.12306975 0.12332273 0.050390013 -0.17441787 -0.20610218 -0.108694784 -0.007874079 -0.12818003 -0.01381032 -0.1845671 0.19121198 0.20446812 -0.15704313 0.22592165 0.23907532 -0.22341187 -0.24420057 0.1751948 0.15806481 -0.2079837 -0.11325453 0.21162179 0.2548615 0.20785975 0.044899374 -0.07503653
1837 0.05754761 0.07884647 0.061634906 0.1452817 -0.08102891 -0.025531393 -0.0018338512 -0.009350164 0.0031283165 0.05056235 0.05512419 0.035272613 0.050445814 0.08416409 0.13962209 0.01939026 0.014940889 0.12713566 -0.039384663 -0.060822178 0.033610564 -0.1803751 0.0814483 -0.19949006 -0.042856958 -0.1587176 0.018055227 -0.056482363 -0.0363673 -0.006005832 0.13771655 -0.14202155 0.19908951 -0.038892094 -0.066153266 0.10749764 -0.010836679 -0.013559037 0.013654362 0.022493225 0.04384645 0.010284079 0.010203677 -0.024838053 0.034191005 -0.0858581 -0.10152478 0.012973502 -0.04690288 0.12299089 0.11157743 -0.023088763 0.040684115 -0.062266897 -0.07383686 0.1194322 -0.071710184 -0.027063364 0.077970974 0.015988411 -0.00055541843 0.02002295 0.00076597265 0.04515522 -0.11877845 -0.23176567 -0.15668371 -0.13483381 -0.012984783 0.16975667 -0.1053254 -0.15286349 -0.17519693 -0.07039371 -0.18749407 0.23477119 0.056949284 0.13263473 0.15109709 0.15309893 -0.14328809 0.11960673 -0.15233368 0.12877631 -0.23286662 -0.17814785 -0.07668667 0.023030858 -0.1418231 0.12686913 0.12404672 -0.17377014 0.15211314 0.025817575 0.14660828 0.19039565 -0.023438193 0.1013768 -0.05335955 0.14002186 -0.06475935 -0.15432528 -0.046632238 0.012247188 -0.0839112 -0.10457958 -0.10771578 -0.14281797 -0.048402123 -0.19252418 -0.0060436204 -0.19839302 0.15146057 0.13375431 -0.20083393 0.21447758 0.25421208 -0.15178062 -0.23981085 -0.013350606 0.25334558 -0.22683471 -0.13127288 0.22438546 0.18704456 0.19596705 -0.070636176 -0.19210885
2050 -0.047949478 0.08229156 0.020795891 -0.036949616 0.037632465 0.054327752 0.007749369 0.024349183 -0.020095762 0.032238152 -0.017548578 -0.0014797263 -0.017851263 -0.07390225 -0.0671836 -0.017906088 -0.015175481 -0.07771901 -0.035992388 -0.04025555 0.050294794 0.08910214 -0.05672068 0.019391302 -0.03730984 0.06022341 -0.0005081125 -0.06767916 -0.047376204 -0.009105416 -0.0845923 0.091067865 -0.029962525 -0.00556593 -0.037397645 0.029128274 -0.0996278 0.071515076 0.0011521513 -0.047532126 0.03395918 -0.0035837814 0.053660445 -0.12078564 -0.0010025073 0.05337255 -0.024432467 0.047656424 0.04920449 0.039334115 0.03649035 -0.13863963 0.019879108 0.009865056 -0.033484757 -0.0010261134 0.0820815 -0.07597482 0.05698716 0.021298498 0.052153725 0.037584208 -0.090382196 0.037629765 -0.08649651 -0.103412114 -0.08710592 -0.13735023 -0.12385511 0.08808526 -0.064518124 -0.053296957 -0.025612246 -0.14932002 -0.17197557 0.122492716 0.12639047 0.051731758 0.051000167 -0.05105762 -0.037893087 0.10909285 -0.043517493 0.10304929 -0.043776583 -0.12135922 -0.00027821606 -0.034804452 0.050944973 0.08936673 0.0563506 -0.111637294 0.04388405 0.0021631152 0.029016705 0.0385027 -0.0510364 -0.07482258 -0.13257763 0.10903441 -0.049315844 -0.05781605 -0.042185854 0.08532853 -0.15463594 -0.11185113 -0.12834384 -0.033450507 -0.0803888 -0.0036654666 -0.029872622 -0.16658643 0.05614052 0.14176872 -0.07517528 0.11186416 0.14156471 -0.12186857 0.011993658 0.025675228 0.09765286 -0.044020075 -0.020155452 0.19413716 0.08575933 0.1287803 -0.025801286 -0.0738879
471 -0.15702964 -0.014316557 0.16442919 -0.09919158 0.020036925 -0.0835919 -0.07377401 -0.050322 0.14565636 0.008144364 -0.11732523 -0.17263551 -0.10743599 0.06956449 0.080984965 -0.05445397 0.09791029 0.057154138 0.1918805 0.064022 -0.13726008 0.0756623 -0.14051346 0.07423829 -0.04192652 -0.022028185 0.045068067 -0.1661911 0.13393326 -0.018436773 -0.031934906 -0.06606103 0.093925215 0.17939752 -0.003923395 0.11081416 -0.047809318 -0.1298968 0.19707982 -0.053439815 0.086104155 -0.013246175 -0.24732432 0.12098365 -0.0749971 -0.03666736 0.042062268 -0.14575085 -0.07432453 0.24596193 0.032317474 -0.02447754 0.0572626 0.101087034 0.0006378833 0.07791876 -0.10239523 0.08350855 0.2271118 -0.030519763 0.110203855 0.070437334 -0.15668346 -0.15314613 -0.15459712 -0.3163077 -0.16136937 -0.22204453 -0.06846993 0.32632312 -0.119268954 -0.22734906 -0.15586911 -0.2840609 -0.21129589 0.2266275 0.3632755 0.18449645 0.23678854 0.041082725 -0.18264793 0.07567831 -0.15445694 0.078728095 -0.3380379 -0.19824435 -0.09503042 0.14936154 -0.16948211 0.16277324 0.16264935 -0.117120825 0.20703596 0.06423663 0.18715264 0.12740566 -0.22525647 0.19476064 -0.20303856 0.23055172 -0.14677793 -0.12078989 0.030804632 0.17033981 -0.043451384 -0.02884856 -0.19155255 -0.21621482 -0.029620437 -0.20697688 -0.0462725 -0.38216823 0.33102882 0.1909737 -0.31433055 0.3344346 0.14473914 -0.23680389 -0.32718837 0.092496365 0.24742626 -0.1181398 -0.25276518 0.19153936 0.35642454 0.36117545 -0.036670633 -0.1742169
975 0.15488495 0.045375552 -0.08687766 -0.10387261 0.031273987 -0.032875497 -0.0011253156 0.018132444 0.06514781 0.004757719 0.015610288 -0.037959207 -0.13561946 0.019209707 0.13502088 0.12948886 -0.13220382 -0.17793716 0.0009479455 0.0902215 0.090632714 -0.025985956 -0.15285271 -0.047465857 0.08907697 -0.080149494 0.0436034 -0.029862996 0.049235243 -0.18346277 0.16080949 0.05576057 0.16090544 -0.041773316 0.053830042 -0.15838021 -0.056350745 -0.12631863 0.00042436805 0.116427206 -0.21619616 -0.055725444 0.012150883 0.071794234 0.019070718 -0.16761942 0.16471426 -0.1220898 0.028103467 0.10753246 0.11339131 0.113309376 -0.062016804 -0.12362627 -0.056952324 0.17140777 0.046496056 0.03413847 0.07269778 0.03946297 -0.0058036144 0.20909947 -0.10757247 -0.11041615 -0.06048012 -0.31532693 -0.34887207 -0.38959384 -0.03778266 0.27105412 -0.32486472 -0.1887255 -0.14072382 -0.05176345 -0.12475264 0.28908774 0.040322077 0.021254152 0.22448742 0.026488408 -0.14132681 0.21717244 -0.26737192 0.14781253 -0.25568122 -0.26047546 0.107630745 -0.013703273 0.16506268 0.15909117 0.075822935 -0.104725674 0.17318738 0.28274658 0.13796735 0.13582824 -0.14314234 0.11656536 -0.2581567 0.069788836 -0.2644387 -0.15221557 -0.19045727 0.12355589 0.14122196 -0.19469418 -0.09022522 -0.19806528 -0.21042967 -0.08260461 0.11132278 -0.11539953 0.31244573 0.22284277 -0.3225848 0.33715943 0.16716097 -0.13621244 -0.19189923 0.10645858 0.19791733 -0.12394958 0.009243921 0.20240906 0.27564922 0.098721296 0.014372014 -0.0577635
426 -0.041749366 -0.012971445 -0.13643186 -0.11782158 0.085896604 -0.05514772 -0.0021761623 0.13183682 0.1712111 -0.07562543 -0.10309663 -0.026709294 -0.1280886 0.038664784 0.1644349 -0.022256106 -0.08904116 -0.20454709 0.0311924 0.06097764 0.108437404 -0.04920818 -0.045797817 0.14742932 0.014888746 -0.020965908 -0.008846005 -0.08795826 -0.04244562 0.058256187 0.00652898 0.0956532 0.040743526 0.1538956 0.03833056 -0.056906182 -0.10939372 0.035764538 -0.110503756 0.18108928 0.06582195 0.08323427 0.20206483 -0.008474532 0.09971797 -0.01354656 0.05278262 0.090439074 0.19396244 -0.08650946 -0.08447575 -0.17367679 0.041106742 0.16526702 -0.06410078 -0.0634719 0.10044595 0.09346194 -0.044642054 -0.038473617 -0.012386222 -0.06363644 0.086645536 0.0034625602 -0.021316694 -0.17470719 -0.1634683 -0.24389094 -0.07939234 0.18831268 -0.065100744 -0.079520024 -0.06613318 -0.19470797 -0.25640887 0.22065711 0.11734665 0.1314657 0.054469757 0.10112844 0.015884763 0.20364685 -0.080571756 -0.030237304 -0.27846518 -0.28954312 0.051619004 0.07618717 -0.12248378 0.17247467 0.20307478 -0.011786277 0.17705373 0.045520514 0.13322152 0.035253793 -0.107915334 0.061359458 -0.23571585 0.16339964 -0.09689274 -0.06593269 -0.17196128 0.21205534 0.015346466 -0.18342446 -0.20044379 -0.093923405 0.058730222 -0.0846414 -0.1721703 -0.24987611 0.1039552 0.15066275 -0.1577933 0.09751565 0.14507546 -0.16222277 -0.23871198 0.1981326 0.18972932 -0.16363086 -0.13517313 0.13277069 0.21056825 0.17925327 0.018986072 0.057670597
1672 0.03840643 0.055488016 -0.12763943 0.029653752 -0.088968605 0.06972166 -0.0036232697 -0.011761823 -0.0286151 -0.20681474 0.047006786 0.017860591 0.050557174 0.026257344 0.049594432 0.00041293475 0.082161464 -0.054993562 0.025714751 0.052450377 -0.036591895 0.09095141 0.037733216 0.014026783 0.057980977 -0.037300248 -0.007531815 0.059466634 -0.10681083 -0.06772798 0.046462543 0.03784503 -0.018593227 0.036547188 -0.061986797 -0.07254464 0.113274574 0.012647886 -0.106536455 -0.023261104 0.048695557 0.020263012 -0.030978825 -0.13438556 -0.14225894 0.014812012 -0.108663976 0.01876527 -0.018986173 0.01911816 -0.01343324 0.06997734 -0.12137748 0.021291284 0.049367733 0.17570831 -0.0075675636 -0.01602727 0.012864558 0.06480852 -0.016545074 -0.01690889 0.06113609 -0.010190077 -0.07599037 -0.103620104 -0.12741736 -0.14505589 -0.06904818 0.15802112 -0.07976983 -0.09250869 -0.1112919 -0.21389005 -0.10741395 0.19561946 0.09368861 0.04325651 0.063438274 0.07246155 -0.06530886 0.12304936 -0.05575008 0.15580243 -0.13581775 -0.1336265 -0.024002548 -0.010376101 -0.14208521 0.13393316 0.097437635 0.032969877 0.11619672 0.10359328 0.16782662 0.14521506 -0.1712648 0.08196945 -0.122546524 0.056438494 -0.06493977 -0.11959424 -0.07462393 0.13159896 -0.046425395 -0.20130996 -0.049293686 -0.22516811 -0.13550527 -0.019365251 -0.06004768 -0.2130847 0.11267985 0.12098896 -0.19540574 0.24247363 0.09027099 -0.071436085 -0.19361372 0.07482069 0.2056404 -0.06280956 -0.10571238 0.01127369 0.1891144 0.18214308 -0.058907535 -0.030963546
171 -0.01909032 0.11285187 -0.023375547 -0.034888227 -0.06344165 -0.15048005 0.05503111 0.05253999 0.011891086 0.08625355 0.017836558 -0.046042025 -0.036394488 0.06772256 0.07102952 0.0067331456 0.13316913 -0.05312057 -0.027332213 0.04303195 -0.11281995 -0.18056263 -0.18022126 -0.09172128 -0.107287854 0.11211915 0.018392053 0.07440336 0.057387218 -0.07117595 -0.032549452 -0.03987083 0.039019883 0.030459868 0.027326973 -0.011701888 -0.18756168 -0.0033610298 0.048101015 -0.07778084 -0.115515314 0.06494253 -0.17577009 0.04327103 0.062381934 0.00265286 0.1394073 -0.090560645 0.1562953 -0.038529493 0.042876374 -0.050127365 0.040761158 0.15114498 -0.039802883 0.057447545 0.23795849 0.14149287 -0.030533504 0.07850578 -0.052374057 0.03997405 0.060330383 -0.04620071 -0.12405871 -0.16285682 -0.12356967 -0.1971925 -0.14772968 0.24845725 -0.13335972 -0.2078147 -0.13466543 -0.09096972 -0.14613858 0.09829043 0.04981867 0.17620541 0.053353418 0.1507779 -0.109184824 0.081379466 -0.048556108 0.16508113 -0.27964538 -0.19925767 -0.08571039 0.14669798 -0.027944272 0.04032101 0.16138378 -0.15809889 0.12646715 0.23436707 0.23116334 0.08792182 -0.2536745 -0.024916 -0.0653903 0.18201692 -0.0836853 -0.12568523 -0.088190645 0.09156683 0.07884181 -0.08757156 -0.14677566 -0.2882327 -0.041424677 -0.14373884 -0.11561375 -0.19630417 0.06770303 0.16856515 -0.12016196 0.16795754 0.15834126 -0.107891075 -0.13568042 0.18061966 0.10846183 -0.18243717 -0.14891757 0.12768427 0.010571815 0.17538106 -0.038644917 -0.009082558
866 0.035923067 0.026025826 -0.05961376 0.09648243 -0.09965759 0.070494846 0.11889727 -0.020327749 -0.035701588 0.03897077 -0.04969111 -0.10335293 -0.026750434 -0.10107199 -0.18943185 -0.10281653 0.09180257 -0.031872325 0.10009649 0.051087126 -0.009587262 0.12629603 0.060004495 0.12331854 -0.009117935 -0.048045423 0.010210377 0.03694717 0.009266315 -0.17032284 -0.16213657 0.13581508 0.04049902 -0.020347983 0.08203862 -0.08709888 0.06318531 0.08275821 0.04896883 -0.085062385 0.046632208 0.08077523 0.034417257 0.01829435 -0.17977487 0.022019776 0.036337778 0.014803233 0.03084775 -0.05506457 -0.0225302 -0.094181046 -0.023199886 0.016482498 -0.11081925 0.020703042 0.10949759 -0.09898163 -0.04452447 0.06999151 -0.026282959 0.034887243 0.01137297 -0.031529367 -0.019116232 -0.16232938 -0.1704031 -0.30643538 -0.10623824 0.16385902 -0.12694873 -0.15863386 -0.2301721 -0.25452062 -0.29753527 0.2709622 0.09304054 0.16404715 0.018671768 0.03217837 -0.18781483 0.14318743 -0.15479834 -0.0786095 -0.20438688 -0.22226746 -0.02516826 0.111698665 0.011808594 0.18493186 0.12913515 -0.06704657 0.16895393 -0.057036076 0.1567154 0.13070469 -0.18985376 -0.04659469 -0.20804697 0.17876889 -0.05349114 -0.12667665 -0.19095483 0.105592005 -0.08257829 -0.2987784 -0.20670325 -0.14734344 -0.048530243 -0.1915359 -0.06428073 -0.20277156 0.13387449 0.12250041 -0.12601885 0.26258942 0.11030526 -0.2521597 -0.21381862 0.1433618 0.2784427 -0.17147721 -0.18832956 0.14560759 0.21703249 0.12471864 -0.08015031 -0.17786439
1394 0.13711463 0.10836701 -0.06585679 -0.05965386 -0.018789537 -0.08872503 -0.077627726 0.04354969 0.047442418 0.051451728 0.0028212585 -0.02852753 -0.014297835 -0.016953163 0.1063311 0.09154518 -0.11926183 -0.12256836 0.058384765 0.08770936 0.13955623 -0.11228114 -0.0879372 -0.067128666 0.07940196 -0.1519643 0.04993439 -0.023171926 -0.07266929 -0.15859888 0.15188105 0.06476379 0.15320359 -0.1296258 0.18037918 -0.03592831 0.0767233 -0.113717094 -0.045786243 0.06496757 -0.17720497 -0.067792445 -0.096269175 -0.017317163 0.005249905 -0.14276294 0.06469969 -0.14416821 -0.061112158 0.08819139 0.023310456 0.122322865 0.041136358 -0.13472162 -0.11675117 0.1043809 0.065455325 0.044872854 0.10199888 0.08735526 0.033168964 0.13178702 -0.13339359 -0.13447721 0.03573183 -0.24038143 -0.27458632 -0.30953214 -0.061450906 0.32872787 -0.2209832 -0.17562608 -0.13894722 -0.11198457 -0.17322086 0.22269975 0.12622505 0.047756895 0.19081658 0.10384403 -0.16578981 0.13856989 -0.3030452 0.111115545 -0.17069003 -0.2640405 -0.0059301425 0.01213907 0.06595848 0.21216272 -0.06261422 -0.1808867 0.01551567 0.21197136 0.18149456 0.1535663 -0.13338247 0.13437167 -0.22359215 0.036288183 -0.17937157 -0.07758242 -0.087407164 0.16334856 0.016586747 -0.16013378 -0.12443677 -0.14798735 -0.24877876 -0.01675905 0.14648466 -0.13762017 0.26539743 0.15370785 -0.27104697 0.2972656 0.10953451 -0.08046962 -0.13267447 0.077977926 0.15684396 -0.14151707 0.07249488 0.27869186 0.25852284 0.07558164 0.07540358 -0.077888615
1274 0.10574332 -0.042455748 0.043582145 -0.0126196155 0.08392945 -0.030565338 0.012085864 -0.07916989 -0.045315664 -0.09877135 0.0034935663 0.032903913 0.10138698 -0.043734 0.018453771 0.1575662 0.054778125 0.06528483 -0.08273036 0.15987903 -0.045176465 0.043299995 -0.0021244015 -0.092545085 0.055432204 -0.024570173 -0.070353776 -0.13900588 -0.034341503 0.11387066 -0.013729476 -0.060492128 0.06948463 -0.09083363 0.036580857 0.107131995 0.08029871 -0.057830293 -0.11395847 -0.07377829 0.032584716 0.027763473 -0.061052818 0.0855199 -0.015909558 -0.031370487 0.0350961 0.05093439 -0.061049018 -0.01892922 0.009110081 0.026244685 -0.0052458355 -0.071527414 -0.037924245 0.083846286 0.023800872 0.037532452 0.011120679 0.08114917 0.007297802 -0.07372021 0.10104367 -0.10656331 -0.05668272 -0.15704598 -0.16277567 -0.07553617 -0.08279741 0.19035578 -0.05596654 -0.024896191 -0.15158865 -0.096352816 -0.12939899 0.14707126 0.119354285 0.05636162 0.08514199 0.03478491 -0.07045902 0.1185853 -0.10907992 0.034198165 -0.15866895 -0.10544664 -0.065402284 0.050148763 -0.02916344 0.16431744 0.16754681 -0.16429563 0.1500332 0.0657841 0.15901245 0.16459657 -0.05607373 0.028118795 -0.10425363 0.14064705 -0.0890554 -0.03611789 -0.09809044 0.05811631 -0.045857992 -0.15226032 -0.1017013 -0.17855567 -0.07390794 -0.11531447 0.015923312 -0.18270195 0.19038107 0.07046756 -0.072092704 0.18082303 0.2536942 -0.13446234 -0.18950474 0.0999938 0.17184131 -0.131074 -0.053494 0.15232429 0.18553092 0.12236998 -0.07656688 -0.08631893
96 -0.021452002 -0.032040276 0.08605409 -0.007686274 0.0037145775 -0.05488215 -0.030413784 -0.012491374 -0.0037954412 -0.044556428 0.015973274 0.0109693585 0.037810385 -0.0429421 -0.0134471 -0.07202675 -0.076343976 0.08113622 -0.018899782 -0.020371363 0.018485231 -0.021518113 -0.11143191 0.10907039 0.030731004 0.066242054 -0.0099932505 0.028111905 -0.014800787 0.09234717 0.08998822 -0.09457308 -0.08592283 0.08366637 0.07459152 0.045693286 0.025942937 0.049650736 0.035196725 0.047920916 0.0901276 -0.1535307 -0.049808227 0.055162635 0.03314026 -0.057184935 0.014482757 0.094015636 0.071378715 0.0002691542 -0.02464774 0.010369076 -0.0733171 -0.0049704756 0.06222173 0.11780092 0.019962676 -0.053757954 0.07287775 -0.028900271 0.054815497 -0.07737202 0.06742965 -0.0024101075 -0.13560253 -0.18394208 -0.13579734 -0.07454317 -0.08295381 0.118351065 -0.13281366 -0.1535374 -0.09873327 -0.1089006 -0.112356976 0.09937672 0.19071066 0.20215333 0.093838476 -0.035730816 -0.13878232 0.26600665 -0.096917816 0.07639423 -0.12180366 -0.091567 -0.0778884 0.16349651 -0.056214537 0.04747797 0.1506715 -0.17148533 0.12007538 0.018836074 0.10595966 0.15582402 -0.033794113 -0.045596503 -0.12169652 0.10178051 -0.056442346 -0.1824268 -0.006733234 0.15443277 -0.11532776 -0.092040494 -0.14714457 -0.12462125 0.07203828 -0.070993066 -0.05553148 -0.17936592 0.054203756 0.23245096 -0.13988219 0.012869939 0.14846127 -0.12912664 -0.10520238 0.11343803 0.12943135 -0.16731262 -0.072828 0.15721485 0.1960284 0.05398478 -0.03636407 -0.05851239
566 -0.061947487 0.056565464 -0.008733103 -0.07209818 0.04493751 -0.03300361 0.14246713 -0.005664143 0.026542163 0.01088724 -0.14934644 -0.005791134 -0.08226456 -0.04995328 -0.024129527 -0.08163931 0.07402143 -0.1817375 -0.0038513935 -0.05098554 -0.17073086 -0.05481215 0.0016935742 0.020474754 -0.10562267 -0.06569771 0.036795184 -0.03298219 -0.09769327 -0.123717286 0.07253446 0.09300553 -0.037894577 -0.024281785 0.018386193 0.027976027 0.012806666 -0.05927115 0.017903367 -0.010918666 -0.025609467 -0.020157875 0.020168938 0.001252414 0.016093707 0.121205084 -0.05443726 0.06402292 0.051125422 0.10791832 0.031600863 0.010972249 0.05192554 0.01796241 -0.0063818796 -0.01724149 -0.11438426 -0.12117289 0.13362992 -0.0007351099 -0.04274441 -0.013311904 -0.012325946 -0.05700241 -0.037020065 -0.23613405 -0.19889036 -0.21558416 -0.24894539 0.1354946 -0.10644675 -0.09749667 -0.18406019 -0.13647132 -0.1431937 0.26837257 0.17723899 0.12406882 0.08655885 0.09015405 -0.15533301 0.12575653 -0.21274506 -0.100154415 -0.10997032 -0.10437688 0.0032931734 0.06499041 0.024805611 0.15047537 0.014786218 -0.12299027 0.116016254 0.06953429 0.15414077 0.04161252 -0.19848198 -0.0062738494 -0.18953402 0.1801231 -0.058856506 -0.082997136 -0.110377476 0.1468504 -0.15404522 -0.24405687 -0.06438869 -0.041991506 -0.22938013 -0.15023531 -0.14978884 -0.12921387 0.13415755 0.17547844 -0.1789275 0.1149755 0.001093977 -0.2767778 -0.18070507 0.110845625 0.3016091 0.005285944 -0.032802466 0.12407425 0.09870934 0.10883381 -0.0669994 0.00863612
828 -0.037099723 0.017415268 0.059930034 0.039356817 -0.06409465 -0.01898894 -0.008292526 0.01646049 -0.03315587 0.061073136 -0.10309125 0.05210063 0.062211353 -0.031172091 -0.025391584 0.02191691 0.04027356 0.04891984 0.05606332 0.01791977 -0.05983754 0.03155604 0.023882996 0.10609074 -0.061888564 -0.10502614 -0.009459444 -0.005379424 -0.008788843 -0.0017781458 0.15207766 -0.017978381 0.020459373 0.10082869 -0.008155381 -0.051882744 0.038526915 0.02253531 -0.10161874 -0.07408551 -0.08948851 0.03399697 -0.04928973 0.015788812 -0.050081365 0.012007309 0.09442937 0.052472275 -0.031558678 0.0009125469 -0.085266314 0.014804694 -0.062018376 0.02265243 -0.090454526 -0.0470968 -0.044737373 -0.07902746 0.009662399 0.06158932 -0.023653261 0.058589336 -0.10917238 0.019289108 -0.017947748 -0.09258682 -0.111278884 -0.056039836 -0.124620855 0.08158956 -0.077349156 -0.15658379 -0.17090137 -0.09527924 -0.058714952 0.053602144 0.112312056 0.046840474 0.07736955 0.0177703 -0.08647693 0.15895803 -0.14844413 0.038207237 -0.15470332 -0.08161496 -0.05347832 0.036256976 0.026132785 0.115908615 0.06853531 -0.032939732 0.018559666 0.02947277 0.1416569 0.037841674 -0.13961594 -0.01731948 -0.079721406 0.06488257 -0.0121807335 -0.109931424 -0.07847762 0.13927187 -0.09927552 -0.116089866 -0.100284085 -0.11783355 -0.15356824 -0.12737975 -0.044834558 -0.03879642 0.17814426 0.15427157 -0.092753075 0.07388466 0.07287933 -0.01980141 -0.17548767 0.09926043 0.09437792 -0.107085116 -0.0884497 0.14570054 0.10809949 0.1664973 0.038959462 0.004782808
1894 -0.018129114 0.009235823 -0.056144685 -0.040800143 -0.059989102 -0.010911463 -0.032440495 -0.0048556305 0.0355009 -0.020248646 0.03224945 0.010189848 -0.016738473 0.06532073 -0.00034514957 -0.028374325 0.019277677 0.06010941 0.022151928 0.050235033 0.0954078 0.013119726 -0.012856703 0.1056488 0.0059341113 0.13489197 0.07850336 0.033573028 -0.054159872 0.00968544 0.054897018 -0.047110114 -0.043573115 0.015373397 0.03260478 0.12821871 0.00167644 -0.077828065 0.082901835 0.082378656 0.065377235 -0.02194496 -0.043769702 0.007391865 0.09219955 0.011038452 0.00588864 0.027908541 -0.04263396 0.07040692 0.0071654203 -0.017184617 0.013852221 -0.09134404 0.007876981 0.049916994 -0.08438669 -0.0597206 0.013313474 0.010801871 0.008276904 -0.026289621 0.037596814 -0.027394623 -0.0036659967 -0.09504545 -0.106584534 -0.055111516 -0.0085806 0.12390334 -0.11115285 -0.02221915 -0.028104225 -0.043917328 -0.047331177 0.042831607 0.0646611 0.08540774 0.054181468 0.04104808 -0.042612124 0.09608815 -0.024209958 0.07633404 -0.013695203 -0.05610118 -0.03611252 0.06430709 -0.015878951 0.116734296 0.021178748 -0.12131786 0.079850815 0.013264225 0.06989647 0.039986618 -0.042268146 -0.051709432 -0.089825176 0.08868345 -0.0986557 -0.06346172 0.011924165 0.055541735 -0.06291396 -0.07564378 -0.03778508 -0.083818056 -0.035692368 -0.028772028 -0.024394594 -0.08080149 -0.013195348 0.11930881 -0.09851133 0.022835987 0.025576686 -0.05397847 -0.07161625 0.05965729 0.08993002 -0.1514738 -0.032284684 0.12116488 0.05214991 0.07814214 -0.022885002 -0.045936037
2047 0.044547 0.061181102 0.062043108 -0.059114262 -0.02864798 -0.0038591218 0.019073943 0.1000829 0.001286068 0.006608345 -0.012559399 0.09165103 0.0791935 0.10611654 -0.028799519 -0.021108344 -0.022812316 0.06043747 -0.1436283 0.001552205 0.044107806 -0.0648236 0.044114813 0.057967354 -0.068773754 0.105117746 -0.07052662 -0.11042692 -0.03689725 0.07877057 0.0050576474 -0.05473534 -0.10121206 0.05259182 0.030751161 -0.115346 -0.03594389 0.07506339 0.10532919 -0.0738238 -0.01874253 -0.053722788 -0.08965014 -0.04394347 0.038295083 -0.124348946 0.07687787 -0.026142927 -0.11995214 -0.016163161 0.02032984 -0.053062856 -0.07464815 0.058450446 0.0041471543 0.11181989 0.097293094 0.009499824 0.04145782 -0.04858454 -0.022820624 0.011865992 0.023339627 0.058281325 -0.15377268 -0.2448927 -0.101041265 -0.17855544 -0.10551902 0.18147564 -0.14290698 -0.15823087 -0.06034977 -0.12945731 -0.12476672 0.14579181 0.12577692 0.13749407 0.016866535 0.029964266 -0.08152685 0.13679588 -0.18425643 0.14345305 -0.15958259 -0.13168012 -0.119830124 0.0023041551 -0.03561203 0.02165016 0.18819061 -0.2263638 0.14744008 -0.05122832 0.09049624 0.17393078 -0.09408316 0.04525915 -0.15012902 0.02881195 -0.09476044 -0.1630011 -0.036288653 0.08119749 0.098042786 -0.1149599 -0.113911256 -0.17182288 -0.06526143 -0.036963522 -0.032411125 -0.15585107 0.12503256 -0.010174997 -0.1386612 0.08795568 0.09299279 -0.06311844 -0.05546706 0.1457358 0.17509699 -0.15480271 -0.019347215 0.20717712 0.16809975 0.092453174 -0.06583288 -0.01120468
2091 0.043276645 -0.13016711 -0.045719765 0.010388022 0.1334059 -0.06418996 -0.04428587 0.014004757 -0.11269026 -0.010698702 -0.12733613 0.011796835 -0.046216927 -0.008638842 -0.060860056 0.025723562 0.12262885 0.108133815 0.14433135 0.11851902 -0.022016458 -0.022651423 -0.029883213 -0.031313952 -0.05511045 0.014910894 -0.01216027 -0.062531725 -0.078433216 0.089782074 -0.07612643 0.050263885 0.047745973 -0.038584728 -0.07810015 -0.17002125 0.031560924 0.027400501 -0.08854276 -0.09763173 0.16460916 0.031102171 0.08744062 0.10885149 -0.03611121 -0.036659412 0.043055236 -0.10026578 0.021626424 0.07100802 0.049732767 -0.02513814 0.11067943 -0.012436743 0.14426464 -0.112229146 -0.042241175 -0.05310553 -0.10524372 0.13495353 0.033076275 0.016188955 0.100656405 0.1021161 -0.12677054 -0.07960178 -0.122598685 -0.16764726 -0.12675099 0.20680462 -0.12476607 -0.19067746 -0.048258204 -0.12511249 -0.11141801 0.13088097 0.21316959 0.11505132 0.12261269 0.14456281 -0.06562443 0.0068459855 -0.13326035 0.06583651 -0.1051621 -0.16894601 0.02165646 0.18117145 0.1385104 0.1287941 0.14813673 -0.03991669 0.18405497 0.02665999 0.07497375 0.10720929 -0.10592982 0.022262525 -0.12384856 0.23517783 -0.19976538 -0.15861 -0.13392097 0.2579435 -0.13348562 -0.16825055 -0.14544083 -0.05362372 -0.05612795 -0.054456778 0.03873288 -0.17187917 0.23339373 0.072386004 -0.16800217 0.18934429 0.091528654 -0.09502655 -0.20081975 -0.020622201 0.13366868 -0.16396187 -0.07390551 0.14510033 0.060492266 0.09841655 -0.005792379 -0.18453166
1981 0.03193771 0.020971073 0.046045706 0.023022464 0.04813177 -0.029112281 0.12308715 0.096731216 -0.07096021 -0.025462562 -0.12579104 -0.0326202 -0.051456455 -0.025791205 0.013548339 -0.17964976 -0.055893585 -0.031126807 0.006331755 0.016991211 -0.06404235 0.027616108 0.08340646 -0.03338162 -0.021379743 0.020145016 0.0610692 0.036893867 -0.018365694 0.0036835077 -0.102128305 0.082124755 0.0380616 -0.05387804 0.074707784 -0.064156786 0.0021292376 0.039888274 0.038335804 0.02258637 0.029968023 -0.08669764 0.07413177 -0.025995316 0.0147457095 0.038871232 0.017934583 -0.03404883 -0.020385904 -0.101300225 -0.019705342 -0.0072877686 0.06600665 0.017154131 -0.09845292 -0.05267233 -0.01705582 0.08119985 -0.034573745 0.10759785 -0.05176513 -0.080212586 0.08509384 -0.0046205465 -0.06323559 -0.209556 -0.1966496 -0.25021148 -0.09673302 0.17511493 -0.08245091 -0.07445096 -0.12824467 -0.11542041 -0.22736701 0.13950759 0.10119261 0.053467456 0.12802777 0.04010578 -0.06763744 0.022434209 -0.13116886 0.055025537 -0.23801197 -0.104333825 -0.07017673 -0.018188432 -0.1542871 0.13483137 0.07954272 -0.11196346 0.20975463 0.03578054 0.09810953 0.08712574 -0.14221379 0.018292725 -0.124034084 0.28754622 -0.12110044 -0.22904536 0.000493097 0.108506374 -0.06090651 -0.019842165 -0.07031278 -0.15594535 0.006943929 -0.23219325 -0.040340055 -0.18988462 0.0823719 0.13443883 -0.20461874 0.22242606 0.16055349 -0.15476358 -0.24066089 0.108738914 0.1791685 -0.11875263 -0.04078311 0.19705194 0.22000341 0.09214498 0.051620897 -0.053155363
1191 0.075672075 0.02138026 0.06861513 -0.09527416 -0.0028530536 -0.10948363 -0.065865465 -0.06273028 0.04731082 0.11230043 -0.026865562 0.03486436 0.04651486 -0.14738406 0.0814956 -0.010811551 0.052550796 -0.05957719 0.16587827 -0.102927074 -0.009026281 0.07816801 -0.0727994 -0.031067556 -0.13022669 -0.024681233 -0.005164508 -0.019159973 -0.09445557 -0.006868846 0.031478755 0.030859377 0.10075114 0.068682 0.007233793 -0.0031213076 0.03985212 0.0017389203 0.073497914 -0.21779801 -0.116447896 -0.031122338 -0.03694406 0.11172348 -0.08716443 0.021439899 0.02611022 -0.055691436 -0.044332623 0.10124476 -0.03993358 0.037522297 -0.027466273 -0.047819868 -0.15732339 -0.023759538 -0.033431977 0.06654388 0.08123068 -0.020205237 0.085802965 -0.013627431 -0.012610043 -0.14308712 -0.07765244 -0.24936801 -0.17960283 -0.27026165 -0.14997387 0.18564403 -0.14969705 -0.14760521 -0.22756055 -0.08497881 -0.17234635 0.13729163 0.07773556 0.11309422 0.06364386 0.14747617 -0.16961999 0.17051888 -0.2146955 0.039917417 -0.12205529 -0.17449518 0.024588319 0.0041755997 -0.089617185 0.189083 0.082148015 -0.17414857 0.11934289 0.13358921 0.16007905 0.18861532 -0.0692054 0.1471683 -0.20220794 0.17905913 -0.09873398 -0.14879394 -0.103270695 0.017584184 -0.13149165 -0.174463 -0.11866105 -0.08357821 -0.0015917544 -0.1690519 -0.118833326 -0.1262882 0.18077897 0.13241634 -0.08983527 0.190986 0.20573266 -0.14319363 -0.21603782 0.33983034 0.11010775 -0.12606353 -0.13188753 0.14050981 0.1833443 0.16544026 -0.0026863231 -0.087384105
2123 0.1571083 -0.18507762 -0.030945038 0.1544088 -0.00015818767 -0.06292017 0.14297965 -0.1326784 -0.099074334 0.21986142 0.109369144 -0.07295163 0.101560086 -0.11243729 0.029411405 0.02213076 0.05071431 0.10934824 0.15814434 0.19066282 -0.15973264 -0.210617 0.07559252 -0.20881511 0.007692964 -0.08795862 -0.08778343 -0.07762281 -0.09988056 0.16799498 0.010787401 0.12095652 0.12067368 -0.030731684 -0.12428737 -0.15823515 0.22132355 -0.023968816 0.11595253 -0.12535791 -0.016495364 0.07194586 -0.038563173 0.1384888 -0.10240593 -0.065369315 0.043291103 -0.049063668 -0.032033842 -0.2567229 0.1728087 0.17754555 0.14526163 -0.1139703 -0.040211324 -0.00027986144 -0.042728886 -0.081167445 -0.1811899 0.12348602 -0.1445687 0.044157196 0.08239682 0.116410226 0.040920455 -0.15922047 -0.28583 -0.25234303 -0.062787145 0.21745849 -0.069424994 -0.29478782 -0.030898243 -0.21922998 -0.07121847 0.07198031 0.12957817 -0.020272888 0.23094419 0.1593127 -0.3165466 0.009498068 -0.22141753 -0.039909456 -0.11168855 -0.285501 -0.005058168 0.0092683835 0.1767049 0.15083311 0.22316422 -0.32574618 0.26315665 -0.011979529 0.35364425 0.32967272 -0.26976454 -0.12420947 -0.1256066 0.24943115 -0.019922307 -0.07105177 -0.11489769 0.18430744 -0.038019523 -0.1265227 -0.3062732 -0.08790563 0.09421588 -0.33249795 0.0553061 -0.18310311 0.25027838 0.079057984 -0.31453803 0.108188935 0.30164707 -0.19984035 -0.16474721 0.087752715 0.14299257 -0.34304234 -0.27636907 0.09157247 0.2549238 0.14531864 0.13238448 -0.27587357
1742 0.03586107 -0.088171095 0.083726496 0.13804546 -0.0061968053 -0.03573868 -0.006183152 -0.048337888 0.110742755 -0.009725111 -0.07323158 0.016015252 0.06859099 -0.027907608 -0.1768454 0.07624489 -0.035964184 -0.026614795 -0.0011853486 -0.0028344947 0.0008907331 -0.049219657 0.013694728 -0.085099936 0.07537709 0.05615406 -0.09641163 -0.04697607 -0.025188187 -0.0328285 -0.04632901 0.19842905 -0.05250558 -0.09583369 -0.07799558 0.016619567 0.0649889 0.041331936 -0.045035634 -0.12504035 0.02075265 -0.117104515 -0.07456902 0.015561111 -0.0088774925 0.11368809 0.10160241 -0.09011344 0.0053566527 0.0022665416 0.10827121 -0.073633984 0.022881966 0.09762956 -0.073308796 -0.04652721 0.10639638 -0.022041125 -0.069038324 -0.02647712 -0.021680415 -0.013164217 0.075803556 0.06643271 -0.0791805 -0.19432941 -0.20108384 -0.21132019 -0.15481712 0.14155743 -0.03050497 -0.018288622 -0.060675062 -0.16540918 -0.1571293 0.22293434 0.2355417 0.10415124 0.1354221 0.17538477 -0.06376725 0.14859234 -0.11604945 0.1370379 -0.12572645 -0.17504662 0.047879346 0.14292917 0.017136095 0.13620394 0.11133098 -0.031054158 0.25449723 0.05108959 0.006894835 0.11917496 -0.13831593 -0.08223368 -0.14128035 0.09658068 0.014568742 -0.10476991 -0.037533395 0.13586327 -0.028369917 -0.08140222 -0.081716046 -0.08630574 -0.17488097 -0.06890711 -0.011046314 -0.15413076 0.15397902 0.20135318 -0.21197143 0.15817457 0.047401965 -0.18070947 -0.20287468 0.21555474 0.17441954 -0.13942643 -0.14173877 0.111201406 0.07891623 0.11486561 -0.008611474 -0.047916707
1396 -0.12754217 -0.019033609 0.08897568 0.098608494 0.14530158 0.13543451 -0.15237238 0.21016066 -0.030898605 0.012885811 0.09041792 0.097228244 0.042771008 -0.11964541 0.005746342 0.0041877073 -0.120691985 0.13029659 -0.044562366 -0.19803582 0.06575269 0.10087308 -0.123445846 -0.08287089 -0.063281685 0.0014726591 0.09252437 0.12464079 0.06727051 0.07048389 -0.1068068 -0.09792227 -0.12913801 -0.07994731 -0.150673 0.0019967942 -0.1360719 -0.13987963 0.12055189 -0.024747936 -0.02738295 -0.07813624 0.07018629 -0.1900852 -0.050046682 0.044345584 -0.0053762053 0.10214332 0.059010107 0.02310344 -0.18339725 -0.033892274 -0.011281493 -0.025103843 0.0028517894 -0.037740335 0.030228171 0.13191512 0.029150652 -0.15153202 0.06435617 0.006873521 -0.073866695 -0.0086324 -0.15723792 -0.20951922 -0.18389027 -0.15910101 -0.27979514 0.12420743 -0.13249837 -0.20319825 -0.09392524 -0.1522727 -0.28936034 0.16795234 0.17809467 0.15129444 0.07472765 0.04394557 -0.24507739 -0.022294894 -0.1527097 0.15660495 -0.13699712 0.0058078584 -0.20273344 -0.08079162 -0.1238023 0.13909756 0.13910723 -0.22260246 0.22229692 0.14227292 0.088267006 0.18385108 -0.041889984 -0.16325119 -0.23923202 0.058883242 -0.30620307 -0.12588844 -0.14844261 0.20610341 -0.13133796 -0.104734875 -0.16629796 -0.042761154 -0.12996179 -0.11729051 -0.199202 -0.23161472 0.058716435 0.24639994 -0.21224609 0.1146313 0.09416956 -0.17534167 -0.09022888 0.21841346 0.22560921 -0.09389217 -0.09173776 0.27429762 0.26016766 0.18577158 -0.033791006 -0.11137287
2333 -0.024499727 0.061885633 -0.075320154 -0.06651237 -0.0034701712 0.019312512 -0.04832374 0.028297441 -0.014907615 0.14456247 0.08696917 0.09007138 0.02424857 0.0455402 0.018695414 0.06043756 0.03138348 0.108790606 0.040952608 0.03269961 0.025004605 -0.025233336 -0.018008227 0.047446214 -0.006504194 -0.023676492 -0.10486547 0.05993758 -0.056316998 -0.033388108 0.040351465 0.01747412 0.0006003205 -0.04620144 0.05379031 0.020918522 0.013430411 -0.041245785 0.10720295 0.08575222 -0.11133775 0.031818878 -0.034787465 0.07179995 0.15074037 -0.025967771 -0.0155892745 0.040811233 -0.047723703 -0.06606823 -0.05311868 0.049561884 -0.074110225 0.0076573268 -0.038599968 -0.04714565 0.020884618 0.013452684 0.06398048 0.008004176 -0.01442138 -0.004399305 0.06833588 -0.08758857 -0.04465761 -0.17524166 -0.072873294 -0.24794373 -0.048028484 0.1878192 -0.03193876 -0.13948199 -0.06801389 -0.18903911 -0.1369014 0.08901868 0.15311241 0.20963408 0.18522435 0.112914614 -0.08853939 0.061758187 -0.12173597 -0.012127941 -0.10862339 -0.14003827 -0.05219413 0.08165359 -0.02429104 0.122296564 0.15031987 -0.049685813 0.22604215 0.028424254 0.035199195 0.056318223 -0.1696965 0.14722839 -0.20374843 0.18728119 -0.12304945 -0.06774188 -0.13231708 0.06428861 -0.038999103 -0.03490886 -0.16086432 -0.17166494 -0.0390056 -0.11745666 -0.05453807 -0.20331763 0.062176317 0.071635544 -0.2279301 0.1707114 0.1950764 -0.13610348 -0.20797989 0.12983532 0.16464652 -0.13120936 -0.09773913 0.13484 0.09257933 0.06063588 -0.09009594 -0.10135603
1951 0.063266136 0.02378919 -0.032002907 0.029632896 -0.043477558 0.025722593 0.008432399 0.007944718 0.06363137 0.00422745 0.07174181 0.020680076 0.025932483 -0.0037767421 -0.05555885 -0.025837215 -0.016261397 0.033863064 0.019040165 0.07742719 -0.015055332 0.060595356 0.091456756 0.009410917 -0.12454676 -0.024002165 -0.08764855 -0.04497565 -0.025939606 -0.0013427876 -0.039749283 -0.07533673 -0.06403898 -0.011301267 0.024003703 -0.05846793 -0.01741036 -0.05060571 -0.08076094 0.005256105 -0.037462793 0.021280784 0.010552942 -0.057352245 -0.014072413 -0.02893084 -0.0690726 0.062165853 0.119082876 0.02470528 -0.054438964 -0.022880862 0.026819749 -0.055795886 -0.010766753 0.012960241 -0.050992582 -0.035529748 0.01603894 -0.036525216 0.06282554 0.025080461 0.014844926 0.019318908 -0.06322021 -0.17562006 -0.10061021 -0.09793152 -0.08512946 0.12290579 -0.07676774 -0.15548451 -0.12415895 -0.19781582 -0.13193356 0.18849821 0.14426845 0.103566684 0.038825966 0.06190119 -0.04039454 0.13892892 -0.1302884 0.05831696 -0.07452944 -0.11472639 0.0031239116 -0.01637733 -0.06501093 0.10820113 0.11983608 0.022938976 0.060383715 0.0117689315 0.14042717 0.0209897 -0.14916296 0.026783964 -0.13946049 0.12703973 -0.09631639 -0.010756277 -0.054317575 0.14288867 -0.06595529 -0.045088455 -0.17790648 -0.20234632 -0.07048863 -0.06492272 -0.017158812 -0.17236824 0.106853954 0.19142541 -0.20197849 0.11771744 0.08441116 -0.20931612 -0.10280126 0.094876796 0.09566449 -0.010681752 -0.18397743 0.08356871 0.12545446 0.15667082 0.03094045 -0.114255816
2391 0.10337974 0.006607285 0.07022795 -0.048062924 -0.00686253 0.012857963 0.07930305 0.029720126 0.043519948 -0.13204922 0.045933478 -0.040395517 -0.22136472 -0.105759844 0.046062656 -0.13990796 0.06669201 -0.047896124 -0.06906879 -0.08457401 0.11100971 -0.043414854 0.08121462 -0.066056736 -0.07499517 -0.009450436 -0.14835447 0.01173751 0.009045887 -0.05677416 -0.04676498 -0.011538924 0.027635336 -0.0109991105 0.049577635 0.14930533 0.010340858 -0.03242705 0.13263313 0.09968012 -0.12735097 0.032190487 -0.06165652 0.05649557 0.09972822 -0.06351303 0.047604706 -0.025009865 0.02332734 0.0163114 -0.074777566 0.09020732 -0.028632633 0.117774524 -0.05192646 -0.049577292 0.15550838 -0.04210199 0.16235262 0.07466471 0.017494254 -0.10399188 0.0001309099 -0.017576495 -0.14281315 -0.1483575 -0.11791085 -0.162393 -0.1415759 0.20864832 -0.14429243 -0.08685697 -0.18390353 -0.13182284 -0.1323177 0.16019754 0.042990405 0.16080219 0.112387955 0.09177318 -0.042625055 0.08095628 -0.20233628 0.029645594 -0.22127022 -0.017049618 -0.11133572 -0.061773896 0.07646243 0.2188986 0.06467438 -0.07182379 0.25326863 0.026629968 0.2600278 0.13357404 -0.16927466 -0.09917319 -0.18248296 0.1498299 0.02657852 -0.053903285 -0.112637796 0.10042457 -0.08753177 -0.14701982 -0.20533992 -0.17089847 -0.027772194 -0.02313904 -0.093134895 -0.2439611 0.22140631 0.08426503 -0.08311228 0.07026223 0.14701426 -0.19562802 -0.06324402 0.09016161 0.09566775 -0.16918787 -0.18697104 0.081104204 0.06648741 0.22415347 0.081851944 -0.07859198
2173 0.13199759 0.04044635 0.057836186 0.06244996 0.049921468 -0.08322593 -0.055144317 -0.0073635215 -0.025808046 0.16819507 -0.14817242 -0.020373411 0.028254507 -0.077373326 0.045702193 -0.041229945 -0.032845818 -0.05806046 -0.019658223 0.09146872 -0.12247426 -0.045632068 -0.024931177 0.02386664 -0.032087803 -0.01850985 -0.09189968 -0.0732 -0.039801087 -0.00088468066 0.12033037 0.030862128 0.044375293 0.07233241 -0.04953096 0.016724976 0.04094567 -0.008346067 0.06648684 -0.019434497 -0.07744028 -0.07686505 -0.12786712 -0.06316752 -0.078350775 -0.05471805 -0.07819269 -0.14846995 0.028085902 0.013465941 0.026463358 0.13654298 0.04663717 -0.058549333 0.01902186 0.00797219 0.015598961 0.046863783 0.06330443 0.07387035 -0.16609697 0.033442292 -0.069462195 -0.039167672 -0.076527394 -0.17219436 -0.03511219 -0.15415347 -0.12081916 0.17020184 -0.11498661 -0.11361031 -0.09625829 -0.03660755 -0.06686051 0.1310058 0.08388143 0.085117385 0.04997585 0.06913938 -0.023959752 0.060674865 -0.06751997 0.035876915 -0.030937683 -0.12346765 0.027157925 0.013494029 -0.0664082 0.120974086 0.039432246 -0.050307613 0.08700935 0.07140129 0.1575905 0.06063717 -0.1355942 0.09698937 -0.08275636 0.1340055 -0.14629617 -0.0806832 -0.052684512 0.16417652 -0.018994324 -0.002752349 -0.08217101 -0.08827987 0.012891947 -0.08315925 -0.022960447 -0.16783012 0.09261248 0.15912017 -0.18624637 0.14063846 0.17461097 -0.05880964 -0.1652014 0.13623448 0.065814205 -0.11851778 -0.07695727 0.10911325 0.14768016 0.11905273 -0.0421372 -0.03850461
1952 0.03917697 0.051245265 0.057293408 -0.0044994066 -0.012566369 -0.00646691 0.036505528 -0.014402344 0.058008686 -0.07184696 -0.07176562 -0.050275758 -0.029426398 -0.03277082 -0.046784665 0.03706086 0.097421266 0.03975282 0.04730016 0.067877226 0.05153504 0.073371075 -0.023500476 0.13996859 0.12963215 -0.0510203 0.056177273 -0.053308677 -0.021504883 -0.097252786 0.057278767 0.06741348 0.05088321 0.0027596361 0.0018254638 -0.031138765 0.044800237 0.015337617 0.049000442 -0.016553007 0.07675787 -0.006880399 0.03305862 0.054393485 0.0973563 -0.000917617 0.075927004 -0.10856638 -0.011026636 -0.09430298 0.028962888 -0.034518607 -0.08515463 -0.06487671 -0.035148777 -0.04381288 0.02297887 0.11058469 0.08061724 0.015286731 -0.08073621 -0.01787155 0.06035553 -0.05403557 0.06942735 -0.018103862 -0.11029282 -0.1143752 -0.06508843 0.11051962 -0.1155198 -0.041939717 -0.08814882 -0.11071245 -0.10450029 0.086989656 0.111914776 0.038961373 0.07083169 0.12558033 -0.024131715 0.06632942 -0.08100024 0.07884826 -0.07915583 -0.046744477 -0.016063485 0.019812258 0.025863677 0.070177674 -0.05753538 -0.0899886 0.108227484 0.061009523 0.081208885 0.06463579 -0.043327805 0.019204212 -0.0821375 0.067530386 -0.07335326 0.054594792 -0.01984567 -0.015104142 -0.080286264 -0.06709687 -0.07672267 -0.134731 -0.07208374 -0.078789316 -0.058374412 -0.17704831 0.074113734 0.18946034 -0.19880395 0.09724588 0.124545485 -0.039185464 -0.21199559 0.079022676 0.15115328 -0.10511717 -0.07335358 0.12249699 0.14636964 0.01428791 -0.15530723 -0.032252233
1289 0.05564204 0.03810593 -0.014820652 0.03907175 0.06471583 -0.08053023 0.06951302 -0.013966083 -0.04532224 0.009614604 -0.04410462 0.025265502 -0.026283486 -0.07574983 0.028845318 0.088675715 0.06784754 0.011451265 -0.076897085 0.041744296 0.06889838 0.055290673 0.06505307 -0.009846888 -0.059521135 0.04215915 0.07557795 -0.13634577 0.08928079 -0.039157696 -0.062850684 0.07435824 0.011523782 0.030719941 -0.019961381 0.011247045 -0.029128142 0.0021358712 -0.0115328245 -0.036601085 0.07871411 -0.034469496 0.024897443 0.06884493 -0.03353402 -0.013979947 -0.0149434935 0.024291614 -0.023224087 -0.014437146 -0.020971837 -0.078618996 -0.018764868 -0.0034169792 -0.03236834 -0.041512806 -0.012159711 0.0097106965 -0.04401536 0.00019910197 -0.06629113 0.037933353 -0.09570415 -0.0032083252 -0.035677157 -0.13156548 -0.095250905 -0.068903305 -0.12905593 0.13559149 -0.031512205 -0.14940158 -0.13646102 -0.05900807 -0.08240469 0.052393246 0.06722194 0.07761068 -0.011365385 0.09035815 -0.10675417 0.028746543 -0.10086022 0.05473401 -0.14692852 -0.035495177 -0.043895047 -0.039230146 0.024501063 0.03375581 -0.015896382 -0.042158186 0.052679587 -0.030919883 0.07017619 0.090085104 -0.055999335 0.048851155 -0.06125203 0.10593307 -0.111515835 -0.0142083885 -0.056699216 0.082637906 -0.056513116 -0.071247764 -0.08753198 -0.11765143 -0.13909423 0.013836894 0.006234405 -0.15777759 0.13669367 0.06869319 -0.11011857 0.03165147 0.10423588 -0.09123991 -0.11323118 0.15520811 0.03949016 -0.030707208 -0.1210057 0.119912975 0.07632739 0.03294471 0.034888763 -0.029902345
651 0.09399393 -0.09315952 0.12933098 -0.17124873 0.1205494 -0.02586899 0.04315209 -0.020842355 0.07064796 -0.05667811 0.17337494 0.0026197513 0.03483694 -0.13508755 -0.11847951 0.014417248 0.024833158 -0.023041224 0.020990834 -0.03256377 0.008506155 -0.054489855 -0.14678195 0.01486948 -0.056541093 0.009133187 -0.075037844 -0.09839493 -0.026358811 -0.112397425 0.05083003 0.026775245 0.06877516 0.018366467 0.07001804 -0.07943209 -0.03640085 0.030158065 0.03472751 0.08455872 0.124620214 -0.12007933 -0.010573085 0.10605661 0.072663024 -0.046287443 0.0064156572 0.041786518 0.026303852 -0.03699312 0.045435604 -0.009510117 -0.061438486 0.024114013 0.08384993 0.14049204 0.104357496 0.07977579 0.11852918 0.056335308 -0.00079357787 0.04736597 0.023228338 0.05272107 -0.109085254 -0.24783318 -0.086170614 -0.24299435 -0.06684071 0.20568796 -0.10456906 -0.15562634 -0.20050023 -0.1403231 -0.1507434 0.11038159 0.13169426 0.21250387 0.077480294 0.07586398 -0.01894878 0.17683049 -0.034130782 0.0620867 -0.2021091 -0.25445047 -0.078474656 0.101567134 -0.022782996 0.11631724 0.12679878 -0.12801042 0.19256492 0.065757036 0.11116937 0.19174854 -0.031351864 0.027074764 -0.15943263 0.2656534 0.045139283 -0.17777748 -0.00659001 0.07340478 -0.028885212 -0.113607004 -0.16131428 -0.118477784 -0.027450213 -0.1753873 -0.12052 -0.14890398 0.05749051 0.26302448 -0.19029956 0.12472936 0.17300642 -0.096787915 -0.19299102 0.1729415 0.1857058 -0.21378763 -0.10512103 0.1697633 0.14983392 0.2444448 -0.06971036 -0.11451372
1708 -0.074811414 -0.07180008 -0.02913142 0.07565083 0.013044401 -0.019666594 -0.040665403 0.03745406 -0.0145361535 -0.0004006645 0.019130586 0.035598956 0.09008517 -0.05311347 0.02564933 0.024495155 0.12991989 -0.012974737 -0.044540435 -0.014019101 0.0074368455 -0.08671329 0.049323134 0.05588249 0.06378501 -0.027483627 -0.012835225 -0.011160718 0.06830809 -0.06795735 0.039194144 0.018679107 -0.07506298 -0.115028925 0.06403339 0.07771671 0.044037662 -0.065504104 0.025637481 0.09367622 -0.070487894 0.044668064 -0.0051143984 0.019565154 -0.015171419 0.01633392 0.07442079 0.04764982 -0.058816906 -0.028269425 0.043582756 0.06129926 -0.045745876 0.07126836 -0.02594848 0.0014744005 0.051973514 0.10660417 -0.043062344 -0.033197694 0.04227106 0.07532305 -0.0036290318 -0.053589173 -0.039038103 -0.13505858 -0.08102883 -0.116681814 -0.11445142 0.12508456 -0.03852892 -0.10413987 -0.09106181 -0.03551628 -0.18241133 0.03688426 0.13383144 0.06515651 0.061497558 0.11415456 -0.16276918 0.11119086 -0.099937186 0.12189875 -0.042079724 -0.05617793 -0.025439765 -0.04633088 0.028057223 0.061462305 0.057358388 -0.07253436 0.078892566 -0.031580172 0.05911585 0.07621006 -0.082067095 0.0072147483 -0.10416812 0.122049265 -0.046893936 -0.04217166 -0.05674146 0.046993494 -0.08471922 -0.062357884 -0.082080044 -0.10399188 -0.028265312 -0.07302203 -0.042614345 -0.14563915 0.07327252 0.10377687 -0.16476026 0.063563235 0.1019605 -0.17223532 -0.156294 0.007217361 0.09657229 0.036352992 -0.028282862 0.13424614 0.114663705 0.12661047 0.009856986 0.012679907
1507 0.11908889 0.019286316 -0.033420846 0.012520501 0.068305336 0.041984074 -0.050927363 -0.012794546 -0.1322276 0.10710202 0.024003595 0.045498665 0.0021479293 -0.02353333 0.054589182 0.053021707 0.024533564 -0.009203127 0.1112671 -0.018359702 -0.0085970545 0.006344374 0.06509427 -0.031142294 0.0059551285 -0.01634676 0.012644738 -0.0992298 0.012408104 -0.093961984 0.022370916 -0.009524334 0.03506399 -0.0765422 -0.016378352 -0.10644759 0.0027494887 -0.02203981 -0.021490874 -0.04812221 -0.0284961 -0.073455445 0.061748166 0.0043026917 -0.12785497 0.017627811 0.04510274 0.009352596 -0.034690805 0.07825395 0.0564959 0.13308726 0.06945284 0.005590236 -0.018909568 -0.024876386 -0.05241556 -0.09620386 -0.13528548 0.07509426 -0.011793515 0.02741149 0.01897136 0.016444663 -0.024459844 -0.08909005 -0.034177434 -0.11408888 -0.17014892 0.104787216 -0.12230089 -0.08260919 -0.13307625 -0.0582183 -0.07939463 0.09281638 0.1542372 0.108619116 0.065303646 0.09182353 -0.14331467 0.1376472 -0.16089214 0.13143557 -0.15222226 -0.063566476 -0.034434278 0.02355183 -0.12707007 0.15819722 0.10456194 -0.09138564 0.15737307 0.064976096 0.16444068 0.06759675 -0.14107932 -0.10196504 -0.09762954 0.13590951 -0.13595009 -0.07793828 0.01725236 0.12006547 -0.12004578 -0.13624123 -0.059060607 -0.092808366 -0.056845713 -0.11644294 0.054667354 -0.1430614 0.2092161 0.07740242 -0.118114665 0.104908355 0.097245514 -0.12112886 -0.16090214 0.08492993 0.06406597 -0.020898605 -0.17840366 0.08916805 0.063400395 0.07835217 -0.028329222 0.025342463
1959 0.068077505 0.093286075 0.109313585 -0.066515915 -0.008652542 0.05675829 0.09649807 0.010760315 -0.042459056 -0.08976791 0.1051671 -0.042483803 0.017610498 0.12256933 0.05335508 0.033097837 -0.0009455499 -0.048612285 -0.05685835 0.06328901 -0.0027632087 -0.12875322 -0.027209418 -0.071036026 0.06455844 -0.1214234 -0.017238129 -0.13000716 0.07300656 -0.02693783 0.051246334 -0.0069142403 -0.0037855238 0.07868886 0.05207808 -0.020395357 0.034448683 -0.03732822 -0.020240488 0.010384933 0.110344775 -0.05899808 -0.010947394 -0.07336983 -0.048839126 0.02305112 -0.009713446 -0.14128484 -0.010677302 0.07100242 -0.021081323 0.044831965 -0.054114964 -0.14254479 -0.02074636 0.123873904 0.033110194 -0.030408518 0.07237521 -0.090393566 -0.0135252075 0.009539527 -0.042485915 0.016370576 -0.011891244 -0.036413684 -0.116650306 -0.055670094 -0.04873401 0.12818362 -0.046368055 -0.10673485 -0.120656036 -0.19697855 -0.19564338 0.043350097 0.15123011 -0.026725596 0.052470747 0.078156345 -0.047063906 0.14816357 -0.07474729 -0.010472204 -0.21350761 -0.03379243 0.039245352 -0.030082723 -0.008573894 0.18234296 0.044223405 -0.023238773 0.1042402 0.052112333 0.13759579 0.0042026606 -0.11502774 0.13376322 -0.13721257 0.10269705 -0.09789093 -0.07951044 -0.124293976 0.085421294 -0.16409165 -0.15658478 -0.095193 -0.09291838 -0.18205673 -0.11189575 -0.057276204 -0.116624944 0.16334648 0.18900535 -0.17704678 0.12780313 0.12390276 -0.17637046 -0.12688659 0.083580576 0.06733241 -0.20607457 -0.10101353 0.07623855 0.21673796 0.21008873 -0.07194134 -0.12813789
1841 -0.06582863 0.11981681 0.10987746 0.0617252 0.16568789 -0.091779836 -0.10366232 0.005838981 0.07240326 0.0022249902 0.025446545 -0.043776363 0.001940327 -0.004821488 0.06395192 0.0635752 -0.08039482 -0.0073472764 0.03416263 0.05828802 -0.09503636 -0.033366363 0.059026234 -0.14284952 -0.18544142 0.037378624 -0.02149229 -0.050127182 0.031933483 -0.029495733 0.017964449 -0.07514355 0.13530071 0.0987076 -0.020456627 0.13028555 0.041674275 -0.13461709 0.13992842 -0.030999612 -0.020920523 -0.066977665 -0.059784714 0.056835145 0.12083135 -0.09414684 0.07018651 -0.07067351 -0.024125755 -0.097236045 -0.025269456 0.12507538 -0.039488427 -0.05150292 0.07538291 -0.10975983 -0.04934123 0.15960476 -0.023231728 0.15151604 0.003439722 0.0114846835 -0.044040408 0.05639304 -0.09960199 -0.14634554 -0.24511582 -0.097069226 -0.13804002 0.09097935 -0.12315855 -0.09602127 -0.1490511 -0.12681778 -0.058957536 0.13937937 0.11671609 0.042232074 0.16821747 0.039870992 -0.13037084 0.049645588 -0.11918906 0.044169746 -0.15373486 -0.08271631 0.056677286 0.01961087 0.026519407 0.131506 0.15372984 -0.09048092 0.122983456 -0.025546823 0.026448324 0.14049713 -0.026069589 0.028391864 -0.073418304 0.024333572 -0.1259926 -0.090380915 -0.13834417 0.090989135 -0.12967627 0.0071883434 -0.0554299 -0.109654486 -0.08606578 -0.086407036 -0.13915469 -0.1566346 0.1155045 0.1249663 -0.219058 0.17689691 0.026217455 -0.12328596 -0.19934244 0.06570262 0.16536066 -0.15169774 -0.10221218 0.14811754 0.10335369 0.13695605 -0.08741147 -0.13207328
882 0.08259475 -0.0040561035 0.17566106 -0.0424271 0.04791003 -0.06531544 -0.0020326409 0.0063320133 0.05579073 0.010842124 0.07268315 0.022888964 -0.13648202 0.012726078 0.028719082 0.051069763 0.10911317 0.027928336 0.13327754 0.07223394 0.13841163 -0.018107314 0.01826985 0.02157769 -0.095316365 0.048502713 -0.090072796 -0.054867536 -0.07052684 0.03398933 -0.023027496 0.10599074 -0.04235466 0.021545991 0.03875664 -0.064078756 -0.021120466 -0.0767742 -0.043043338 -0.043982472 0.1295697 -0.045544364 -0.05152365 0.063991114 -0.030182663 -4.977284e-05 -0.0028597962 -0.0296323 -0.004551807 0.12700659 0.033577774 -0.080161825 0.10987466 -0.12788515 0.046831958 -0.11177158 -0.000587065 0.05833255 0.018723728 -0.027821122 0.03128824 0.11541993 -0.061260648 -0.07105354 -0.09632098 -0.17617618 -0.08851049 -0.10889674 -0.14241776 0.17986575 -0.16299862 -0.13221641 -0.22851075 -0.117060184 -0.17950743 0.15910187 0.18622403 0.12557597 0.03556915 0.13911656 -0.1131214 0.102413855 -0.1417651 0.08945615 -0.21013635 -0.19802076 -0.05460358 -0.022697289 -0.0788117 0.15794905 0.1205194 -0.09999695 0.17997503 0.048007656 0.117070265 0.18174313 -0.12792817 0.0923074 -0.19899185 0.111049265 -0.14533766 -0.13445851 -0.10899786 0.18656804 -0.12798086 -0.19071262 -0.13172993 -0.119793035 -0.05760727 -0.13244818 -0.027668085 -0.16681302 0.09813002 0.08035922 -0.22617212 0.042677127 0.10045655 -0.2093194 -0.26021397 0.035124574 0.15776345 -0.037209854 -0.08072593 0.121016495 0.15575643 0.12590541 0.053530008 -0.13769065
1939 -0.05431044 -0.044443976 0.003948927 -0.06929658 -0.038373254 -0.04251915 -0.10515822 -0.01759367 -0.07452209 0.1665171 -0.07157822 -0.08432018 -0.054922774 -0.07219021 -0.00824743 -0.054959975 0.008444284 0.0033236628 -0.04599585 -0.0231475 -0.085542545 0.08222294 0.019229488 -0.07520648 -0.010580196 -0.12101753 0.009923825 -0.060063828 0.037544895 -0.057904564 -0.0025947436 -0.049392786 -0.107594825 0.08414935 0.037745893 0.058585383 -0.07762441 0.03104023 0.102253355 -0.02723074 -0.04076508 -0.03322461 -0.036714442 -0.083773285 -0.014054834 -0.07693118 0.09712765 -0.10609457 -0.0005187267 0.027723737 -0.037362523 0.05731544 0.00031973943 -0.009152197 -0.058895107 -0.038081653 -0.020724861 0.069213815 -0.09329983 -0.016380126 -0.11340347 0.028664317 -0.041701097 0.004383017 -0.12597829 -0.13361251 -0.06465137 -0.0867887 -0.10913821 0.05729981 -0.039675657 -0.119687445 -0.06591774 -0.06521322 -0.051988777 0.11242567 0.00075145665 0.043732345 0.14610636 0.096439 0.038460404 0.06988307 -0.097449586 -0.017990481 -0.04827138 -0.09163856 -0.044018455 -0.023983767 0.004891967 0.029979052 0.16326457 -0.033608347 0.04637126 -0.0006233604 0.09668884 0.053883597 -0.13859586 -0.016591784 -0.077770635 0.026899006 -0.13669178 -0.058702257 -0.1405633 0.088669464 0.014507505 -0.09501889 -0.12076172 -0.032078966 0.014047055 -0.05726324 -0.01577469 -0.11206773 0.15603197 0.10823524 -0.0768983 0.03445772 0.10607475 -0.12714638 -0.10887518 0.11052831 0.10026848 -0.07207445 -0.031815916 0.095019296 0.10358643 0.17006227 -0.035745773 0.03226307
2385 0.012502511 0.023561157 0.1508071 -0.096336454 -0.05904247 -0.09047648 -0.032835323 0.016283408 0.044735476 -0.005472143 -0.049727328 -0.08908795 -0.021108473 -0.0525207 0.008667565 0.047990285 -0.009744723 0.025149385 -0.0055154767 0.054567132 0.026448151 0.0023961137 0.11622874 -0.02367605 -0.11061357 -0.0431418 -0.0770031 -0.07752945 0.10179555 -0.0024544368 -0.10607771 0.029077578 -0.049417313 0.103905514 -0.07779346 -0.08574729 -0.0029738266 -0.03144358 0.045071106 0.020396365 0.012967864 -0.09481664 0.04477501 0.022358686 0.013642485 -0.0021210758 0.020300675 -0.05413573 -0.02917767 0.029723128 -0.025890846 0.009504093 -0.048769135 0.047909223 -0.022315325 0.030112889 0.06689576 0.09937823 -0.007922539 0.02997889 -0.0017938461 0.03695327 -0.02465976 -0.086683005 -0.03491063 -0.14181072 -0.15951185 -0.14421162 -0.099784546 0.10242578 -0.09731598 -0.039563086 -0.1966588 -0.07736008 -0.0890501 0.08859024 0.10026238 0.08930822 0.11442057 0.142775 -0.06695607 0.16003034 -0.15944698 0.06710967 -0.1309832 -0.12423956 -0.016615815 0.08288065 0.0020081666 0.06777689 0.12280907 -0.07203052 0.1396436 0.0497542 0.07323136 0.12879553 -0.09710583 -0.037104134 -0.059663713 0.13266708 -0.026565036 -0.054683458 -0.09189409 0.14758742 0.014264519 -0.14147271 -0.13315499 -0.08714057 -0.058919236 -0.122543745 -0.05003669 -0.18008417 0.075790085 0.046805322 -0.11749363 0.03466617 0.19367953 -0.13139704 -0.16059357 0.08144559 0.07958605 -0.15482534 -0.10107234 0.12240283 0.09979566 0.12399487 -0.10229816 -0.05155466
1975 0.045732535 0.0025213147 0.13763824 0.09397402 -0.07463033 -0.005869819 -0.07217327 0.0036772226 0.0762375 0.0012976137 -0.037619933 -0.03514991 0.1160527 -0.008730507 -0.025660064 -0.10664795 -0.07155694 -0.018126188 -0.002351275 0.062351055 -0.06791234 -0.10506837 0.08904476 0.12066738 0.08789566 0.06836785 -0.13985501 0.018453619 -0.02502127 -0.016489737 -0.023495728 0.04304223 -0.0043633175 0.08779159 0.08101245 -0.11732676 0.047941834 0.07514374 -0.055680215 0.0057021277 -0.005116047 0.087931514 -0.015659884 0.068091765 -0.037490796 0.0011037698 0.12417393 -0.072528295 0.032435633 -0.11599438 -0.04252539 -0.07365715 0.00087372074 0.06548067 -0.06148869 0.004113997 -0.0074292547 0.049943425 -0.0775574 -0.005076931 0.06752036 -0.04849786 0.119072124 0.10622635 0.0022179335 -0.073369704 -0.1434145 -0.16885823 -0.08127459 0.10987862 -0.09744876 -0.11590687 -0.06441105 -0.12448167 -0.13009854 0.0842083 0.12225288 0.025851808 0.064840965 0.10521196 0.05120999 0.09886486 -0.13560288 0.10493246 -0.17988005 -0.15750046 -0.09546764 0.1047594 0.021497024 0.08039666 0.0985893 -0.11581764 0.037730914 0.026958985 0.1401495 -0.009730105 -0.17124099 0.10941565 -0.11791747 0.10046378 -0.059870154 -0.11083985 -0.14604749 0.1391441 -0.05940357 -0.09836872 -0.17766382 -0.195877 -0.04177925 -0.21548754 -0.06460754 -0.18115908 0.09561002 0.08813033 -0.14576095 0.10204414 0.049403645 -0.093628556 -0.10177022 0.19829144 0.21809389 -0.1517511 -0.13756879 0.085840285 0.20090814 0.07350333 0.028863266 -0.0965779
440 -0.118362255 -0.1784055 -0.13743342 -0.20041029 0.08903877 -0.07518724 -0.03462265 -0.010756752 -0.20524754 0.05356037 0.09519822 0.082671575 -0.1014345 0.1397662 0.17519377 0.031674363 0.15767217 -0.1640767 -0.07495074 0.08847082 0.0066727977 -0.0559153 -0.19077817 -0.029333351 -0.08286639 0.18109643 0.07261022 -0.039903942 -0.03230023 -0.03304274 0.10527981 -0.03413297 0.17558411 0.14997959 0.062364046 0.09870702 -0.13463546 -0.102387 0.026390737 0.05510115 0.1657985 0.20603669 0.0464645 0.002452899 0.086021 -0.15018865 -0.15625173 -0.0649488 -0.07025181 -0.0057089366 0.112119645 0.03422675 0.05572145 -0.057161592 0.027723404 -0.13772984 0.19103242 -0.0068204934 0.1312109 -0.10310358 0.00055529526 0.031289496 0.04452624 0.0019362466 -0.08136946 -0.3103554 -0.2714977 -0.26571992 -0.08036997 0.16754642 -0.10853591 -0.21446638 -0.19893599 -0.053174473 -0.2567195 0.28890547 0.36828423 0.18102881 0.20709446 0.0052022752 -0.102426656 0.069874786 -0.1638686 0.038735647 -0.29765582 -0.24033096 -0.023175186 -0.01892261 -0.16401698 0.05942933 0.15314452 -0.15676229 0.24757722 0.10045475 0.1503179 0.2507581 -0.036226496 -0.002188087 -0.15991281 0.1538727 -0.19678599 -0.05728364 0.026121367 0.08262173 0.057921488 -0.15563539 -0.22490774 -0.14438982 -0.066213265 -0.0959633 -0.15235804 -0.22372878 0.23407635 0.15556705 -0.24322909 0.16455801 0.07314181 -0.1880433 -0.22676924 0.11929171 0.14933832 -0.124805525 -0.07616389 0.13970281 0.24111357 0.20381203 0.01835078 0.005501514
669 -0.009161827 -0.11988376 0.07908198 -0.016522322 0.020796591 0.109376974 0.023173323 -0.073347464 0.05313342 0.052151624 0.06341051 0.026833443 0.03981941 -0.018789366 -0.1200824 -0.07947143 0.031447403 -0.03599651 0.05155401 -0.023831017 0.051272478 -0.05543721 -0.04302121 0.098664835 0.034334365 0.016405972 0.034787036 0.08674333 -0.013859081 0.03728497 0.0055567385 -0.028291028 -0.03466705 -0.04278132 -0.026817672 0.11122718 -0.08971735 -0.008655031 -0.014661045 -0.0011663557 -0.069561444 -0.01711983 0.042586602 -0.1087405 -0.08799555 0.14951515 0.060694773 0.028977796 -0.025907664 0.02168059 -0.026481008 0.051765308 -0.16714169 -0.009467457 0.08747047 -0.11205236 -0.047960225 0.047420625 0.03740274 -0.04736399 0.029030468 0.012528643 -0.023041904 0.020771006 -0.12531923 -0.14072989 -0.18669659 -0.12734984 -0.15637851 0.13885051 -0.17649904 -0.15327932 -0.087201305 -0.084752865 -0.24600402 0.029704008 0.21795014 0.061199892 0.0040630894 0.08706306 -0.10343388 0.11706597 -0.06640889 0.079806946 -0.22733144 -0.15897985 -0.011921185 0.054642763 -0.004011174 0.060322274 0.12831827 -0.09743217 0.17251179 -0.01802741 0.13085279 0.0023917793 -0.024378905 -0.046589512 -0.17853059 0.10720001 -0.03659714 -0.1266458 -0.15225871 0.15889959 -0.13707317 -0.11590279 -0.08310677 -0.03399278 -0.08510866 -0.14113006 -0.14367272 -0.14807858 -0.048984945 0.14837763 -0.18731673 0.12927532 0.17858592 -0.07881564 -0.13287345 0.1031102 0.15157753 -0.055241466 -0.15138942 0.088506736 0.12199295 0.13349324 0.047854565 -0.03389275
1568 0.005772672 0.01173012 -0.081053816 0.05061337 -0.1069937 0.0061330763 0.09294655 0.15661998 -0.026546605 0.094495624 -0.11154584 0.07390219 -0.008510597 -0.04139393 0.015672266 -0.0065977797 -0.044384312 0.029126724 -0.054415174 0.057900902 -0.0014131005 -0.03974588 0.10297502 0.01264853 0.03909823 0.07227676 0.04176323 0.029009387 0.104484096 -0.057077304 0.04551946 0.08127716 0.060690954 0.06044037 0.026500557 -0.005577012 0.050939478 0.054972034 -0.055982437 0.020875106 -0.08551127 0.00786681 -0.06340479 -0.081098095 0.0005637342 -0.044708174 0.06810084 -0.03308167 0.018793363 -0.10747924 -0.07295224 0.096556515 -0.07532221 -0.09178806 -0.11610681 0.024335556 -0.018063834 -0.06856854 -0.05918148 0.10355983 -0.022777764 -0.042327147 0.08543521 -0.05180293 -0.09999824 -0.068815924 -0.050380055 -0.08242908 -0.048106972 0.031745177 -0.038112473 -0.022104949 -0.11490481 -0.0080907345 -0.057312436 -0.011814234 0.0479315 0.0055092527 0.04203912 0.021358298 0.005652284 0.09778527 -0.061514843 0.0034454782 -0.086926565 -0.014317931 -0.050204176 0.05875016 -0.027582582 0.046492204 0.077582896 -0.01608906 0.040084433 0.046766035 0.05737198 0.118304834 -0.038097885 0.0064563584 -0.076271795 0.010074715 -0.054756887 -0.00028979417 -0.06535747 -0.008217476 0.014500789 0.00043881143 0.0113953035 -0.0027184656 -0.062468413 -0.13252322 -0.02151415 -0.07304994 0.046377942 0.08410795 -0.062159494 0.04497168 0.060123987 -0.08837554 -0.024472704 0.05988599 0.09699957 -0.018447185 -0.05676318 0.09613626 0.043952923 0.08265864 -0.092131086 -0.020965502
2006 -0.045528132 -0.022318272 0.028786182 -0.06754495 -0.00012661911 6.542956e-05 0.07107596 0.101443835 -0.01759862 0.037137166 0.00046643917 -0.051315628 -0.046824522 -0.0032794627 0.036321282 -0.0077284407 0.010530167 0.07834471 -0.043182008 0.063348 0.069377564 -0.011481118 -0.032304965 0.00018311516 -0.084471226 0.00095302786 0.10386971 0.055151954 0.14393704 -0.06917679 0.042917497 0.053395428 -0.11526787 0.012167567 -0.0154295005 0.12840797 -0.02176182 -0.10293765 0.031185744 0.09484488 0.007723308 0.03905292 0.020985542 -0.009553367 0.07816589 -0.07317237 0.032733385 0.044223487 -0.027869493 -0.031005837 0.042923983 -0.026732638 -0.09459652 -0.10661303 -0.03242885 0.092438094 -0.05352863 -0.1127863 0.029919468 -0.097726114 0.11673573 -0.08250309 0.031235838 -0.08852146 -0.0598699 -0.092441596 -0.061954085 -0.075968854 -0.095557615 0.06723738 -0.0051870565 -0.109703645 -0.081187144 -0.020930592 -0.03415679 0.07719219 0.14564346 0.07080292 0.067324385 0.060648065 -0.1026811 0.08114501 -0.094312154 0.08101599 -0.058906335 -0.06808414 -0.08141788 0.1124915 -0.07936414 0.09074196 -0.010032857 -0.0020363214 0.021356123 -0.0017328219 0.058744423 0.062324185 -0.056881927 0.02240599 -0.1551823 -0.01771994 -0.053431313 -0.005842419 -0.09923485 0.030070905 0.0027580466 -0.026261332 -0.05513905 -0.06840204 0.03356597 -0.00339385 -0.009599809 -0.16656287 0.044514578 0.047354158 -0.10070216 0.098053545 0.018953243 -0.0699348 -0.06399734 0.05586228 0.091850676 -0.01991513 0.025988454 0.03790598 0.08206461 0.019129988 0.0151031045 0.013069383
1713 0.051826376 -0.098324746 0.11387771 -0.10496269 -0.1431705 0.10430317 -0.05774043 0.08840074 -0.022000175 0.0047965185 -0.0020126116 -0.078813516 0.049149044 -0.110764414 -0.0262249 0.0544529 0.09583165 0.053270355 0.01981451 0.07804027 -0.05909294 0.040627223 0.030394455 -0.042385854 -0.095328934 -0.06102688 -0.009920169 -0.02086934 0.03974638 -0.10300934 0.08653598 -0.057749745 -0.042355645 0.026554834 0.119415626 -0.11056894 0.06741632 0.093840785 0.10171641 0.031017158 -0.091728136 -0.013386122 -0.08605937 -7.942095e-05 0.053053983 -0.0828102 0.05165186 -0.11488781 0.12264864 -0.009880936 0.09852565 0.009123668 -0.042963948 -0.019363772 0.012130308 0.10072498 0.06817545 0.07898506 -0.09810142 0.013357911 -0.101257235 -0.057127055 0.14419226 -0.025598312 -0.10200253 -0.13242017 -0.05625706 -0.12770738 -0.05912198 0.1543815 -0.04625724 -0.040942375 -0.15193148 -0.032435693 -0.15622637 0.1506441 0.0722402 0.07040564 0.19285236 0.03626211 0.019388987 0.10494611 -0.16959338 0.08378082 -0.12799802 -0.17359677 -0.07206947 0.09729271 -0.16596435 0.09950243 0.15782541 -0.10033184 0.1680664 0.10111246 0.09350887 0.14730161 -0.21760708 0.03673353 -0.07748243 0.062903784 -0.0012828978 -0.121843025 -0.007204073 0.12352306 -0.07685646 -0.053552482 -0.09546598 -0.102545 -0.09608248 -0.16923292 -0.051559325 -0.06646653 0.18782651 0.10879426 -0.12555936 0.07320812 0.118336335 -0.049224358 -0.21685237 0.050558187 0.12016133 -0.14811455 -0.08021667 0.072732635 0.0705848 0.11227875 -0.13709618 -0.03037429
1438 -0.10246817 -0.08544681 0.011426885 -0.04342764 0.15698448 0.026719896 -0.089351475 0.13734058 0.027662424 -0.023804301 0.043268792 0.09213335 0.042597994 -0.037218947 -0.10178994 0.038619637 -0.072602175 0.0893548 -0.011684448 -0.124159604 0.1406142 0.071084276 -0.2084042 0.036324564 0.042049065 0.06563896 0.06365826 0.088250905 0.06085307 0.09088475 -0.03966194 0.027343139 -0.046398807 0.026979813 -0.12458598 -0.020418853 -0.12216109 -0.17001341 0.092865996 -0.035677657 0.02146645 -0.05847057 0.029077498 -0.15282449 -0.022803865 -0.029544415 0.061003312 0.12817249 0.06484157 -0.08493299 -0.14874747 -0.0669797 -0.122205004 -0.0343516 0.08174695 0.05634369 -0.008051654 -0.010166966 0.058872562 -0.13563634 0.1003937 0.074712835 0.11853853 0.0066703795 -0.20782225 -0.16387194 -0.15624407 -0.20164701 -0.06129333 0.09753833 -0.16325565 -0.16905345 -0.1981861 -0.17989127 -0.20943558 0.07318294 0.19437808 0.09174961 0.064000286 0.111538626 -0.14718379 0.07294385 -0.16207917 0.14918701 -0.12157169 -0.04573435 -0.17051753 0.012482445 -0.114387035 0.17974025 0.12299008 -0.27106547 0.12741233 0.05147269 0.15972005 0.14472504 0.01100137 -0.14112814 -0.27294067 0.13788274 -0.2587321 -0.1366142 -0.09175653 0.14110796 -0.13095132 -0.11272763 -0.14365846 -0.010818341 -0.056588285 -0.11236986 -0.10687935 -0.25965384 0.089562744 0.18897533 -0.18466617 0.23778315 0.20145987 -0.12631932 -0.12974696 0.20039965 0.16715118 -0.08898081 -0.006691126 0.24761061 0.20652677 0.13467391 -0.11634464 0.018759418
1896 0.12818493 0.09237007 -0.057341933 -0.08861886 -0.025028262 -0.049045313 0.04499248 -0.012618379 0.039373834 -0.04085215 0.009181344 0.11028093 0.003877755 -0.10811283 0.03709264 0.013102516 -0.060184725 0.046917185 -0.052996065 -0.11238722 -0.061952274 -0.09555679 -0.0469331 -0.050644644 0.045723714 0.017970942 -0.021423377 -0.068185546 -0.025302775 0.016514074 -0.03436496 -0.019410955 0.0008025043 0.00012612445 0.032466672 -0.062430162 0.033383902 -0.0047192224 0.022311933 -0.08342316 -0.052215204 -0.06350955 -0.090878375 0.025697926 0.06256114 -0.11537045 0.04324237 -0.014186835 0.029784106 -0.0799313 0.006463792 -0.071801335 -0.0357597 0.124617204 -0.018008621 0.046385992 0.05594085 0.03328408 0.024837093 0.124005124 0.026855452 -0.011887437 -0.034834664 -0.02268474 -0.10377524 -0.107207604 -0.06287064 -0.17337205 -0.18376265 0.15759777 -0.061490193 -0.131075 -0.14602195 -0.08967235 -0.13383195 0.07371473 0.10613762 0.075136654 0.17636898 0.06767078 -0.118875474 0.09993226 -0.21695548 -0.02880246 -0.2237741 -0.04508745 -0.12360685 -0.034179874 -0.005153311 0.15316316 0.1413418 -0.17451604 0.18729946 0.040510662 0.101511866 0.14534135 -0.122255735 0.101496264 -0.1729105 0.12790804 -0.014627299 -0.040151298 -0.08581569 -0.02781419 -0.060676277 -0.20485456 -0.14256541 -0.1012016 -0.10255381 -0.17970982 -0.10602658 -0.1721968 0.13006172 0.04962967 -0.093338 0.117103234 0.14351116 -0.21148916 -0.19600764 0.19925994 0.18625781 -0.12016496 -0.13554807 0.13487564 0.292697 0.1120536 -0.025230443 -0.20170031
1103 0.058347188 -0.033953145 0.09383526 -0.008296746 -0.03711298 0.030867854 -0.010547636 0.03817032 0.010684975 -0.0009952772 0.00842346 0.036254436 -0.045506578 0.021418441 0.042888895 -0.075051524 -0.05088174 -0.10311376 -0.034998532 -0.05312735 0.016225997 -0.11131965 -0.017570816 0.028040173 -0.012607638 -0.0053421175 0.041858792 -0.020806918 -0.027791524 -0.04333828 0.043247238 -0.047166545 0.014914137 0.015236344 0.05774672 0.041458085 -0.0781689 -0.004197655 -0.02486209 0.06421858 0.030237012 0.0026125798 0.06388306 -0.040609915 0.106072225 0.036274243 -0.07706865 0.057490066 0.049165588 0.08540874 -0.13147505 -0.10017361 0.05463053 0.026528584 0.0888816 0.13353746 -0.12466315 -0.14376524 0.061007995 0.019001408 0.062875986 -0.027029188 -0.036973394 0.006917769 -0.12852664 -0.09149255 -0.034481946 -0.044632822 -0.063909434 0.12644155 -0.14767313 -0.024591966 -0.13128634 -0.15882544 -0.0620486 0.14039455 0.046165362 0.114210576 0.06222898 0.0053537143 -0.059664406 0.056577194 -0.060769934 0.053349253 -0.07632065 -0.07256226 -0.028122582 0.040131167 0.009812406 0.024252193 0.11924925 -0.05005724 0.07470905 0.07572723 0.023099814 0.090697624 -0.0031320693 -0.016345555 -0.06661824 0.054534167 -0.03538537 -0.031824626 -0.099386685 0.02554159 -0.10458323 -0.10843476 -0.056015704 -0.044324495 -0.06945128 -0.0024750403 -0.00945473 -0.04858338 0.07258687 0.118483625 -0.05306238 0.053519715 0.12692848 -0.079256564 -0.059478313 0.12092221 0.14207776 -0.04297532 -0.05389772 0.035409518 0.098195195 0.10263555 0.010895266 -0.0065070153
1304 -0.12927182 0.09643995 -0.04825123 0.056647096 0.08052976 -0.054042425 -0.09809748 -0.088716276 -0.0034836968 -0.09701271 0.027520843 -0.002083666 -0.093870506 -0.01708163 -0.07372327 0.067451954 0.10416526 -0.16984057 0.09051487 0.0013669915 -0.016294746 -0.004644083 0.023553055 -0.08171238 -0.04826745 -0.083452374 0.10105099 -0.023312477 -0.080297425 -0.0689894 0.08472036 0.043043368 -0.020055722 0.0026557217 -0.010032465 0.056110755 0.045216016 0.052727714 -0.059238993 0.040720083 0.087494515 0.041170873 0.0452584 -0.09647308 0.07585195 -0.025475144 -0.081192434 -0.047714982 0.0026427552 -0.069179796 0.08467385 0.17728212 -0.032045048 -0.010939056 0.046129435 0.05611388 -0.0689236 -0.10293975 -0.009590034 -0.06698437 0.0628558 -0.023696309 -0.08715668 -0.0913877 -0.05409576 -0.19181505 -0.0936125 -0.12503947 -0.17505774 0.15394035 -0.00067585235 -0.19654529 -0.15302223 -0.11631723 -0.024839133 0.15407945 0.069816686 0.18216962 -0.033775587 0.017949939 -0.06275844 0.103043266 -0.07853442 0.041967824 -0.21043359 -0.099884175 -0.022427855 0.0037867771 0.008837465 0.18972804 0.065694876 -0.0020537288 0.14764097 0.029205238 0.1274743 0.117054485 -0.16468282 -0.010651046 -0.1894477 0.19668263 0.017401336 -0.07503997 -0.18352526 0.08841789 -0.111886606 -0.10826431 -0.12054395 -0.042162854 -0.12586105 -0.037867486 -0.08424432 -0.2265716 0.1286626 0.071996704 -0.10660157 0.22123204 0.05441866 -0.076933175 -0.25018013 0.0505595 0.10212114 0.052012585 -0.19020095 0.027214603 0.16197136 0.19258223 -0.06108779 -0.03326588
472 -0.08872843 0.020828659 0.048208456 -0.09984233 -0.087222576 0.09656779 0.05268902 -0.13009973 -0.06959888 -0.1468875 0.06194351 -0.054628514 -0.20606302 0.08536019 -0.0516804 0.18993047 0.02462251 0.05434637 -0.078357615 0.18099602 -0.008649364 0.14213032 -0.03896176 -0.0840681 -0.10617923 0.17685778 -0.036554422 0.039721515 0.12030297 0.017371561 -0.059652433 -0.08416213 -0.023581645 -0.13995849 0.02671003 -0.23026872 0.014801377 -0.12313867 -0.01649974 0.14870453 -0.037444722 0.071956225 -0.056815516 0.1949271 0.07747867 0.06928121 0.040193096 -0.07351916 0.10427677 0.054070722 -0.097623706 -0.0053248587 -0.098760985 0.1241967 0.22921261 0.03135158 -0.055557024 -0.10856299 0.04644311 -0.06365043 0.12289745 -0.057961598 0.03848115 -0.002423592 -0.12172769 -0.19906725 -0.09410217 -0.28927124 -0.11219746 0.13323425 -0.046548307 -0.21539436 -0.14520217 -0.31528392 -0.14261523 0.17062691 0.21874739 0.070058025 0.29058245 0.10411099 -0.03694675 0.28995925 -0.27411178 0.21664152 -0.21879545 -0.12355234 -0.10540452 0.18578176 -0.117946215 0.25958028 0.22500877 -0.02929922 0.18223625 0.033804137 0.07796595 0.097152025 -0.18905436 0.08567082 -0.25743768 0.10353143 -0.20581257 -0.15619712 -0.08221044 0.2341578 -0.040958177 -0.09924042 -0.13039541 -0.17866312 -0.06638475 -0.25307783 0.0670662 -0.2094367 0.19849005 0.06814812 -0.26131117 0.12456993 0.19427972 -0.24743006 -0.12835912 -0.047669075 0.1920208 -0.07223558 -0.14692953 0.13514236 0.09412603 0.18149234 -0.10036636 -0.16041355
2243 0.09910548 -0.15168768 0.005285456 0.00027257903 0.084769666 -0.13731827 0.023715321 -0.073170856 -0.063936904 -0.0826837 0.062162284 -0.0061076568 -0.0004012282 0.04327589 -0.04611268 -0.13039485 -0.016850898 0.09262276 -0.074751206 -0.055621546 -0.01710447 0.056818217 0.062108416 -0.10894561 -0.10454236 0.10091581 -0.0128457025 0.10127106 0.07665278 -0.053687874 0.034585804 -0.095098734 -0.10009779 -0.1058653 0.12191054 0.1654774 -0.026510978 -0.13370755 -0.077722155 -0.04543433 0.095904015 -0.0050549186 0.09852864 -0.0041195955 -0.033025827 0.04525983 -0.06628545 -0.114762135 -0.053218793 -0.006923391 0.09703088 0.016936446 -0.18913479 -0.019654542 0.10008973 -0.004884801 0.040715005 -0.067304336 -0.10256971 -0.008867992 0.09017487 -0.06988189 -0.027920783 0.06334514 -0.17066339 -0.19188054 -0.17040756 -0.24713485 -0.15855676 0.12617126 -0.14789069 -0.10935055 -0.17021671 -0.08264978 -0.21013306 0.06674912 0.14915386 0.10091279 0.11806198 0.07941482 0.006787116 0.16174152 -0.21633404 0.050960716 -0.15905476 -0.20306587 -0.01603702 0.102128804 0.029620003 0.075592354 0.09546423 -0.08605875 0.23308691 0.08501523 0.12738664 0.045121446 -0.13292104 0.016282754 -0.19732675 0.15161876 -0.064119376 -0.0368843 0.01224071 0.17852479 -0.03843089 -0.01377239 -0.08468198 -0.24906775 -0.11619504 -0.13601224 0.038050134 -0.2129955 0.13411283 0.06734015 -0.14507574 0.14361075 0.11702632 -0.21217133 -0.19372478 0.19348748 0.110153966 -0.019514719 -0.120338835 0.20446038 0.21400368 0.19443682 0.054451037 -0.16737828
239 0.049479265 -0.05135193 0.16889349 -0.081470504 0.0097566955 -0.101690955 0.13831845 -0.0040380172 0.059964314 0.034076497 0.14998062 0.0362416 -0.009067221 -0.031776544 -0.078785636 -0.05181346 0.0074329204 0.07160717 0.008095548 0.12456739 0.07139282 -0.04846028 -0.10031051 0.016735202 0.035797138 0.1140403 0.012878025 0.037033726 -0.031814013 0.01724052 0.07148797 -0.049206868 0.046523243 0.062450692 0.03993819 -0.017534634 0.05255148 0.011698931 0.05683723 0.16295545 0.07568937 -0.12241446 -0.020862719 0.14204833 0.1406238 -0.11749906 0.05128603 0.0317107 0.02290309 0.032389916 0.098038495 0.045139678 -0.0135871 0.053790987 0.15942584 0.05585884 0.051855132 0.07187103 0.048514474 0.073272236 -0.00029138298 0.0076388894 0.018945586 0.013513426 -0.13533098 -0.14579302 -0.10813577 -0.1343417 -0.12543021 0.1300061 -0.2032029 -0.19161677 -0.12784444 -0.21561232 -0.22853038 0.15668298 0.1702063 0.18286803 0.09363075 0.009544956 -0.15276897 0.12922573 -0.13702871 0.0338913 -0.17053653 -0.13640375 -0.112198874 0.11609929 -0.05837386 0.059232198 0.066291116 -0.17320977 0.16918233 0.086841084 0.12669559 0.13115525 -0.057810664 -0.08240874 -0.18732654 0.21351032 0.04975482 -0.2094673 -0.060077377 0.084186524 0.009777358 -0.15606762 -0.15550606 -0.177928 -0.069341585 -0.14607821 -0.16028543 -0.17032114 0.0776502 0.26255044 -0.17005017 0.12056221 0.103248045 -0.14984407 -0.15537004 0.27396157 0.21891348 -0.23268834 -0.015153905 0.20136523 0.19363771 0.19840756 -0.06678978 -0.12014287
1221 0.057162814 -0.06542679 0.11484201 0.09006059 -0.13481666 -0.08291507 0.081675656 0.008759126 0.016697697 -0.0807967 0.08769031 -0.031662025 -0.10726362 -0.029691089 -0.0062134597 0.022668695 0.1363619 -0.04293715 0.05662702 0.09143587 0.06491472 -0.09893898 0.0529161 0.008434729 0.038511723 0.09316764 0.00082178996 -0.048391424 0.08678177 0.0057609053 -0.062988274 -0.12757789 -0.016448395 -0.0318262 0.035005677 0.01783174 0.03677273 -0.056093637 -0.07357674 0.12069366 -0.11567981 0.049575057 -0.0010206345 0.10410365 0.046222877 0.0016120241 0.07011285 -0.02335467 0.019874465 -0.035505563 0.1542975 0.02455395 -0.0026976126 -0.11513548 0.025314339 0.070991024 0.02927273 -0.07473561 -0.006875964 -0.01624849 0.13783008 -0.010991969 0.010143889 -0.0094329165 -0.070369385 -0.14914294 -0.041024037 -0.15245715 -0.019688247 0.14466625 -0.018158315 -0.11461343 -0.22927757 -0.24231704 -0.24808747 0.17436455 0.07405136 -0.0074499953 0.15139435 0.0024307813 -0.059710767 0.057713706 -0.13063355 0.09685767 -0.13003814 -0.04441901 -0.01598459 0.08560969 -0.06999382 0.0823039 0.15859431 -0.11536209 0.13995612 -0.021414824 0.0058170967 0.06817358 -0.100286275 0.039944123 -0.085356906 0.16389951 -0.01398131 -0.0019569502 -0.008729977 0.11085079 -0.12181897 -0.09997267 -0.12820894 -0.19776858 -0.0815528 -0.18227904 0.00057908124 -0.1556883 0.10917392 0.12273317 -0.14252734 0.1345679 0.09676195 -0.062989764 -0.13799569 0.068649374 0.1005438 -0.16080728 -0.07411255 0.22881962 0.2285971 0.13576904 0.0010935179 -0.07021429
2148 0.19315307 -0.16001312 -0.084908076 0.09494189 0.03284325 0.040118415 0.19548482 -0.18044433 -0.19492584 0.04228438 -0.13305713 0.12579748 0.0081999395 -0.07676639 -0.18024369 -0.048891738 0.1585222 0.12707396 0.2521232 0.25194728 -0.037621386 0.0127501935 0.08800111 0.092439 0.06404023 0.033490777 -0.09003552 -0.07405199 -0.16264516 0.13587359 0.07583799 0.14317323 0.015485515 -0.015439399 -0.11741926 -0.23054454 0.020500217 0.2057939 -0.1751103 -0.023444446 0.23018104 0.18462981 0.17938825 0.00432007 -0.12975772 -0.03594166 -0.045760904 -0.02467053 -0.04858207 -0.10176724 0.17825125 -0.05174705 0.16597511 0.060411036 0.244696 -0.03625276 -0.0910541 -0.15193143 -0.19676343 0.13073398 -0.068071656 0.1007652 0.007748614 0.16931964 -0.069968075 -0.20113654 -0.2353276 -0.29581094 -0.14513837 0.30104718 -0.17227678 -0.2164379 -0.042934325 -0.15816486 -0.15252504 0.18546703 0.18672846 0.1074821 0.10814334 0.34450194 -0.1689784 0.092259005 -0.29802573 0.24111947 -0.23268144 -0.24091335 0.059182815 0.12755586 0.21903136 0.20459035 0.3080945 -0.17060877 0.30928674 -0.05439397 0.2747416 0.112122566 -0.13843642 -0.014806546 -0.14419284 0.28350267 -0.2563516 -0.05842857 -0.2333384 0.31783035 -0.05109192 -0.13086976 -0.2547769 -0.06927077 -0.03411459 -0.2960142 0.15834366 -0.31525338 0.30121002 0.022175927 -0.31973144 0.41187653 0.17220044 -0.27220258 -0.30864114 0.010047689 0.22662832 -0.28607115 -0.17138293 0.15379976 0.22186884 0.27509737 0.16313522 -0.30424604
300 0.13847265 0.03448692 0.068096876 -0.024689445 0.007893389 -0.060743768 0.023492312 0.031242851 -0.0045868503 0.013960079 0.01213076 0.05534943 0.017018395 0.07836169 0.07896469 -0.04430433 0.15239348 0.03475306 0.03176154 -0.06655745 0.014037168 -0.031356405 0.0534474 0.07592993 -0.032397404 -0.07648525 -0.0487958 -0.1236652 -0.023438714 -0.0051760757 0.032935113 -0.049819227 -0.018799173 0.1799995 0.06866058 -0.09372081 0.09617417 0.10067679 0.028699856 0.12246308 -0.04632565 -0.00854931 -0.04199321 0.107221715 0.042743735 0.034817137 0.20901749 -0.09386643 0.07217496 0.09173558 0.03406327 0.048131857 -0.0050985264 0.080878474 0.034784704 0.05187292 -0.07667518 -0.043323603 -0.10053581 0.024415273 -0.013103021 0.046295147 0.20160556 0.067748696 -0.05957686 -0.08137586 -0.15854429 -0.24006337 -0.18624657 0.10465109 -0.22782633 -0.11760843 -0.12530129 -0.11212396 -0.15577114 0.16301851 0.068002574 0.1371198 0.10050042 0.09894107 -0.122211576 0.16194977 -0.19785544 0.07554653 -0.18199852 -0.14822276 -0.099034764 0.029671816 0.0098341 0.17115083 0.1472824 -0.07403606 0.16822195 0.14383289 0.16876794 0.14909332 -0.09088884 0.031283677 -0.14144295 0.1454084 -0.081876345 -0.09210581 -0.06099012 0.10779273 0.01612318 -0.13490266 -0.035560116 -0.2327548 -0.17918128 -0.11441268 -0.049538985 -0.081814654 0.1709982 0.16337052 -0.08126438 0.122971 0.07643038 -0.18657339 -0.15149057 0.18122564 0.14379743 -0.053255506 -0.14254713 0.11671854 0.096536145 0.1596832 -0.034084726 -0.21199475
1162 0.006740207 -0.01995395 -0.00982068 -0.08644751 -0.057784423 -0.0035010215 0.059406284 0.065719016 -0.013556852 0.10795702 -0.0748913 -0.048610244 0.008534335 -0.007855248 -0.002096324 0.075592324 0.025200717 -0.062095657 -0.098199606 0.03800319 0.04491983 -0.12206075 0.009314673 0.019483319 -3.4641263e-05 0.14463599 0.021431234 -0.06393063 0.0024078458 0.03706514 0.04817074 -0.044512462 0.005261939 0.01664147 -0.027030813 0.065291025 0.03161669 -0.010771027 -0.09234432 0.030038144 0.019549321 -0.044517394 0.005892678 0.008233617 -0.070887774 -0.07373356 0.0085624205 -0.022115424 -0.018807456 0.053710096 -0.033647478 -0.025844667 0.030753065 0.031601775 -0.012585583 0.06054357 -0.0011787392 -0.051170625 0.01210515 -0.016476054 0.07700107 -0.016478464 -0.058315843 -0.11122445 0.02650995 -0.10496043 -0.042689506 -0.10328244 -0.10322344 0.094828345 -0.11218238 -0.09007536 -0.13611503 -0.15168403 -0.10553577 0.14365461 0.061695922 0.0654979 0.093035944 0.055499624 -0.008745754 0.030928448 -0.14392732 -0.028405918 -0.077226266 -0.12376992 0.004482704 0.06727474 0.025250662 0.06898738 0.10494222 -0.044438723 0.17598577 0.044823553 0.09235859 0.043806333 -0.09983767 -0.009720902 -0.10758147 0.122099936 -0.028839646 -0.043544363 -0.06482573 0.07258422 -0.03881088 -0.045262374 -0.17144665 -0.16224194 -0.16834334 -0.106148794 -0.0742305 -0.12332622 0.08099769 0.07542644 -0.09902399 0.06352189 0.07012765 -0.12064984 -0.12826902 -0.0020110463 0.09994537 -0.06320055 -0.05667701 0.1457173 0.18675987 0.08965172 -0.004857314 -0.12647492
1282 0.10192973 -0.0058602965 -0.020927507 -0.026045935 0.05503776 0.054212373 0.00038348045 -0.065452 -0.07073701 -0.015516661 -0.006133068 -0.011259487 0.094020866 0.0067839283 0.02823949 -0.081342146 -0.108866036 -0.040729422 -0.07283362 0.011994634 0.00763944 0.013806682 0.008885474 0.01832972 0.056119125 0.021405727 -0.02993413 0.007848669 -0.07511531 0.04388624 -0.04042329 -0.015943194 0.12465455 0.0054462724 0.11517046 0.0004099917 -0.040836163 -0.08192154 0.016341042 0.073038325 -0.104372725 -0.071442485 0.17312829 -0.024807274 0.14026333 0.01996296 -0.015548302 -0.013752236 -0.12158203 -0.051238716 -0.023512298 -0.108691484 -0.09429833 0.05700774 0.005755746 -0.032365542 0.08886313 -0.04858495 -0.04078594 0.10918643 -0.0624975 -0.039493877 0.06478979 0.049514595 -0.013233331 -0.115966626 -0.020402314 -0.20658313 -0.12110655 0.12302186 -0.082848504 -0.16406922 -0.07006614 0.0122743705 -0.05660617 0.06589547 0.05620994 0.117893204 0.016058153 0.07403559 -0.014011547 0.070804395 -0.061019365 -0.035208393 -0.09687279 -0.052683078 -0.14347924 0.099588506 -0.08730178 0.18779452 0.13176024 -0.13458675 0.15966414 -0.035538945 0.07276258 0.104452685 -0.07483708 0.008683979 -0.09317302 0.15834644 -0.09690464 -0.06447212 -0.10697818 0.034459352 -0.015067894 -0.1610916 -0.096245125 -0.19622499 -0.046242382 -0.054690547 -0.14352731 -0.16034 0.07438961 0.039696954 -0.108270235 0.16034205 0.22801381 -0.12418557 -0.19442186 0.19390863 0.07164856 -0.10140035 -0.13851656 0.18052748 0.088951044 0.19717517 -0.05602559 -0.06957621
344 -0.0116799725 0.11280595 -0.013915273 0.06395671 0.0992984 0.031771556 0.010769541 0.08099766 0.042881615 0.11642115 -0.011471135 -0.070363745 -0.00092638616 -0.03618359 0.041839283 -0.019881096 -0.083440326 -0.09360147 -0.012097368 0.010869395 0.08491537 -0.034535233 0.062892124 -0.013656332 -0.039667983 -0.05925001 -0.061864905 -0.018276356 0.14185767 -0.0011071784 -0.20716652 0.16437314 0.047635127 0.07807044 -0.08696924 -0.016404115 0.09261637 -0.003431797 -0.07613321 0.055615313 0.000704016 -0.025630979 0.17109762 0.060370088 -0.046808925 -0.026226906 0.07930609 0.07428868 0.10487359 -0.16526072 -0.037881684 -0.06308216 0.030234186 -0.09061218 -0.12332992 0.08445686 -0.05197067 0.013239455 -0.037335813 -0.15674734 -0.11284405 -0.065349594 0.10553128 -0.15362285 -0.018018655 -0.19825818 -0.14046437 -0.21715192 -0.26808518 0.22689298 -0.13412683 -0.07784468 -0.33989668 -0.116157636 -0.21687263 0.23119824 0.24468781 0.2591459 0.06320601 0.08709861 -0.27838638 0.14174663 -0.29872426 0.121514864 -0.25975758 -0.2370885 0.052518204 0.08450494 -0.03712375 0.2149336 0.15687306 -0.20034225 0.21136795 0.0040986584 0.28816116 0.15263326 -0.05240918 0.19635968 -0.14846016 0.19853117 -0.086443044 -0.0086339805 0.004961182 0.10608155 -0.1534595 -0.13318154 -0.31316856 -0.17727979 -0.09207665 -0.22791357 -0.050268304 -0.30500168 0.17856273 0.18333203 -0.2887389 0.23587431 0.26396802 -0.25634405 -0.28636253 0.14335947 0.16917413 -0.106016174 -0.12902305 0.20965783 0.13625005 0.18332703 -0.043770283 -0.17538515
513 -0.09514741 0.037425626 0.075137846 -0.016044462 0.062735446 0.021115508 0.16260026 -0.17841782 -0.005851251 -0.030042915 -0.019221902 0.031669594 0.07724969 -0.08038594 -0.11825996 0.008073295 -0.08948127 -0.0819707 0.0070077227 0.11351267 -0.08904827 0.072368555 0.004289684 -0.028225262 0.028964361 0.024535961 -0.054124966 0.035506323 0.06032552 0.0073839054 -0.09502459 0.094544545 0.056773942 -0.008019284 -0.03254233 0.0035509884 -0.021496486 0.041668627 -0.082108304 -0.019009696 0.105564326 0.12419802 0.03087932 -0.06383807 -0.11187954 -0.0022737775 0.03229267 0.05777042 -0.11324508 0.040040087 0.04554604 0.017145792 0.14988105 -0.045121696 0.01991894 -0.091067724 -0.073577054 -0.023078911 0.039458785 0.037497092 0.024828486 0.0012264684 -0.08290243 -0.0010794034 -0.10498495 -0.17433783 -0.06449407 -0.17261283 -0.17375499 0.23170504 -0.14344166 -0.16907944 -0.18497065 -0.15460886 -0.16840672 0.30017164 0.18413919 0.09853694 0.06906099 0.08792004 -0.06952445 0.227862 -0.06270979 0.09764572 -0.1988756 -0.13054958 0.06532582 0.079824634 0.06747238 0.1351334 0.048930842 -0.07091026 0.15051845 0.024492051 0.19810994 0.11717347 -0.19056359 0.03915221 -0.12188802 0.07456882 -0.10983201 -0.029218845 -0.04423581 0.1602729 -0.04961773 -0.10395896 -0.059278853 -0.16054742 -0.08708947 -0.15298755 -0.071967065 -0.14638038 0.118483126 0.11491054 -0.23023443 0.23270845 0.1074423 -0.33426225 -0.15573488 0.13958466 0.20017262 -0.16545808 -0.08880368 0.14730428 0.109888166 0.22327429 -0.014345217 -0.07118813
1854 -0.08189129 0.036402166 0.05038828 -0.09299608 -0.005242387 -0.035762724 0.053791285 0.020456485 0.028983325 -0.06501866 0.043291036 0.037058126 -0.11377109 -0.023000535 0.02109076 0.022473663 0.06411168 0.052147012 0.14515391 0.0030915702 -0.04893286 0.088064134 0.008189189 0.14946511 0.05354109 0.09050542 -0.08275668 0.043562178 -0.0106662065 0.008242946 -0.05176956 0.035905816 -0.026656993 0.16475642 0.09649635 0.07000947 -0.084159404 -0.09341751 0.11303496 0.04767754 -0.068555206 0.09688022 -0.043277238 -0.09966833 -0.038431954 0.06503268 0.052949276 0.029074784 0.029990634 0.16283305 -0.09109727 0.09530397 -0.00887799 0.04432233 -0.025517562 0.07923224 -0.06328875 -0.13143134 0.08737378 -0.08808086 -0.08750965 0.012395921 -0.030813118 0.04017335 0.047941573 -0.10883449 -0.10616706 -0.087388195 -0.047898985 0.14958356 -0.08440114 -0.11793564 -0.12658696 -0.10962026 -0.1929084 0.10210264 0.09055291 0.114265844 0.26507515 0.03510281 -0.11941724 0.114488184 -0.1057376 0.1693419 -0.18145753 -0.12839936 -0.030607197 0.010745946 -0.123358436 0.20008688 0.082531504 -0.10253876 0.15922073 0.07179535 0.23408507 0.039609946 -0.090252236 -0.05482453 -0.10060361 0.08706993 -0.16221026 -0.15679534 0.044560585 0.07178269 0.022029273 2.81115e-06 -0.27226162 -0.08589334 -0.024718326 -0.20658788 -0.049856175 -0.25438514 0.19711459 0.13576165 -0.144951 0.174757 0.08283705 -0.12489085 -0.13746755 0.09731395 0.114392504 -0.0570311 -0.07416743 0.14851187 0.22083402 0.24757417 -0.0013433188 -0.14544195
